人 -0.776042 -0.104692 -1.04178 -0.0579068 0.113728 -0.12352 -1.04099 -0.294834 0.0443557 -1.21768 0.273287 -0.860473 -0.0922133 -0.831671 0.0208552 0.371583 0.802023 -0.203022 1.03644 -0.562285 1.47815 -0.268356 -0.326174 0.897222 0.0170826 0.894645 0.883397 -0.0891389 0.566709 0.0982132 0.54535 -0.302197 0.0848309 0.222643 0.581302 0.341182 -0.86262 -1.09568 1.14458 -0.218664 -0.708919 -0.0229986 -0.935233 -1.20166 0.93027 0.059245 -0.0133666 -0.624237 -0.895931 -0.00825362 0.0295602 0.161201 1.53146 0.469652 -0.397953 -1.23757 -0.698659 0.0897992 0.0936243 0.367965 -1.40915 0.0856319 1.09279 1.24905 -0.588444 -0.487014 -0.093923 0.362495 -0.101832 -0.064164 -1.80029 1.04706 -0.459399 0.386863 -1.4439 0.135771 0.0967689 0.5344 -0.39189 -1.30206 0.961177 0.164649 1.23924 0.164763 -1.42997 -0.0467135 -0.833907 -0.461942 0.381173 0.202454 -0.136718 0.472014 -0.372042 -0.737962 0.281837 0.373439 -1.79749 0.768431 -0.737709 -0.113479 1.02771 0.606616 0.0294063 0.944159 0.836918 0.21175 0.283422 1.73518 -2.135 -0.881158 1.04572 -0.496782 0.552144 -0.751589 0.552001 -0.909214 -0.323805 -2.05109 -1.19258 -0.929683 -1.0696 -0.892892 0.500228 0.474375 -1.72553 0.075127 0.457501 0.646038
說 -0.324699 -0.33838 -1.05571 -0.10402 -0.200625 -0.308836 -1.07904 -0.0113823 -0.347813 -1.56566 0.557573 -0.616781 0.0554746 -0.73084 -0.55434 0.650989 1.20606 -0.191047 0.787409 -0.567914 0.940012 0.0676951 -0.582548 0.377261 0.00531833 1.2526 0.616925 -0.148468 0.195562 -0.299073 0.256675 -0.367922 -0.113274 0.416118 0.623177 0.765678 -0.994013 -0.920156 0.459032 -0.395776 -0.426795 -0.0469728 -0.419711 -0.920246 0.176271 0.0590004 0.168295 -0.602196 -0.735964 -0.574975 0.0382029 0.148142 0.803278 0.292184 -0.54739 -1.72257 -0.952308 0.592833 0.22089 0.80905 -1.17244 0.154538 1.01047 1.12167 -0.961949 -1.09971 0.0198127 0.17954 -0.192393 -0.320978 -1.86339 0.368055 -0.758314 -0.154905 -1.75272 -0.0224078 -0.190707 0.752097 -0.100511 -0.0780517 0.302563 0.780928 1.35382 0.292495 -1.19268 -0.480665 -0.941796 -0.609038 0.675788 0.137899 -0.504479 0.120708 0.218854 -0.550393 -0.0988911 -0.110294 -1.58715 0.764214 -1.43465 -0.534856 0.748884 1.36991 -0.734448 0.656888 0.791416 0.311971 -0.0569361 1.31855 -1.59865 -0.789482 1.08643 -0.700855 0.344033 -0.0696422 -0.0781747 -0.367783 -0.0645001 -2.11995 -1.26276 -1.59543 -0.720498 -0.276186 -0.135009 -0.252615 -1.41412 -0.181334 0.212678 0.805903
看 -0.41086 -0.249038 -0.318015 0.0893358 -0.0105204 -0.533779 -1.39038 -0.145141 -0.438641 -1.44921 -0.0467801 0.464548 0.103928 -0.729539 -0.0696772 0.181978 0.538676 -0.857316 0.00154371 -1.13969 0.812366 -0.39913 -0.536525 0.515503 0.191123 0.296129 0.652174 -0.700723 1.0124 -0.387071 0.391988 0.0779851 0.278146 0.238997 0.77087 1.11541 -1.14419 -0.621421 0.466147 -0.468289 -0.439506 -0.0336063 -0.444439 -1.40974 0.0453366 -0.496186 -0.0660849 -0.358601 -0.456579 -0.396761 -0.246133 -0.171088 1.5483 0.347496 -0.730885 -1.48569 -0.98472 1.52462 0.311041 0.334758 -1.03399 -0.237515 1.00239 1.20161 -1.29155 -0.776991 -0.189264 0.523143 -0.483877 -0.14595 -1.33108 0.592957 -1.18502 -0.149906 -1.12712 0.0506917 0.0584248 0.777464 -0.417253 -0.97433 0.727813 0.193468 0.199382 -0.453658 -1.3957 -0.773005 -0.832058 -0.697728 0.301256 0.327926 -0.358803 0.0637009 1.15506 -1.03181 -0.112155 0.0123408 -1.84767 0.591479 -0.903125 -1.06582 1.14432 0.520177 -1.1049 0.932182 0.7792 0.430804 0.122018 1.04898 -2.13053 -0.854873 0.757541 -0.912349 0.646188 -0.367872 -0.459884 -0.453884 -0.291132 -1.95965 -1.15254 -1.62317 -0.603177 -1.08924 -0.0148478 -0.0779227 -1.34084 -0.473791 -0.111833 0.778381
推 -0.256805 0.128693 -1.43119 0.198321 0.283692 -0.461708 -0.722122 0.0397421 -0.341332 -1.27124 0.367929 -0.153693 -0.231079 0.265622 -0.814788 0.791912 0.408292 -0.553505 -0.511341 -0.900517 0.727003 0.032306 -0.482674 0.57819 -0.105519 0.271002 -0.215683 -0.596883 0.733744 -0.0940334 0.408717 0.123644 -0.255635 0.916384 0.385224 0.227058 -1.72383 -0.669519 0.602531 -0.596656 -0.626161 -1.3732 -1.20114 -0.737929 0.399489 -0.423831 0.567496 -0.276396 -1.097 -0.380254 -0.419445 -0.0733025 0.693255 0.458166 -1.36647 -1.53077 -1.26761 1.19515 0.0359553 0.706442 -1.39246 -0.484251 0.32289 0.721114 -0.550606 -1.46193 -0.814801 0.0940728 0.0277029 -0.0758941 -1.16112 0.236679 -0.720132 1.05002 -1.26308 -0.153885 -0.254169 0.649748 -0.967307 -0.373654 0.393035 -0.942849 0.379701 -0.518113 -1.90894 -0.927272 -1.43321 -0.298465 0.0876269 -0.0691525 -0.29274 0.183275 -0.175765 -0.870936 -0.000312015 -0.0755554 -1.08323 0.477085 -0.197729 -0.725938 -0.0093548 0.962345 -1.19369 -0.00640646 0.100729 0.389145 0.470558 1.1389 -1.75844 -0.882805 0.0798151 -0.643234 0.513229 -0.74287 0.239495 0.48587 -0.151045 -1.58364 -1.38663 -1.65096 -0.202046 -1.05156 0.457679 -0.550768 -1.12717 -0.00951535 -0.632555 0.596152
上 -0.0181179 -0.759195 -0.107874 -0.170958 0.470728 -0.610469 -1.43083 -0.760572 -1.04817 -0.487406 0.699266 -0.250695 0.379262 -0.907606 -0.123866 0.0450657 0.564421 0.0950354 0.507145 -0.0947271 0.127486 -0.323515 0.245025 -0.524339 0.0667351 0.672784 0.312659 0.53164 0.558064 -0.623253 0.731697 0.183955 -0.371701 0.161727 -0.159008 1.00007 -0.524443 -1.57138 -0.28416 -0.189333 -0.187029 0.527682 -0.760076 -2.40695 0.179709 0.202348 -0.685941 -0.921286 -0.990075 -0.129091 -0.756928 0.609371 0.409327 0.803129 -1.47879 -2.41237 -1.17 -0.159787 1.06823 0.404345 -1.1379 0.24721 0.880099 1.90959 -1.16154 -0.796454 0.394126 0.746817 -0.136215 -0.120936 -1.50719 0.717825 -1.19166 -0.291486 -0.940205 0.0365622 0.272056 1.04186 -0.196259 -0.674728 0.261647 0.344168 0.70601 -0.115272 -1.71137 -0.163722 -1.17054 -1.08532 0.414183 -0.0703278 0.0855924 -0.428714 -0.0912152 -0.845379 0.0544013 0.0516585 -1.68187 0.193868 -0.654888 -0.10164 0.987931 0.0537522 -0.0559018 1.04152 0.946544 -0.159358 0.437641 0.540301 -2.39558 0.20758 0.710773 -0.572341 0.399387 -0.797521 -0.190112 -0.309608 -0.292164 -1.79268 -1.21727 -1.7544 -0.722672 -0.479271 -0.0774153 -0.300839 -1.08067 -0.126163 0.278706 0.212907
大 -0.794548 0.366873 -0.93364 -0.156337 0.628249 -0.62828 -1.37852 -0.328822 -0.245835 -1.51169 -0.249646 -0.271647 0.0704236 -0.496431 -0.111826 0.0614526 0.5143 -0.597404 0.203957 -0.294859 0.172832 0.0585639 -0.276886 0.193557 -0.0498668 0.882697 -0.162024 -0.872637 0.746447 -0.344052 0.551358 0.00850418 0.363646 0.221485 0.725576 0.808265 -0.752634 -0.912237 0.460163 -0.573228 -0.447801 -0.98515 -1.26487 -0.862958 0.780274 -0.130119 -0.958997 -1.04055 -0.326308 -0.492326 0.700175 0.235601 -0.144524 0.747787 -0.993995 -1.14484 -0.905806 0.154431 0.360477 0.0759887 -1.7529 -0.221187 0.564655 1.87376 -1.23246 -1.71261 -0.0304223 0.75195 -0.728138 0.0278997 -1.24905 0.330048 -0.413889 0.0601444 -1.15565 0.130527 0.727476 0.632169 0.287962 -0.735659 0.393091 -0.769142 0.147393 -0.0946814 -0.529756 -0.68246 -1.19833 -0.123635 0.165958 -0.303962 -1.13506 0.654804 -0.984004 -0.135382 0.203748 -0.237713 -1.64608 0.839808 -0.371439 -0.189516 0.619038 0.389479 -0.833618 1.28882 0.517391 -0.0899173 0.211248 1.12678 -1.73022 -0.126219 -0.566999 -1.08993 0.634081 -0.260494 0.715887 0.0743837 -0.622985 -2.25352 -1.21477 -1.82469 -1.14486 0.366599 -0.114182 -0.844858 -1.77025 0.788211 0.432373 0.888312
一 -0.935558 0.0500058 -0.59684 0.10401 0.984814 0.341855 -1.11673 -0.505451 -0.737449 -0.542185 -0.443536 -0.127649 0.331582 -0.81795 -0.138323 -0.29323 0.279968 -0.0214638 0.0185044 -0.262114 1.01943 -0.250407 0.0937531 0.575449 -0.0760692 1.31315 0.56184 0.000917047 0.427708 -0.36083 0.595637 -0.328579 -0.673031 -0.258518 0.456219 0.320872 0.0095927 -1.52846 0.0944177 0.29869 -1.02989 -0.580913 -0.882165 -1.34138 0.165152 0.0321486 -0.707849 -0.813286 -1.47838 -0.507263 -0.0394576 -0.298203 0.976451 0.568339 -0.428491 -1.0894 -1.35542 0.844801 0.0476091 -0.586934 -0.956584 -1.00057 0.444413 1.66125 -0.97127 -0.717201 0.630993 0.034675 -1.33108 0.334063 -1.81133 0.113684 -0.637116 -0.269965 -1.29656 -0.524836 0.47936 0.929162 -0.642304 -1.18371 0.237035 0.589342 1.14263 -0.230898 -0.974209 -0.31037 -1.27214 -0.965065 -0.220415 0.216901 -0.378433 0.446636 -0.110017 -0.758969 -0.813847 0.570247 -2.1631 -0.0256445 -0.585274 0.294148 1.6862 0.0581852 -0.489277 1.0577 1.25092 -0.0756613 0.00917409 1.47795 -1.53749 -0.472296 0.39927 -0.871097 -0.0688618 -0.481551 0.290739 -0.593876 -0.686404 -1.99435 -1.16616 -0.778609 -0.970487 -0.980144 -0.352552 -1.03177 -1.66823 -0.243766 -0.315928 0.120774
台灣 -0.716281 0.185681 -0.926287 -0.860181 -0.713731 0.182592 -1.11153 -1.02019 0.530863 -1.42439 0.146564 -1.17596 -0.000776142 -0.805016 -0.114482 0.837081 0.81991 -0.0409077 0.372114 -0.993418 0.638611 -0.440406 -0.662071 0.154553 0.149123 0.0128962 0.443041 -0.267256 0.956349 -0.230674 -0.105336 -0.17271 -0.150204 -0.518593 0.545825 0.609432 -0.492298 -1.22863 0.464485 -0.147468 -0.104266 -0.335862 -0.896698 0.0632258 0.379589 0.0167282 -0.3114 -0.233334 -0.351817 -0.343347 -0.103003 0.451207 0.918028 0.133051 -1.27296 -1.71046 -0.0273035 -0.276566 -0.216108 0.899598 -0.432861 0.571294 0.372697 1.07755 -0.93092 -1.01956 0.00507817 0.394827 -0.55079 -0.68194 -1.11871 0.48198 -0.459216 -0.429945 -1.49827 0.324529 -0.398124 0.531059 -0.569535 -0.542573 0.85915 0.266404 1.05067 0.311106 -1.48985 -0.0199558 -0.173158 -0.528442 0.779463 -0.489195 0.539395 0.178976 -0.690181 0.332629 0.101986 0.259479 -1.40834 0.0775581 -0.366447 -0.303704 1.08247 0.481169 -0.384862 0.413942 0.838315 -0.529392 0.381714 1.61638 -1.75235 -0.47798 0.491483 -0.717674 0.637653 -0.688442 0.211299 -0.154594 -0.16626 -1.54985 -1.00458 -1.34725 -0.133549 -0.470588 0.0183779 0.305668 -1.86687 0.281237 0.399182 0.599193
小 -0.0205677 -0.484336 -0.446945 -0.0299455 1.15478 -0.558338 -0.626751 0.0916888 -0.0310286 -1.39963 -0.114974 0.167363 0.325718 -1.35055 -0.489709 -0.166306 0.720453 -0.14179 1.10777 -1.17017 0.686488 -0.424041 -0.357071 0.500299 -0.80481 1.26411 -0.114025 -0.671233 -0.139487 -0.85088 0.165821 -0.581231 -0.222013 0.39923 0.700304 1.4685 -0.85783 -1.23346 1.16498 -0.311548 -0.0604809 -0.581412 -0.556377 -1.99204 0.590374 -0.0228018 0.0439765 -0.924242 -1.0237 -0.997009 -0.311812 0.173658 -0.298149 0.849403 -1.13418 -1.33915 -0.388499 0.223808 -0.0197542 -0.699492 -0.939822 -0.380312 0.043545 1.55413 -1.03073 -1.24305 0.188386 0.557696 -0.120988 0.0043124 -1.13224 -0.0064739 -1.06135 0.0842375 -0.246059 -0.320886 -0.167502 -0.110621 0.0246845 -1.04499 -0.105021 -0.944226 0.222454 -0.495389 -0.973658 -0.483848 -0.312478 -0.121303 0.548691 -0.669704 -1.13573 -0.132322 -0.827693 -1.39052 -0.2364 -0.241293 -1.24919 0.588627 -0.960994 -0.0658516 0.260238 0.547343 0.135147 1.38952 0.563414 -0.649334 -0.115117 1.27984 -1.77064 -0.244423 0.206537 -0.918741 -0.20194 -0.508052 -0.137441 -0.25617 -0.903619 -2.23454 -1.30496 -1.62975 -0.834907 -0.0522667 -0.598002 0.163234 -1.66337 0.441936 0.996483 -0.322101
女生 -0.544574 -0.79512 -0.989521 -0.572591 0.286183 -0.103216 -0.732532 -0.789698 0.0835321 -0.825209 0.543454 -0.813682 -0.437201 -0.13776 -0.850645 -0.240403 0.447874 -0.0814445 0.928818 -0.381154 0.924822 -0.109557 -1.03756 0.538628 -0.000859946 0.610237 0.809511 -0.506474 -0.142128 -0.293702 0.19076 -0.175709 -0.0309946 0.413254 1.02591 -0.310109 -0.733961 -0.651902 0.388725 -0.773694 -0.336336 -0.0105616 -0.378522 -1.34741 -0.0231638 -0.551969 -0.181732 -0.5142 -1.34261 0.174811 -0.250493 -0.495868 0.951861 -0.58801 -0.331704 -1.0006 -1.12512 0.517746 -0.566441 0.289272 -0.589109 -0.330326 0.587436 -0.265188 -0.808392 -0.403536 -0.101666 -0.195439 0.427929 -0.903595 -1.62412 0.387673 -0.49055 0.48287 -1.49302 0.0352462 0.331964 -0.1331 -0.307024 -0.498938 0.213314 0.43819 0.315978 0.670431 -0.956282 0.362818 -0.535696 -0.095378 -0.0790235 0.282917 0.0538327 -0.119375 -0.0499042 -0.781853 0.209385 -0.886141 -1.07933 0.689374 -0.834281 -0.532706 0.0535557 0.42006 -0.670648 1.01138 0.320402 0.219395 -0.0711511 0.256887 -1.40091 -0.42666 0.37214 -1.06287 1.16269 -0.372825 0.451637 -0.705781 0.00257576 -1.51985 -0.780423 -1.33565 -1.13651 0.33043 -0.039489 -0.0292621 -1.24479 -0.685568 0.379937 0.674446
八卦 -0.431766 -0.251074 -1.1915 -0.170478 -0.316247 -0.193748 -1.04055 -0.655893 -0.0487918 -1.1994 -0.184399 -0.169962 -0.0760342 -1.07122 -0.174778 -0.205717 0.66571 -0.250278 -0.345998 -1.36934 -0.0972885 -0.290553 -0.459299 0.112293 -0.00874333 -0.525473 0.226799 -0.108443 0.311748 -0.313746 0.23328 -0.740049 -0.357556 -0.0506786 0.30668 0.718371 -0.719869 -0.719874 0.814274 -0.0560407 0.118249 -0.888566 -0.646207 -0.603119 -0.695633 0.475607 -0.445914 -0.353043 -1.03126 -0.0450354 -0.385443 0.791925 0.651631 0.131831 -0.596682 -1.99678 -0.994629 0.680286 -0.25621 0.343482 0.293311 0.0447908 0.457353 0.417588 -0.47128 -0.59335 -0.455877 0.274524 0.513029 -0.633374 -0.669334 0.16434 -0.723107 -0.392276 -1.60347 -0.815231 -0.463987 -0.108515 -0.121389 -0.523475 0.706122 -0.435198 0.279722 0.012839 -1.74764 0.385662 -1.17094 -0.702247 0.435774 -0.897329 -0.507639 0.038052 -0.735272 -0.678768 -0.0353438 -0.210503 -1.31702 -0.355188 -0.55763 -0.92786 0.529873 0.492757 -1.28837 -0.159872 -0.0975469 0.0258991 -0.0764641 0.559232 -1.50334 -0.527511 0.218649 -0.7971 0.775282 -0.645152 0.175831 0.184588 0.331057 -0.837457 -1.02566 -1.13382 0.0838807 -0.475658 0.0417199 -0.876935 -1.43249 0.0820236 -0.513987 0.000472926
下 -1.18587 -0.624315 -1.03901 -0.141691 0.338055 0.171571 -0.462197 -0.433084 -0.599026 -0.859959 0.306499 -0.064061 0.0579561 -0.504281 0.123498 0.00704226 0.0878763 -0.171432 0.0741046 -0.307373 0.124608 -0.62633 0.034572 -0.00466555 0.191223 0.717469 0.338721 -0.384437 0.194664 -0.368224 -0.370476 -0.0591313 -0.436762 -0.290336 -0.618352 0.237872 -0.505288 -0.884164 -0.724814 -0.00842234 0.0222315 -0.297486 -1.03332 -1.55875 0.106209 -0.0502057 -0.429498 -0.317453 -1.0494 -0.074276 -0.96715 0.154819 0.0364171 0.694798 -1.00459 -0.692656 -0.199003 -0.0572775 0.332968 -0.219466 -0.93578 -0.542188 0.252035 1.3835 -0.975533 -1.21119 0.144155 -0.436639 0.0457036 0.271052 -1.69538 0.979245 -1.26782 -0.0561445 -1.1266 -0.00941539 -0.262038 0.607572 -0.216809 -0.112561 0.247172 -0.136053 0.719871 0.171075 -1.37152 -0.15274 -1.41014 -0.587689 -0.152984 0.162477 -0.212049 -0.384509 -0.193356 -0.114931 0.260944 0.850931 -1.75902 0.199574 -0.449014 -0.703186 0.899134 0.560137 0.469889 0.886552 1.11229 -1.1051 0.381755 0.710663 -1.77882 -0.466044 0.20039 -0.498041 0.389635 -0.256861 0.41634 -0.251817 -0.675815 -1.46843 -0.980227 -0.825227 -1.47979 -0.749254 -0.540494 -0.35999 -0.856472 -0.621952 -0.150444 0.175983
餐廳 -0.605927 0.353751 0.133053 -0.860947 0.103478 -0.256837 -0.325257 -0.488764 -0.119952 -1.42193 -0.194394 0.263398 -0.870904 -1.22301 -0.895072 -0.537324 1.22257 -0.205493 -0.225542 -0.975318 0.0713784 -0.317584 0.248701 -0.220602 -0.858445 0.761721 -0.135894 -0.13769 -0.077845 0.000366449 0.598534 -0.180177 -0.545185 -0.923921 0.0508386 0.209847 -0.494583 -1.20393 0.596433 0.259346 -0.745428 0.0404326 -1.12773 -1.0506 0.125958 -0.344639 -0.578732 -1.27011 -0.341997 -0.127048 0.237065 -0.237236 -0.685625 -0.432644 -1.45502 -1.1622 -0.922296 -0.584222 -0.252725 -0.484129 0.355118 0.158108 0.526414 1.13341 -1.56278 -0.571976 -0.450814 0.489702 -0.695575 -0.0457357 -1.03358 -0.446872 -1.2785 0.0947707 -0.903063 0.417 -0.926193 -0.300088 -0.600308 -1.47869 0.26628 -0.700139 -0.359982 -0.737982 0.548148 -0.219691 -1.45115 -1.08631 1.0528 -0.506534 -0.364818 0.141438 0.248327 -0.489529 -0.380026 -0.189875 -0.478192 -0.249837 -0.109373 -0.186187 -0.724413 0.145331 0.579101 0.918567 0.806963 -1.06147 -0.180241 0.247923 -0.271361 0.0743055 0.39191 0.118836 -0.342786 0.401748 0.358143 -0.173881 -0.897317 -1.57087 0.0691211 -0.87546 -0.583359 -1.47547 -0.241001 -0.361244 -0.885192 0.00799555 0.0289495 0.771617
高 -0.839986 0.00336108 -0.641445 -1.1071 -0.131745 -0.0301059 -1.94452 -0.307233 -0.104439 -1.01175 -1.00023 -0.774522 -0.958946 -0.129202 0.560935 -0.237946 1.15753 -0.288157 0.0419411 -0.249069 0.145138 0.376509 0.234851 0.141621 0.362383 0.0962211 -0.230308 -0.570689 0.138441 -0.400024 -0.349774 -0.233913 -0.684371 0.511332 0.846429 -0.22619 -0.901071 -1.01313 -0.0648669 -0.923494 0.554132 0.351462 -0.553463 -1.28414 0.0993413 -0.493548 -0.641546 -0.871778 -1.11532 -0.0404807 0.43946 0.292691 -0.0924394 0.611403 -1.01838 -1.03232 -0.248504 -0.929992 -0.169985 -0.345042 -1.048 -0.269576 -0.184573 0.538644 -1.08016 -0.708126 -0.266825 0.427309 -0.0610051 -1.32967 -0.527675 -0.251429 -0.488145 0.420714 -1.10578 0.250835 -0.786177 -0.19033 -0.444106 -0.576806 0.599776 -0.122295 0.969159 0.0683085 -1.28196 -1.13778 -0.618064 -1.38269 0.782643 -0.234865 0.0657811 -0.059037 -0.546522 -0.00983942 -0.987978 -0.523041 -1.29963 0.212125 -0.447294 -0.190134 0.9712 0.313677 -0.818376 0.938931 0.352587 -0.429807 0.386788 1.13246 -1.5286 -0.0266173 -0.0560826 -0.540646 -0.0154755 -0.703614 0.1601 0.250342 -0.673654 -1.94304 -0.393967 -0.798992 -0.720212 -0.670602 -0.249166 0.0820851 -0.707782 -0.447729 0.441514 1.04294
日本 -0.335613 -0.232409 -0.600305 -0.888993 -0.758085 -0.198621 -0.779581 -1.10492 0.562408 -1.74492 0.341926 -0.990798 -0.466076 -0.409821 -0.190264 0.375214 0.770338 -0.497934 0.516207 -0.787551 0.547331 -0.76013 -1.04139 0.0506901 -0.0517262 -0.264264 0.0606718 -0.173605 0.335216 0.347768 0.109726 -0.459128 -0.166575 -0.689901 0.193724 0.415191 -0.540003 -0.877634 -0.0748328 -0.133885 -0.071634 -0.0443581 -1.30706 0.310382 0.570378 0.227042 -0.742883 -0.699293 -0.447823 -0.586614 -0.154843 0.430993 0.255491 -0.017317 -1.06394 -1.52652 -0.336508 -0.219287 0.0735019 0.194949 0.0397222 0.611637 -0.219828 0.774534 -0.88654 -0.942695 -0.304305 0.437615 -0.783567 -0.747013 -1.58159 -0.0330464 -0.935297 -0.874931 -1.20585 0.785276 -0.819847 0.470238 -0.500344 -0.738379 0.310991 0.29932 0.801279 0.32748 -0.925745 0.0900041 -0.726227 -0.730248 0.38221 -1.08816 0.388863 0.253747 -0.369292 -0.0602767 -0.0147024 0.408039 -0.8036 0.14369 0.025285 -0.383705 0.909474 -0.0642547 -0.309939 0.393441 1.08467 -0.504615 0.0788385 0.882313 -1.56483 -1.23254 0.203929 -0.567655 -0.143622 -0.718475 -0.100925 -0.901729 -0.850392 -1.13079 -0.514425 -1.02672 -0.136687 -0.326376 -0.000612106 0.481032 -1.14358 -0.174582 0.520238 0.217545
家 -0.668015 -0.196676 -0.938869 -0.625527 -0.636761 -0.138394 -0.929728 0.373513 -0.315005 -0.723461 0.297784 -0.470561 -0.485485 -0.708634 -0.921347 0.188182 0.852778 -0.385889 0.459499 -0.212909 0.616692 -0.122441 -0.382732 -0.13018 -0.319389 0.37595 -0.143668 -0.25002 -0.295295 -0.143909 -0.195888 -0.247259 0.414519 -0.635303 0.580571 0.223237 -0.540901 -1.1361 -0.0469095 -0.203914 -0.942964 0.314464 -1.07094 -0.584043 -0.523682 -0.180728 -0.178768 -1.15966 -0.764978 -0.758196 -0.130066 -0.183725 0.0898401 -0.434011 -0.791352 -1.25238 -0.719915 0.166232 0.161359 0.225621 -0.291038 -0.18519 0.708559 0.495928 -1.23956 -0.842054 0.384085 -0.208779 -1.19582 0.335178 -1.60906 0.0765901 -1.37503 0.319744 -0.889195 0.0496089 -0.264451 -0.30835 -0.25296 -0.883793 0.00878222 -0.280944 0.098498 0.351432 -0.509351 -0.343225 -1.16686 0.0306241 0.733393 -0.975056 -0.397247 -0.152989 -0.715453 -1.11881 -0.757394 -0.336095 -1.31459 0.634027 -0.185849 -0.550334 -0.233004 0.660208 -0.188873 1.00671 0.49844 -0.926241 -0.156339 0.462908 -1.43945 0.161055 0.455634 0.277223 0.143813 0.267173 -0.0421076 0.115558 -0.314064 -2.24371 -0.805127 -1.32562 -0.473902 -0.297182 0.0792673 -0.44025 -1.33601 0.0321505 -0.147257 0.0247506
錢 -0.0659213 -0.546558 -0.968336 -1.11464 -0.416549 0.548878 -1.41063 -0.435584 -0.00450845 -0.33291 -0.188241 -1.27973 -0.510876 -0.219123 0.342278 0.919968 -0.131711 -0.396753 0.80135 -0.264502 0.530726 -0.4955 -0.749352 -0.0961046 0.251756 0.727956 0.699925 -0.583316 -0.122463 -0.13327 -1.03785 -0.883477 0.356542 -0.443241 0.198305 -0.209629 -0.32206 -0.796347 0.808914 0.454094 -0.641831 -0.670858 0.263737 -0.607535 0.590601 -0.144602 0.0953578 -1.13407 -1.14267 -0.397029 -0.244746 -0.535216 0.358763 -0.162796 -0.89398 -1.16598 0.81805 0.270571 -0.232331 0.126858 -0.796195 -0.357845 0.414297 -0.083091 -0.830814 -0.0728154 0.671565 0.173975 -0.103085 -0.969951 -1.18479 -0.265299 -0.764186 -0.0119071 -1.02182 -0.982951 -0.426812 -0.0254345 -0.44031 -0.212281 0.0452413 -0.181552 0.665395 0.615846 -0.893188 -0.496546 -0.885559 -0.578502 0.0796635 0.627823 -0.186126 -0.384228 -0.10297 -0.384344 -0.504598 -0.41791 -1.18829 0.897281 -0.458293 -0.82464 -0.481317 0.669858 -0.295291 0.336858 0.441162 -0.300004 -0.5525 1.26384 -1.70728 -0.405822 0.35234 -0.107332 1.35852 0.0926167 -0.385577 -0.125848 -0.453329 -1.83901 -1.19728 -0.776211 -0.227137 -0.331112 1.07794 -0.213513 -1.59594 -0.638727 -0.11001 0.051725
噓 -0.172529 0.107103 -1.60658 0.248938 -0.31487 -0.374115 -0.268536 -0.449643 0.0107387 -0.970934 -0.136702 -0.385426 -0.00598741 -0.0749096 -0.702758 0.353165 -0.340806 -0.0620414 -0.0487213 -0.423247 0.550706 0.0286668 -1.04371 0.517201 -0.397568 0.444522 -0.413825 -0.688362 -0.0845154 -0.572442 0.0284615 0.212605 -0.551549 0.390597 0.0291955 -0.310923 -1.2588 -0.473152 0.753843 -0.602008 -0.48265 -0.896391 -0.563145 -0.4542 -0.0737237 -0.29904 0.420094 -0.716954 -0.779454 0.0337924 -0.545163 -0.515507 0.98193 -0.312608 -0.778375 -0.808917 -0.366242 0.937913 0.203513 0.269286 -0.406759 0.218967 0.133775 -0.295478 -0.0936012 -1.20319 -0.665787 -0.118466 0.66618 -0.710103 -1.28219 -0.644663 -0.560603 0.486662 -0.960699 -0.033176 0.00524999 -0.0250533 -1.23275 0.146046 0.199116 -0.667637 0.321638 -0.431559 -1.89389 -0.161133 -1.24356 -0.18507 -0.335152 0.509243 -0.162954 -0.235281 -0.797144 -0.70755 -0.39226 -0.440834 -1.26808 0.301109 -0.449265 -1.03122 0.407849 0.440983 -1.09547 -0.853732 -0.588557 0.279927 0.556052 0.966409 -1.54424 -1.62826 -0.241114 -0.575327 0.537078 -0.380447 1.14209 0.00878354 0.182742 -1.01478 -0.794709 -1.5341 -0.0183923 -0.646801 0.191161 -0.310668 -1.54805 -0.281828 -1.50737 -0.00181706
地 -0.645875 -0.0114439 -0.535562 -0.293556 -0.0322584 0.256826 -0.087281 -0.289651 -0.662631 -0.962573 0.968255 -1.07498 0.00247335 -0.547569 -0.613872 -0.498853 -0.15209 -0.28198 -0.0434803 -0.147576 0.859603 -0.848549 -0.0352255 0.729211 0.13163 0.841011 -0.303115 -0.926499 0.704485 0.700569 -0.537666 -1.00776 -0.576692 0.474149 -0.433246 0.442448 -0.905575 -1.75872 0.0440446 -0.435861 0.121671 -0.316265 -1.23326 -1.15011 0.425835 -0.318353 -0.716343 -0.0158379 -0.726709 0.321683 0.307002 0.0316999 0.182555 -0.192806 -0.225311 -0.889113 -0.781284 -0.246427 0.0773394 0.442222 -1.13303 -0.193153 0.949657 0.831619 -0.281788 -0.559456 0.0704386 -0.132838 -1.02396 -0.0133988 -1.13741 0.669908 -0.588837 -0.369961 -1.10794 -0.0475344 -0.258079 0.533553 0.2925 -0.633818 0.303697 0.876713 0.65223 0.0724403 -0.902821 -0.790436 -0.626074 -0.864921 1.09102 0.830976 0.114254 0.273349 -0.393434 -0.775799 1.03275 0.91371 -1.68592 0.645681 -0.825971 -0.00446275 0.292562 -0.0119626 -0.052633 0.531082 1.10876 -0.476268 0.124823 0.996318 -1.33314 -0.278447 0.510279 0.065624 0.31201 0.602287 0.549762 0.0481155 -1.07719 -1.61888 -0.411241 -0.253598 -1.40922 -1.54966 -0.56149 -0.397181 -0.189355 -0.651014 -0.0640203 1.06845
台北 -0.433222 0.758271 0.0428377 -0.113715 -0.464115 0.414405 -0.313633 -0.228308 -0.75992 -1.43043 -0.275583 0.184748 -0.647344 -0.788173 -0.423708 -0.131099 0.824332 -0.582401 0.181216 -0.836807 -0.268852 0.27844 0.275871 -0.796014 -0.874109 0.340593 -0.352179 -0.893358 0.410108 -0.186637 0.282342 -0.679063 -0.327971 -1.01464 0.360913 -0.123537 -0.150744 -1.49289 0.0342726 -0.329514 -0.545857 0.0895202 -0.471805 -0.597663 -0.681565 -0.179552 -0.403962 -0.401006 -0.513812 -0.753379 0.179264 -0.453477 0.612932 0.344253 -1.77668 -1.13258 -1.03666 -0.532257 0.0857679 0.62201 1.13715 0.386093 -0.591479 0.92706 -1.6488 -0.994561 0.704577 -0.179883 -0.446575 -0.471107 -0.658995 -0.346456 -1.12797 -0.15253 -1.5321 0.46882 -0.507893 0.0468057 0.17805 -1.13273 0.595132 -0.25424 0.131798 -0.109397 -0.477767 -1.31824 -1.09283 -1.04495 1.10877 -0.490503 -0.246512 0.216057 -0.406385 0.179755 -0.603397 -0.00224695 -1.42833 -0.164773 -0.849785 -0.322946 0.0153201 0.695154 -0.414423 0.800055 -0.128507 -1.008 0.375358 1.01322 -1.04174 -0.341511 0.14636 0.214792 0.532534 -0.131093 0.440092 0.0615284 -0.582458 -1.5295 -0.417266 -0.704638 -0.6652 -1.19155 0.176235 0.104032 -1.0531 -0.199582 0.244177 -0.071117
電話 -0.816508 0.635075 -0.376298 -1.16749 -0.579313 -0.93002 0.663224 0.148826 0.44364 -0.660505 -0.875944 -0.367626 0.0749746 1.1559 -0.830256 0.653135 -0.235498 -0.912597 1.26846 0.652535 -1.26085 0.0882565 -0.234906 -0.384297 -0.131487 0.676335 0.678023 -0.225057 -1.51396 -0.859397 0.645914 -0.366824 -1.24373 -0.454529 -1.58744 -1.6326 -0.359955 -1.63126 0.822433 -1.34751 -0.49363 -0.0449406 -0.853702 -0.483725 -0.488003 -1.00569 0.162565 -0.683793 -0.772066 -1.31111 -0.794475 -0.86259 0.487696 -0.620218 0.145095 -0.416075 -0.750036 -0.227681 0.927542 -0.366525 0.563278 -0.289623 0.922635 -0.141828 -0.753555 -0.427186 0.0518159 0.284921 -0.238896 0.582561 -0.175285 -0.472792 -0.28443 -0.6719 -0.642151 -0.209273 -0.5733 -0.518322 1.50497 -1.13014 0.7092 -0.00556526 -0.467873 0.258512 -0.357363 -0.228313 -1.15079 -1.59142 -0.257893 -0.949558 -0.0920615 -0.2473 0.694663 -0.869425 -0.416794 -0.321897 0.311288 -0.94505 -1.49758 0.232054 -0.0271408 1.41102 -0.879066 0.158653 -0.346644 -0.0637272 -0.627094 0.324894 0.307065 0.634202 -0.251522 0.327212 -0.825893 0.143686 0.464825 -1.01813 -0.817456 -0.751433 -1.0931 -0.542056 -1.8737 -0.698188 -0.414758 -1.27934 -0.684531 0.425081 -0.711594 1.22857
寫 0.52841 0.00665089 -0.653491 -0.157814 0.326186 0.0881203 -0.829579 -0.442702 -0.135881 -1.38058 0.850803 0.000267047 0.270088 -0.394964 -0.491601 0.362925 0.152709 -0.455747 0.734322 -0.844667 0.150279 -0.176604 -0.593699 -0.210965 -0.455639 0.70357 0.216784 0.0172622 0.202658 -0.330729 0.549156 0.304269 -0.733384 0.194145 -0.102687 1.07659 -1.02286 -0.4866 0.334445 -0.283285 -0.626467 -0.134808 0.0887053 -0.688771 -0.0542116 -0.299554 -0.665814 -0.429881 -0.436494 -0.0662967 -0.26699 -0.0235634 0.37703 0.222294 -0.810929 -1.40056 -0.298484 1.17964 0.400574 0.548982 -0.629166 -0.352535 0.441352 0.251817 -0.340015 -1.15408 0.250267 0.257357 0.604888 0.59517 -1.24664 -0.176624 -1.22902 0.0730722 -0.825961 0.305412 -0.235302 0.506211 -0.428383 -0.735053 -0.237071 -0.555793 0.243555 0.00530288 -0.943303 -1.11515 -1.03647 -1.23051 0.0516127 0.298872 0.16246 -1.03297 0.408512 -1.23239 0.356971 -0.162804 -1.08734 -0.431139 -0.86926 -1.15674 0.530332 -0.0957498 -0.637838 -0.699756 0.4151 -0.0913432 0.209834 0.191576 -1.69445 -0.585908 0.222391 -0.76943 0.191829 -0.307737 -0.843294 -0.170165 -0.0253674 -1.25478 -1.18356 -1.02288 -0.226329 -1.06448 0.210057 -0.279352 -0.686381 -0.225582 0.265336 0.982609
女 -1.23735 -0.770317 -1.18718 -0.647495 0.427638 0.205629 -0.738443 -0.601058 0.0497744 -0.975073 -0.0968298 -0.333272 -0.500306 -0.551108 -0.822595 -0.126666 0.857705 -0.130003 0.525866 -0.668584 1.09466 -0.331517 -0.864125 0.470398 -0.0847814 0.659943 0.125175 0.158068 -0.786659 0.227552 -0.434069 -0.288178 -0.0450128 0.559286 0.0601605 0.211252 -1.33695 -0.116795 -0.230329 -0.817072 -0.344214 0.273983 -0.509343 -1.51902 0.558675 -0.614234 0.243905 -0.528891 -1.28174 0.14227 -0.0293413 -0.416371 0.270821 0.570735 -0.372999 -0.591857 -1.54946 0.767937 0.0207577 -0.00448852 -0.283708 0.170621 0.188826 0.445768 -0.699906 -1.72276 0.388668 0.195965 -0.246226 -1.02091 -0.779121 0.145169 -0.461891 0.161697 -1.6251 -0.294834 0.24235 0.0977583 0.356206 -0.566636 1.07816 -0.150214 0.716274 0.970738 -0.890959 -0.426173 -0.785756 -0.543202 -0.0625788 0.0582585 -0.304952 -0.0751238 -0.838372 -0.584112 -0.184566 -1.4483 -1.17086 0.278503 -0.481634 -0.51665 0.616119 0.0649224 -0.301536 0.166504 -0.303419 0.0392858 0.0609742 0.00902505 -0.624392 -1.07044 0.173084 -0.46491 0.942903 -0.514861 -0.0595701 -0.959551 -0.505307 -0.928957 -0.696465 -1.06855 -0.75827 -0.265364 -0.862362 -0.467455 -1.1127 0.498829 0.698563 -0.424929
聽 -0.169638 -0.0744165 -0.917358 -0.131579 -0.0835868 -0.68263 -0.893325 -0.0462332 0.079214 -0.989258 0.409583 -0.408 -0.3771 -0.321457 -0.151145 0.54449 0.858542 -0.520597 0.728451 -1.37437 0.38137 -0.347204 -1.45643 0.803297 -0.28973 0.497213 0.315239 -0.279839 -0.528787 -0.248532 0.530841 -0.13429 0.0531561 0.159415 -0.0759772 0.89593 -0.209774 -1.01616 0.777439 -0.713917 -0.922656 -1.02678 -0.225819 -1.06959 -0.789441 -0.388225 -0.638312 -0.277353 -0.603266 -0.274745 0.556115 -0.191654 -0.211518 -0.0893686 -0.563943 -1.58019 -0.597217 0.44378 -0.466407 0.130042 -0.629302 -0.505508 0.96146 0.0547256 -0.728351 -0.817442 -0.0953708 -0.422182 0.108497 0.047831 -0.953428 0.180881 -0.440635 -0.671428 -1.18202 0.113671 0.487537 0.388067 -0.0333484 -0.398804 0.646944 0.6368 0.934726 -0.182164 -1.0672 -0.994916 -0.86132 -0.719936 0.0538129 -0.251578 0.344997 -0.0233747 0.141981 -0.639318 -0.115685 -0.00374739 -0.950352 0.343386 -1.21986 -0.529563 0.424498 0.674024 -1.06016 0.391102 0.295484 -0.168707 -0.430385 0.566093 -0.932348 -0.481006 0.656343 -0.732309 -0.05412 -0.350767 0.342735 -0.614366 -0.000644267 -1.56862 -0.813935 -0.832212 -0.374745 -0.62791 -0.175573 -0.557267 -0.387012 -0.426456 -0.236929 0.422787
女友 -0.553226 -0.61263 -1.18741 -0.295207 -0.186245 -0.156061 -0.653781 -0.37825 -0.490341 -0.452479 0.478821 -0.63483 -0.338665 -0.250299 -0.854444 0.136304 0.0324749 -0.265662 0.482951 -0.397771 0.979728 0.262577 -0.99354 0.058138 -0.155685 1.09709 0.608353 -0.49431 -0.63281 -0.603999 -0.629948 -0.157504 0.0311476 0.700941 0.410711 -0.414641 -0.980777 -0.374947 0.328671 -0.479624 -0.858553 0.434186 -0.280125 -1.07431 0.017955 -0.581762 -0.269104 -0.40034 -1.3101 -0.233009 -0.509515 -0.962542 0.859371 -0.357153 -0.0983262 -1.04524 -1.00364 0.498028 -0.718767 0.384158 -0.274558 -0.261957 0.640274 -0.0023452 -1.04859 -0.625626 0.0243 -0.451605 0.339224 -0.921089 -1.32543 0.113449 -0.820908 0.417125 -1.36958 -0.39628 0.633347 -0.610933 0.115911 0.287364 0.377801 0.448216 0.191292 0.99334 -0.724732 0.402123 -0.748065 -0.165421 0.12521 -0.0058513 -0.400379 0.00885183 -0.136818 -0.770528 0.13247 -0.499692 -1.11755 0.510956 -0.942223 -0.962209 -0.305329 1.07039 -0.501179 0.989907 0.324387 0.175344 -0.481301 0.0242761 -1.30234 -0.687964 0.273377 -0.298521 0.825931 -0.0848294 0.5557 -0.28754 -0.0772035 -1.28581 -0.826435 -0.975951 -0.943801 0.165265 -0.362015 -0.621185 -1.02787 0.00271853 0.225115 0.234232
男 -1.31217 -0.940461 -1.61639 -0.456646 0.132672 -0.0388952 -0.963834 -0.212353 -0.473324 -0.860708 -0.0820795 -0.586278 -0.729591 -0.680843 -0.857027 -0.36179 0.832872 0.16378 0.780358 -1.13035 0.917949 -0.355928 -0.992244 0.453652 0.169317 0.583386 -0.0452614 -0.00867869 -0.631626 0.495689 -0.43239 -0.452079 -0.204333 0.696025 0.163721 0.210551 -0.853223 -0.331641 -0.0555914 -0.63848 -0.482344 0.251004 -0.435044 -1.48204 0.628578 -0.295815 0.318091 -0.516329 -1.08073 0.00211865 -0.197081 -0.275062 0.690561 0.610562 -0.140085 -0.795317 -1.5534 0.4338 -0.398937 -0.097089 -0.324789 0.0241549 0.0342533 0.587475 -0.820403 -0.937781 0.122811 -0.00195575 0.0604182 -1.40949 -0.97081 0.02073 -0.376564 0.288698 -1.44184 -0.203088 0.400305 0.167923 0.480888 -0.380287 0.939776 -0.000461817 0.479703 1.20479 -0.749952 -0.483527 -0.828557 -0.673777 -0.143726 -0.102863 -0.243323 -0.0634514 -0.791081 -0.586367 -0.390271 -1.03922 -0.991252 0.451157 -0.887734 -0.740638 0.372027 0.215511 -0.544601 0.0936357 -0.0897881 0.238788 -0.107641 -0.277426 -0.904298 -0.95589 -0.0552873 -0.410212 0.664886 -0.498392 0.0797377 -0.901976 -0.505412 -0.763078 -0.648742 -1.0937 -0.915953 -0.456468 -0.953164 -0.198649 -1.31045 0.542753 0.566208 -0.250565
男生 -0.633435 -0.800129 -0.842875 -0.59351 0.0397923 0.0540593 -0.650991 -0.732463 0.228809 -0.763744 0.417892 -0.932649 -0.453791 -0.0832566 -0.733633 -0.393571 0.312093 -0.010642 0.901099 -0.255753 0.859726 -0.0649485 -1.1101 0.378259 0.0723151 0.694704 0.650165 -0.446778 -0.239246 -0.393104 0.184856 -0.167861 -0.0288951 0.480541 1.01969 -0.537837 -0.561624 -0.52466 0.29852 -0.703214 -0.473115 0.115311 -0.41395 -1.32363 -0.0408307 -0.49994 -0.185351 -0.616924 -1.34878 0.140305 -0.148618 -0.510372 0.81335 -0.496152 -0.28631 -0.90473 -0.882421 0.280938 -0.55805 0.287875 -0.580342 -0.363494 0.505284 -0.590338 -0.67068 -0.374052 0.00787339 -0.281608 0.342725 -0.820864 -1.43572 0.367767 -0.334761 0.419455 -1.27758 -0.0357991 0.219532 -0.194378 -0.473344 -0.338725 0.155194 0.499283 0.0399224 0.844252 -0.805032 0.354792 -0.542458 -0.0621897 -0.183054 0.337388 -0.0909772 -0.21237 -0.0232907 -0.847494 0.161412 -1.01607 -0.998563 0.700512 -0.846154 -0.607965 -0.0529003 0.322571 -0.730253 0.915447 0.166893 0.156267 0.0337587 0.258748 -1.11347 -0.355564 0.250779 -0.940502 1.12971 -0.477944 0.175692 -0.66424 0.0853928 -1.45228 -0.714034 -1.30042 -1.16256 0.337898 -0.0327833 -0.155358 -1.26026 -0.759539 0.217791 0.606609
中國 -0.49754 0.4468 -0.647302 -1.06894 -0.862272 0.354311 -0.836656 -1.02079 0.889409 -0.434834 0.154786 -1.00955 0.195471 -0.466091 0.321933 0.470717 0.385297 -0.429309 0.581593 -0.832599 0.518211 -0.638307 -0.715479 -0.29398 -0.270489 -0.274906 0.457354 -0.411255 0.561757 -0.182722 -0.484161 -0.342144 -0.414084 -0.371576 0.146592 0.227192 -0.47002 -0.708538 -0.139299 -0.0133522 -0.0778925 -0.589856 -0.817946 0.311366 0.328781 -0.00458133 -0.434373 0.14982 0.0855302 -0.591863 -0.497065 0.311121 0.488963 0.116152 -0.821126 -1.39674 0.238533 -0.191677 -0.135148 0.804798 0.187128 0.472874 0.171297 0.884837 -0.787481 -1.04836 -0.0589839 0.349216 -0.625845 -1.03921 -1.37275 0.355266 -0.513333 -0.918414 -1.15354 0.292991 -0.451464 0.0637474 -0.174435 -0.22365 0.823502 0.413352 0.863885 -0.301664 -1.2365 0.0061987 -0.595226 -0.52067 -0.171412 -0.991976 0.419575 0.149936 -0.8257 0.102767 0.510866 0.231845 -0.885238 -0.0281641 -0.439754 0.274565 1.19285 -0.0573706 -0.0508528 -0.505059 0.732218 -0.608658 0.0435858 1.27341 -0.952096 -0.648357 0.267914 -0.387791 0.170073 -0.995538 0.221742 -0.516954 -0.35606 -0.9172 -0.905935 -1.50766 -0.653134 -0.0948739 -0.182287 0.322533 -1.31293 0.168208 0.196342 0.258439
工作 -1.19631 0.0253134 -0.908224 -0.670809 -0.694606 0.799542 -1.4462 -0.54012 -0.290521 -0.160583 0.305667 -0.680163 -0.0557457 -0.276345 0.0449936 0.406155 0.410154 -0.328522 0.313253 -0.815276 0.626032 -0.0742338 -1.1318 0.468494 0.132852 0.572617 1.70681 -0.354647 0.221375 -0.471611 -0.278699 -0.58916 -0.106917 0.541677 0.776299 -0.262801 -0.422065 -1.30235 -0.032524 -0.279884 -0.56991 -0.199905 -0.541305 -1.15198 -0.622604 -0.591369 -0.21507 -0.485206 -0.800082 -0.233671 0.331711 -0.81819 0.454938 0.0780842 -0.623097 -1.43253 0.0915384 -0.6067 -0.373646 0.508548 0.309386 0.240409 0.136732 0.581097 -0.990663 -0.840611 -0.257334 -0.226367 -0.412299 -0.0711911 -1.15221 0.746395 -1.09379 0.308821 -0.573522 -0.0641111 -0.662215 0.204617 -0.220568 -0.340373 0.213126 0.121268 -0.378587 0.688057 -0.475563 0.0163827 -0.346221 -0.931696 0.471346 0.439262 -0.299537 -0.203826 -1.33086 -0.0707771 -0.0136668 -0.755427 -0.938362 -0.306943 -0.537149 -0.42964 -0.533714 1.00888 -0.265117 0.903189 -0.0592878 -1.07846 0.251602 0.676772 -1.56505 0.419024 0.75098 -0.196145 0.980871 -0.381911 -0.4223 -0.159005 0.450539 -1.0269 -0.37327 -0.813019 -0.820984 -0.411676 -0.120289 -0.951012 -0.51049 -0.315591 0.407329 0.401065
香 -0.720386 -0.189235 0.248291 -0.866568 -0.0717353 -0.971703 -0.680311 -0.260077 -1.13785 -0.469122 -0.5947 -0.710254 -0.53089 -0.115792 -0.520718 -0.812371 -0.51654 -0.062479 -1.52326 -0.00711852 0.244591 -0.544756 -0.137413 -0.0978376 -0.120605 0.244374 -0.450295 -0.93381 -0.760019 -0.247733 1.03508 0.307349 -0.325324 -0.125777 0.11557 1.16736 -1.05025 -1.18191 -0.135121 -0.23819 -0.204752 0.0180562 -0.802282 -0.690131 0.447974 -0.827009 -0.433437 -1.44295 -0.539537 -0.308759 -0.519121 0.279935 -0.931376 -0.791932 -0.917887 -0.614168 -1.95959 -0.326102 -0.265758 -0.58033 -1.05198 -0.311201 0.114891 0.957705 -1.14864 0.211779 0.426299 0.46061 -0.388494 0.0528601 -0.581208 -0.494886 -0.53435 -0.464193 -0.667011 -1.01186 0.405544 0.193281 -0.252735 -0.193938 -1.48923 -0.0767262 1.09622 -0.0589282 -0.278505 -0.689402 -0.38372 -0.563763 0.426429 -0.440315 -0.440477 -0.292091 -0.51486 -0.582602 0.323305 0.351572 -0.799131 0.189287 -1.4086 -0.137629 -0.689489 0.0582584 1.0956 -0.189646 1.06195 -0.708856 0.519803 0.36018 -1.04053 -0.154105 0.63328 0.20787 -1.26461 -0.882646 0.275952 -0.397927 -0.428941 -0.96836 -0.678705 -0.528444 -0.200243 -0.958127 0.143527 -0.543969 -0.942422 -0.0680133 0.0251606 -0.497549
美國 -0.864657 0.383637 -0.523398 -0.810898 -0.541154 -0.0945604 -0.898034 -0.732192 0.658133 -0.756638 0.498467 -0.895912 -0.0636891 -0.83877 0.30534 0.682023 1.01562 -0.998257 0.205713 -0.863273 -0.0245969 -0.795698 -0.630776 0.0253776 -0.416609 0.397099 0.88914 -0.256912 0.734885 -0.205214 -0.406148 -0.385334 -0.451347 -0.302233 0.364938 0.413596 -0.699956 -0.443208 -0.627676 -0.271916 -0.270947 -0.513432 -1.02443 0.630763 0.142163 0.0182235 -0.234067 -0.129233 0.0983143 -0.25372 -0.198748 0.141731 0.0708801 -0.0384331 -0.976554 -1.33199 0.169616 -0.264595 -0.341387 0.152361 0.196052 0.130695 -0.216339 1.40823 -0.492346 -0.864173 0.129265 0.133793 -0.58779 -0.920089 -1.10496 0.0312853 -0.315607 -0.510943 -0.861403 0.144592 -0.635521 0.518768 0.269146 -0.10194 0.370453 0.571001 0.535973 0.227546 -1.43228 -0.103762 -0.23886 -0.671783 0.0404175 -0.841672 -0.313913 0.197658 -0.527132 0.117176 0.198141 0.137946 -0.653921 -0.145217 -0.416936 -0.224973 0.513277 -0.203347 -0.561472 0.345502 0.828065 -0.855295 -0.178849 0.831225 -1.53738 -0.607182 0.77709 -0.642725 0.347995 -1.23434 0.000183135 -0.627795 -0.479349 -1.14609 -0.616465 -1.26941 -0.946384 0.203879 -0.0273607 -0.241758 -0.980438 0.250532 0.628155 -0.0040819
天 -0.769921 -0.214623 -0.829493 -0.0507309 0.501804 0.0833108 -0.646024 0.242748 -0.433373 -0.363163 0.00787155 -0.993278 -0.741313 -0.696944 0.480661 0.01556 0.0578873 -0.423318 -0.0389779 -0.312057 -0.156428 -0.413168 -0.271521 0.795735 -0.193406 -0.652052 0.558846 -0.754911 0.369303 -0.199757 0.126051 -0.45873 -0.877314 0.0584261 0.187697 -0.0780745 -1.51802 -2.13707 0.514227 -0.194865 -1.08098 0.396389 -0.208216 -1.4426 -0.0989633 -0.273503 -0.692535 -0.530058 -0.664372 -0.996901 -0.597449 0.0796914 1.39699 -0.288268 -0.306405 -0.397287 -0.852448 0.391499 -0.822253 0.247141 -0.73861 0.371023 -0.34005 0.881726 -1.13495 -0.908404 -0.145821 -0.394066 -0.728302 0.566917 -0.391101 0.333439 -0.307278 0.118019 -1.53336 0.0613059 -0.431608 0.235994 0.0713288 -0.536145 0.162362 -0.477253 0.524872 0.775424 -0.744708 -0.487305 -1.28154 -0.922316 -0.0801423 -0.893527 -0.772149 0.373953 -0.596154 -0.898161 -0.146216 0.751601 -0.959243 -0.346054 -0.879402 -1.04587 -0.309801 0.953107 -0.342072 0.77494 -0.71805 -0.799171 0.177835 0.0789769 -0.862747 -0.735214 0.599588 -0.954938 -0.326424 0.444339 0.703255 -0.547444 -0.461644 -0.946097 -1.52821 -0.91952 -0.664597 -1.207 0.0281679 -0.771561 -0.607329 -0.0544044 -0.418152 -0.75352
跑 -0.461141 -0.326483 -1.24786 -0.740263 -0.571014 0.0581594 -0.867766 -0.52847 -0.761917 -1.33308 -0.0661497 -0.17785 0.404165 -0.509093 0.833228 0.0589136 -0.0634562 -0.408887 0.213171 -0.44013 0.178642 -0.731148 -0.618171 0.638376 0.474681 0.433096 0.541371 -0.469892 -0.438371 -0.705148 -0.341701 -0.0418339 0.0699186 -0.385961 -0.778722 0.202408 -0.213607 -0.958842 0.0789448 -0.444519 -0.0174562 0.094798 -0.942598 -1.11547 -0.140374 0.2404 -0.0935318 -0.737851 -0.915229 -0.277542 0.0958811 -0.15423 0.635352 -0.235307 -0.862328 -0.755612 -0.704863 0.632676 0.166236 0.770002 -0.0770994 0.0507602 0.126826 0.364125 -0.929624 -1.09251 0.218433 -0.0664971 -0.415228 -0.0699739 -1.1184 0.0168002 -0.667187 -0.370858 -0.891508 0.0367925 0.0250144 0.39627 -0.239856 -0.997094 0.310783 0.519336 0.175783 -0.0825942 -0.986291 -0.0450766 -1.10384 -0.651858 -0.262345 0.461809 -0.292386 -0.0269249 0.368758 -0.821161 -0.908922 -0.652562 -1.31348 0.705764 -0.606194 -0.617994 0.0737309 0.703311 -0.0260183 0.478999 0.00255805 -0.708554 -0.15939 1.01169 -1.44633 -0.830045 0.798203 -0.645902 1.06375 -0.129255 -0.31765 -0.287702 -0.611752 -1.20738 -0.375804 -0.652293 -0.495988 -0.935004 0.0375781 -0.0896898 -0.901771 -0.079981 -0.26347 -0.0787821
茶 -0.509531 -0.44953 -0.501328 0.865768 0.0141662 -0.634773 -0.267865 -1.07512 -0.710292 -1.4495 -0.631175 -0.610097 -0.0709645 0.0398945 -0.548595 -0.0698234 0.412159 -0.999233 -0.0875994 0.154108 0.0382745 -0.360305 0.173818 -0.683082 -0.510711 -0.107962 -0.659354 0.0835346 -0.831463 -0.559096 0.663075 -0.321553 -0.0284667 0.0885351 0.503385 0.94968 -0.953216 -1.43759 0.300322 -0.56983 -0.958824 0.00869022 0.0742994 -0.285282 -0.0256474 -0.703365 0.0604747 -1.5859 -0.670756 -0.210935 -1.0088 0.194885 -0.0978323 -0.752593 -0.930223 -0.532684 -1.04137 -0.794897 -0.59454 -0.988695 -0.942277 -0.0311544 0.410492 0.809579 -0.0980362 -0.0717045 0.836931 0.735055 -1.16546 -0.109452 -1.39725 -0.168902 -0.546219 0.116958 -0.927188 -0.496196 -0.251996 -0.286306 -0.504115 -0.604866 -1.27665 -0.141981 1.01276 -1.25986 -0.261492 0.199656 -0.455211 -1.08384 -0.0233668 -0.281426 0.186613 -0.602148 -0.101266 -0.0863881 -0.305336 -0.82994 -1.22239 -0.593057 -0.755101 0.237062 -1.0644 -0.35314 1.16137 0.363537 1.10667 -0.462075 -0.551181 0.131692 -0.115272 -0.758532 -0.428736 -0.52707 -0.957447 -0.451152 0.00364488 -0.515739 -0.791465 -1.11053 -0.198566 0.0746775 0.58457 -1.36789 -0.19105 -0.367651 -0.664074 -0.604775 -0.607623 -0.386597
飲料 -0.814572 -1.15093 -0.221815 0.863801 0.0966129 -0.833948 -0.166245 -0.823471 -0.985591 -1.10255 -0.30516 -0.747488 0.0672682 -0.702568 -0.369753 -0.612042 0.615397 -0.570138 0.382107 0.820934 0.599733 -0.109918 0.0144068 -1.06925 0.536539 0.0601548 0.216198 0.0582898 -0.383412 -0.327265 0.576095 0.126665 0.0908089 0.0526214 0.383185 -0.0391338 -0.56056 -1.0559 0.314397 0.134263 -0.317154 -0.88523 -0.312793 -0.53373 -0.161332 -0.711195 0.432515 -1.31163 -1.13605 -0.0547871 0.00734051 -0.44363 0.493486 -0.00019421 -0.586126 -0.870105 -0.309964 -0.704938 -0.879351 -0.770516 -1.02345 -0.0394531 1.01908 0.827627 -0.0691942 0.674904 0.613369 -0.0867289 -0.976304 0.331124 -1.03819 -0.634543 -0.84637 0.225745 -0.68493 -0.663431 -1.18359 -0.335007 -0.304874 -1.09006 -1.26165 -0.365238 1.02364 -0.677948 -0.658918 -0.143523 -0.103489 -1.8616 -0.740244 0.332899 -0.497897 -0.32427 -0.104448 -0.197636 -1.09809 -1.24505 -0.954525 -0.336579 -1.2026 -0.343527 -0.64866 -0.111095 0.600336 -0.216054 0.489546 -0.57202 -0.969159 0.257103 0.159288 0.261173 0.0133378 -0.747685 -0.336738 -0.896569 -0.126153 0.0665631 -0.0255021 -1.35624 -0.193239 -0.631895 -0.499889 -0.887473 0.0180072 -0.37464 -0.250332 -0.145156 -0.597814 0.151621
媽媽 -0.713377 -0.652904 -0.494501 -0.595793 -0.0514238 -0.284232 -0.926685 0.33075 -0.0171048 -0.501932 0.970179 -0.101136 -0.186404 -0.53498 -0.893225 0.481395 0.19105 -0.483846 0.190924 -0.783976 0.370417 -0.239627 -0.907201 0.578326 -0.669145 0.659821 -0.0710753 -0.391919 -0.62549 -0.515304 -0.542155 -0.584648 -0.101945 0.503312 -0.480731 -0.0252632 -1.21942 -0.667832 0.316216 -0.373011 -0.70351 -0.648249 -1.04553 -0.402979 -0.110824 -0.833864 0.279075 -0.805914 -0.481735 -0.964551 0.191776 -0.463472 0.262254 -0.266652 0.0980752 -0.944809 -0.581829 0.391052 -0.788453 0.603804 -0.929694 -0.345628 0.139362 0.434367 -0.877883 -0.701329 0.307462 -0.378662 -0.369675 0.10909 -1.12678 0.180172 -0.468801 0.403264 -1.54026 -0.0924529 0.158446 -0.210168 0.136628 -0.192403 -0.166432 0.385747 0.370365 0.199801 -0.760754 -0.0368931 -0.699328 0.0676396 0.810335 -0.320824 -0.594489 0.188646 0.0858319 -1.46526 -0.0438014 -0.270843 -0.792477 0.66057 -0.504165 -0.807091 -0.698037 1.07467 -0.37631 0.459358 0.402999 -0.122716 -0.0715443 -0.0174762 -1.17529 -0.510454 0.140141 -0.512973 0.28687 -0.313756 0.0374688 -0.0483359 -0.00877528 -1.61905 -0.566879 -1.18443 -0.771191 -0.310383 -0.16234 -0.330667 -0.322597 -0.126988 -0.41214 0.0222623
老師 -0.732884 -0.313488 -0.534895 -0.676249 0.150865 -0.172911 -1.24465 0.0402277 -0.0861588 -0.534383 0.387918 -0.299083 -0.22306 -1.1051 -0.537759 0.815174 0.354217 -0.941635 0.77433 -0.222328 0.854977 0.139052 -0.869746 0.561597 -0.429761 0.682209 -0.264387 -0.0306932 -0.772238 -0.7191 -0.101247 -0.49228 -0.84778 1.42896 -0.534975 0.396108 -0.486136 -0.512114 -0.0776871 -0.173287 -0.656681 -0.488596 -0.505374 -0.638394 -0.531398 0.0315928 -0.464452 0.138964 -0.233352 -0.500894 0.243579 0.22742 0.0472116 0.311115 -0.254541 -1.353 -0.0157822 0.697894 -0.155125 0.0238184 -0.178369 -0.445241 -0.624205 -0.0750699 -0.38884 -1.69886 0.0675599 0.504432 0.514196 0.825076 -0.67765 0.588936 -0.554811 0.282495 -1.11851 0.491018 -0.00368187 0.380082 -0.425053 0.0230513 0.272923 0.543797 0.896067 -0.00925682 -1.09657 -0.0406432 -0.134457 -0.406272 0.748994 -0.310139 0.196828 0.12401 -0.196579 -1.11374 -1.06933 0.0657798 -0.619912 -0.345153 -0.8743 -0.606431 -7.45356e-05 0.500428 -1.22239 0.0690999 -0.534446 -0.00188091 -0.489185 -0.556538 -1.56239 -0.484251 0.036168 -0.518031 1.13602 -0.590575 -0.380297 -0.412648 -0.0766238 -1.6679 -0.665732 -0.962155 -0.202311 -0.8311 -0.389919 -0.403775 -0.452639 -0.187051 0.314487 0.147626
男人 -0.702752 -1.22286 -1.10617 -0.735855 0.0900159 0.309931 -0.51777 -0.0671299 -0.0691971 -0.392595 0.632971 -0.83941 -0.301982 -0.0944789 -1.07083 0.625377 -0.0957092 0.487731 0.800055 -0.650836 0.639714 -0.59104 -1.00242 0.439872 -0.495861 0.339709 0.287826 -0.838139 0.0978651 -0.0630828 -0.647236 0.340123 -0.36111 0.276271 0.835494 -0.368901 -0.654397 -0.581822 0.631175 -0.666481 -0.22349 -0.260518 -0.729254 -1.10998 0.426187 -0.223531 -0.00354881 -0.320428 -0.824983 0.14787 -0.170334 -0.645428 0.908711 -0.57057 -0.761914 -1.15969 -0.955615 -0.0268261 -0.844225 0.391849 -0.793144 -0.540979 0.534115 -0.190742 -0.558834 -0.614786 0.0104961 0.323013 0.39108 -0.805438 -1.02106 0.928887 -0.203128 0.703156 -1.04255 -0.0775184 0.280652 -0.0744084 0.0483482 -0.257125 0.442063 -0.200168 -0.138902 0.600666 -0.186297 -0.100345 -0.409859 0.152372 -0.368393 -0.108379 -0.153545 -0.0168209 -0.0835038 -0.372528 0.211956 -0.422282 -0.733649 0.441263 -0.398486 -0.656913 -0.427517 0.277961 -0.659536 0.409168 0.343956 0.0477485 0.188209 0.644253 -1.22249 -0.661842 0.209215 -0.949317 0.53164 -0.396923 0.325828 -0.74981 -0.0469189 -1.03475 -0.565817 -1.07296 -0.873158 -0.0602808 0.511584 -0.530631 -1.23276 -0.79183 0.246532 -0.330441
魚 -0.0202172 0.0883685 -0.799084 -0.180735 0.169529 -0.586982 -0.795542 -0.62465 0.892431 -0.765597 0.473404 -0.599129 -0.573948 -0.608733 0.0153038 -0.213705 -0.398513 -0.620207 -0.754566 0.0922265 -0.608353 0.15527 0.324618 0.606509 -0.290661 0.560261 -0.652253 -0.762552 -0.185548 -0.264467 1.07051 -0.459195 -1.27182 -0.564443 -0.169025 -0.288455 -0.931424 -1.03054 -0.0327067 0.44138 -0.915995 0.159141 -1.51847 -0.960862 -0.00901301 -0.650907 -0.210313 -0.198357 -0.635118 0.166701 0.157886 0.625225 -0.998518 -0.0626458 -0.911619 -0.070937 -0.252575 -0.721025 -0.280089 -0.466944 -1.26098 0.51566 -0.554197 0.919653 -0.796492 0.0203418 0.104375 -0.0137909 -0.525594 0.0680461 0.0924441 -0.74484 -0.935737 -0.825843 -0.608979 -0.425404 0.0837211 -0.446207 -0.830625 -0.245664 -1.08499 -0.21718 0.244676 -0.0530816 -0.0895142 0.181156 -0.799401 -0.779002 -0.261784 0.484668 -0.954902 -0.855563 -0.504407 -1.10936 -0.479264 0.370314 -0.80589 0.524275 -1.29975 -0.992838 0.422327 -0.239112 0.42144 -0.189033 1.05121 -0.17836 -0.491377 -0.545096 -0.400577 -1.42627 0.166877 0.167884 -0.783353 -0.200384 0.359627 0.420539 -0.0201321 -1.98783 -0.629 -1.13231 -0.172815 0.17547 -0.251075 -1.10036 -1.61187 0.227841 -0.311966 -0.53426
手 -1.03275 -0.967767 -0.899182 -0.784062 -0.0269751 0.115881 -0.380583 -0.686603 -0.665452 -0.81352 0.177878 -0.768905 -0.303343 -0.722145 -0.357757 -0.623976 -0.506971 -0.587108 0.551793 -0.464188 -0.609296 -0.397152 0.37541 0.0130013 -0.36982 0.773433 -0.0407871 0.584046 -0.0702945 0.321022 0.240078 -0.455199 -0.119232 -1.02968 -0.731924 0.493889 -0.683215 -1.32511 0.32554 0.114099 -1.01488 -0.551036 -0.538176 -0.74686 0.318751 -0.664763 -0.489817 -0.104642 -0.501343 0.41368 0.662224 -0.650065 -0.268898 0.411828 -0.598263 -0.818975 -0.993801 0.286447 0.242256 1.01476 -1.59926 -0.755886 0.344109 0.474308 -1.12212 -0.798465 0.0523235 -0.338758 -0.0176287 -0.0749935 -0.917398 -0.0726393 -0.779238 0.2753 -0.188027 -0.690622 -0.0621963 -0.0876343 -0.875732 0.0531411 0.360027 0.763774 -0.294384 -0.121373 -0.550994 -0.0924463 -0.940649 -0.866839 -0.33624 0.290041 -0.0413779 -0.120611 -0.643603 -0.896009 -0.721335 -0.341168 -0.445707 0.718167 -0.598141 -0.326593 -0.15265 0.546071 -0.0952694 0.115924 0.888966 -0.269487 0.481535 -0.0608997 -0.976075 -0.021252 0.694416 -1.08922 -0.177803 -0.227719 -0.205184 -0.313971 -0.825631 -1.69954 -1.11242 -0.918275 -0.767339 -0.571403 -0.880213 -0.160399 -0.429493 -0.358912 -0.41804 -0.58449
麵包 -0.649881 -0.480108 0.0255371 -0.220927 0.757201 -0.885288 -0.159508 -0.744711 -0.826048 -0.753857 -0.146546 -0.46344 -0.17764 -1.13176 -0.954602 -0.695429 -0.0440357 -0.108345 -0.377168 -0.321638 -0.0702613 -0.782652 -0.444935 -0.382623 -0.500248 0.219499 0.27745 -0.125074 0.628087 -0.0959806 0.43865 0.288835 0.471648 -0.296702 0.512985 0.228948 -0.7026 -0.603968 0.251128 -0.288589 0.325804 -0.126307 -0.369157 -1.31999 0.373177 -0.373415 0.296628 -0.456987 -1.11141 0.20163 0.176826 -0.0763945 -1.06688 0.276653 -0.598713 -1.47052 -1.10186 -1.36925 0.208357 -0.933996 -0.571803 -0.259186 0.255404 0.876701 -0.327816 0.403642 0.113409 -0.158206 -1.04137 0.23173 -0.0987143 -0.0805148 -0.663786 -0.692154 0.34233 -0.88235 -0.0426778 -0.136631 -0.748576 -0.013731 -0.766251 0.128942 0.952985 0.287191 -1.21928 -0.656721 -0.306828 -1.19313 0.0749356 -0.531994 -0.293837 -0.428401 -0.184535 0.0359526 -0.763613 -0.368137 -0.629334 -0.1441 -1.13036 -1.31976 -0.502154 -0.638557 1.24801 0.0119987 0.533694 -0.911373 -0.251092 -0.169646 -0.43244 0.990035 0.539847 -0.673867 -0.832117 -0.60211 -0.663097 -0.105847 -0.420276 -1.61816 0.355869 -1.21774 -0.742348 -1.5097 0.275983 -0.775215 -0.452682 -0.35022 -0.69599 -0.172387
結婚 -0.714347 -0.391482 -1.54071 0.408096 -0.0960856 0.902003 -0.403326 -0.265366 0.101304 -0.12509 0.596289 -0.278475 0.054266 -0.0559675 -0.852675 0.838083 0.409879 0.521754 -0.0479521 -0.481972 0.164374 -0.0373715 -0.871244 -0.106121 -0.298005 0.024981 0.643141 -0.883469 -0.397383 -0.910067 -0.672142 0.00765313 -0.0589558 0.108954 0.749342 -0.185158 -0.322675 -0.209228 -0.0765693 -0.0315199 -0.689944 0.148439 -0.423077 -0.70348 -0.105702 -0.571449 -0.00188788 -0.187029 -0.651692 -0.348562 -0.434951 -1.22299 0.778709 -0.356167 0.0766176 -1.17649 0.0514512 0.57169 -1.01919 0.0395763 -0.622442 0.55371 0.0360456 -0.430167 -1.15274 -0.592156 0.157992 -0.611516 0.354358 -1.04815 -1.49252 0.674703 -0.599199 0.0716413 -1.04805 -0.26822 -0.560588 -0.296964 -0.421467 -0.37078 0.117246 0.202801 0.771701 1.06637 -0.425976 -0.292456 -1.12266 -0.38005 -0.495284 -0.868597 -0.224955 0.0546154 -0.122905 -0.217372 0.416404 -0.641084 -0.827296 0.0540279 -0.989211 -0.731315 -0.580257 0.722929 0.0321131 1.2369 0.341763 -0.195147 -0.608532 0.446522 -0.997608 -0.218655 -0.053741 -0.439424 0.469115 -0.0516945 -0.0236465 -0.19621 0.0332994 -1.39027 -0.131875 -0.677993 -1.26054 0.417533 -0.220365 -0.44491 -0.959246 0.45831 0.142267 0.0161135
白 0.16303 -1.43306 -0.139368 -0.229217 0.784611 -0.237793 -1.07665 -0.245719 -0.686697 -1.05816 -0.204714 -0.572206 -0.110062 -0.950767 -0.686746 0.196965 -0.56792 0.302329 0.0539826 -0.61046 0.486472 -0.957082 -0.716701 -0.293479 -1.13048 0.6012 -0.434383 -0.385819 -0.692441 0.258504 0.38793 0.690348 -1.21448 -0.058226 0.233453 0.0909148 -0.567144 -0.962972 0.928771 -0.212332 -0.521831 -0.0313036 -0.167158 -0.805655 0.137743 -0.491902 -0.303638 -0.179508 -0.966359 -0.246938 -0.326074 0.224268 -0.0617498 -0.399647 -0.561804 -0.816036 -1.06488 -0.138953 -0.457872 -0.241833 -0.364806 -0.263216 -0.313566 0.907548 -0.653784 -0.984981 0.718708 -0.0222221 0.159292 -0.566573 -0.805764 0.390463 -0.856135 0.454707 -0.63597 -0.493037 -0.352964 0.174671 -0.857183 0.293757 0.00702745 0.111186 0.454336 -0.149868 -0.819959 -0.87597 0.00985617 -0.335854 0.116307 -0.63651 -0.524903 -0.702765 -0.480362 -1.03178 -1.17008 0.132547 -0.669463 0.280707 -1.42641 -1.34621 0.27327 -0.123664 -0.109593 -0.10985 0.190929 -0.289454 0.641661 0.443788 -0.648125 -1.03791 -0.135159 -0.410986 -0.712065 -0.305789 0.0508014 0.115268 -0.190973 -1.64994 -0.261728 -1.14263 -0.79621 0.274141 -0.860528 -0.698662 -1.68955 -0.531189 0.322581 -0.410092
狗 -0.365155 -0.2042 -1.11043 -0.956944 -0.19443 -0.37795 -1.01648 -0.102076 0.501127 -0.872365 -0.170375 -0.501052 0.591825 -0.683648 0.0321615 1.20023 -0.386291 -0.249714 0.342963 -0.982293 0.75368 -1.17284 0.0957586 0.0231972 -0.635268 0.510946 -0.123045 -0.444996 -0.632349 -1.07618 -1.25053 -0.862329 0.158077 -0.646968 -0.0706362 0.188345 -1.10104 -0.25962 0.65459 -0.588004 -0.386427 -0.29718 -0.777141 -0.687627 0.132785 0.532076 0.0825071 0.656391 -0.856832 -0.266815 0.225767 -0.277512 0.0720294 0.0409793 -0.562287 -1.12507 -0.617189 -0.0646863 -0.213137 -0.169206 -1.10439 -0.0895383 0.522924 -0.0801758 -0.248501 -0.779016 0.0101046 -0.237945 -0.257452 -0.319448 -0.699111 0.474586 -0.855746 0.245811 -0.937078 -0.855398 0.273728 0.107925 -0.583851 -0.244224 1.20896 0.429786 0.545415 -1.09208 -0.174581 -0.192265 -0.906819 0.583824 -0.210891 -0.508518 -0.65597 -0.39837 -0.588432 -1.71445 -0.404548 0.317358 -0.968637 0.139975 -0.574619 -0.587155 0.218735 0.551182 0.0120759 0.264826 0.37693 -0.573877 -0.303601 0.595662 -1.06446 -1.18897 0.164739 -0.44795 -0.137673 -0.182379 0.80481 0.168204 -0.278851 -1.2559 -1.6318 -0.724828 0.629855 -0.164535 -0.815864 0.323744 -1.03777 0.604874 -0.827896 0.0177683
咖啡 -0.794254 -0.110275 -0.416184 0.418616 -0.159966 -0.488113 -0.632879 -0.424197 -0.722484 -1.34233 -0.906106 -0.434151 -0.0172418 -0.612222 -0.760244 -0.747372 0.58751 -0.299369 -0.399297 -0.190683 0.142879 -0.348665 0.478941 -1.38981 -0.667414 0.145074 -0.176969 -0.127881 -0.599849 -0.899363 0.911666 -0.634417 -0.195712 -0.189074 0.456953 1.27273 0.0281741 -0.650267 0.589322 -0.851479 -0.749033 -0.520906 -0.257376 -0.748594 -0.273321 -0.841581 0.0830029 -1.10114 -0.0564749 0.180649 0.263728 0.221185 0.245119 -1.01318 -1.40492 -0.651573 -0.856529 -0.657828 -0.210006 -0.301363 -0.712154 0.162352 0.0325743 0.962758 -0.424113 -0.024599 0.973186 0.632511 -0.860238 0.397838 -1.08977 -0.39553 -0.986957 0.542077 -0.521201 -0.286054 -1.3828 -0.324203 -0.0503608 -0.699196 -0.442512 -0.275541 0.68422 -0.541279 0.0303991 -0.359482 -0.631224 -1.8029 0.88284 -0.117633 0.158249 -0.277854 0.121935 -0.420849 -0.37524 -0.285238 -0.848543 -0.187684 -0.700176 -0.221979 -1.57466 -0.366756 1.27379 0.459588 0.846604 -0.822764 -0.554385 0.112667 -0.588421 -0.302634 -0.393333 -0.676724 -0.817243 -0.595012 0.714389 -0.227226 -0.666949 -0.846429 -0.183342 -0.258821 0.244313 -0.990623 -0.65953 -0.482789 0.350827 -0.86479 -0.545396 0.509801
車 -0.591517 -0.102983 -0.685397 -0.481532 0.0883051 -0.822428 -0.97261 -0.0102545 -0.737118 -1.14189 -0.196939 -0.501764 -0.00756882 -0.448947 0.799019 -0.600881 -0.351217 -0.680322 0.226987 -0.134824 -0.429823 -0.922049 -0.448135 -0.272133 0.411943 0.809386 0.770236 -0.650219 -0.0269105 0.325911 0.0636108 -0.00808559 0.353917 0.193799 -0.35573 -0.710886 0.00325351 -1.31836 0.367111 0.123619 -0.726261 0.154217 -0.539043 -0.778833 0.463104 0.103627 0.325965 0.596129 -1.20729 -0.0977635 0.0296572 0.321473 0.0561387 -0.566134 -0.574213 -1.20817 -0.481862 0.414706 -0.0181536 0.0662739 -0.384575 -1.09766 -0.37783 -0.243366 -1.01781 -0.0524679 -0.20593 -0.385659 -0.33993 -0.638141 -0.684361 -0.00928398 -0.516101 0.39299 -0.660979 -0.472053 -0.112299 -0.163493 0.0868584 -0.583398 0.390855 0.293749 0.633981 -0.229288 -1.15467 -0.502594 -1.02309 -0.647529 -0.36994 -1.19816 -0.362541 0.011955 -0.59345 -0.65349 -1.11181 -0.494115 -0.94156 0.439282 0.440498 -0.608947 -0.458345 -0.163629 0.765003 0.278186 -0.509468 -0.978942 0.199311 1.18771 -1.90394 -0.326483 0.500393 -0.44038 1.31785 0.635811 0.283332 -0.665619 -0.485351 -0.680112 -0.527655 -0.42379 -0.461137 0.256488 -1.34068 0.360636 -1.02022 -0.199052 0.0437719 0.00178543
學生 -0.993358 0.275048 -0.937906 -0.944203 -0.156541 0.397648 -1.16442 -0.926835 0.273618 -1.15115 0.648132 -0.13426 -0.310043 -0.947205 -0.331505 0.37186 0.454984 -0.546773 0.808966 0.0430146 1.13417 -0.132335 -0.808799 0.156209 0.100771 0.922382 -0.598291 -0.206759 -0.271088 -0.491017 -0.163094 -0.193619 -0.424445 0.411015 0.119478 -0.0767374 -0.175677 -0.588865 -0.0634478 -0.525742 -0.785023 0.0430116 -0.468113 -0.141664 -0.171135 -0.138905 -0.243561 -0.287852 -0.275982 -0.130351 0.00689677 0.111974 0.149802 -0.0917968 -0.125766 -0.985337 -0.0501901 -0.132314 -0.528083 -0.409773 0.0310607 -0.413731 -0.406352 -0.170053 -0.184729 -1.48788 0.267307 0.596343 -0.285313 0.151185 -0.918279 0.718994 -0.548525 0.202243 -1.41008 0.17352 0.468264 -0.0551703 -0.376638 -0.911968 0.453741 0.112559 0.880207 0.278194 -0.785339 0.274643 -0.153051 -0.989227 0.510833 0.0245924 0.161881 -0.284304 -0.536685 -0.974239 -0.330382 -0.123312 -1.06029 -0.531471 -0.456972 -0.44731 0.303963 0.0144468 -0.749611 0.293076 -0.761236 -0.123474 -0.200725 0.061052 -1.30161 -0.260238 -0.0204996 -0.746917 1.43631 -0.80581 -0.658654 -0.563006 -0.203701 -1.42325 -0.790858 -0.865471 -0.888281 -0.187508 -0.385866 0.168858 -0.529704 0.0976802 0.980396 0.440538
高雄 -0.306127 0.380022 -0.849131 -0.488177 -0.612337 0.508721 -0.587551 -0.641504 -0.777174 -1.41537 -0.346609 0.0207511 -0.471223 -0.373242 -0.0562384 0.0768849 0.318585 -0.686263 -0.510987 -0.747709 -0.320152 0.305133 -0.111042 -0.938002 -0.313698 0.388722 -0.375329 -0.435836 0.322408 -0.0314322 0.00970983 -0.363057 -0.447418 -1.13537 -0.124818 0.174021 -0.830017 -1.29755 0.31261 -0.226513 -0.0808686 0.0588481 -0.980966 -0.383705 -0.18113 -0.400465 -0.545851 -0.611752 -0.00897603 -0.383921 0.257288 -0.318038 0.057752 0.105529 -1.32817 -1.25498 -0.909843 -0.120245 -0.391693 0.532837 0.687321 0.0878336 -0.536256 0.8316 -0.986649 -0.93145 -0.115181 0.374974 -0.373456 -0.981726 -0.252342 -0.270412 -0.872415 -0.160036 -1.44102 0.337106 -0.662399 -0.139447 -0.238235 -0.716602 0.519166 -0.264187 -0.103662 -0.343217 -0.132832 -0.450416 -0.327265 -1.07279 0.406166 -0.444938 -0.299455 -0.0202176 -0.387552 -0.0077068 -0.341549 -0.0784411 -0.795493 -0.096074 -1.1943 -0.338866 -0.616377 0.695854 -0.269957 0.914134 -0.151724 -0.745529 0.456298 1.69255 -1.16578 -0.547397 -0.0874842 -0.126358 0.773931 -0.222506 0.387187 0.475012 -0.332029 -0.814773 -0.546879 -0.648154 -0.80389 -0.78493 0.0393271 0.292227 -0.396367 -0.170983 0.163653 -0.315761
手機 -0.678897 -0.511555 -0.718162 -1.53857 0.213093 -0.598077 -0.507432 -1.24161 -0.628207 -1.01165 -0.611329 -0.36761 -0.310374 -0.171307 0.0180075 -0.185046 -0.134876 -1.04176 1.01242 -0.370323 -1.18456 0.15033 0.16493 -0.755922 0.595375 0.711482 0.0570399 0.0826671 0.307322 0.217004 -0.300909 -0.10002 -0.590908 0.608356 -0.432923 0.054038 -0.35143 -0.708075 0.349976 0.0214964 0.316093 -0.913024 -0.148619 -0.569827 -0.128395 -0.45482 0.400971 -0.58405 -0.71182 -0.686924 -0.806025 -0.484555 0.365255 0.26439 0.386854 -1.06506 0.0431511 1.05704 -0.111844 0.471144 -0.00663816 -0.416211 0.583996 0.303015 -1.71367 -0.574854 -0.769039 -0.156448 0.035926 0.0188573 -0.82524 -0.47622 -1.32524 -0.997839 -0.464746 -0.686242 0.513053 -0.213484 -0.0954421 -0.331329 1.08862 0.626927 0.391558 0.497957 -1.08601 -0.321529 0.0351008 -0.661329 -0.707519 -0.229433 -1.15505 0.107401 -0.414359 -0.84836 0.574765 -0.527551 -1.21853 0.361752 0.0999268 -1.28834 0.914253 0.933858 -0.211491 -0.189797 -0.259289 -0.4644 -0.859241 -0.0181814 -1.26601 -0.206383 1.11993 -0.998159 -0.429197 0.0370408 0.377954 -0.257613 -0.475926 -1.1527 -1.01669 -1.0381 -0.0393996 0.767018 0.477336 -0.765281 0.105541 -0.0164234 0.0692727 0.7166
台中 -0.683503 0.417083 -0.331222 -0.439976 -0.74764 0.633106 -0.293569 -1.04557 -0.856103 -0.96288 -0.392815 0.385888 -0.729578 -0.490519 -0.376136 -0.00424155 0.401501 -0.562398 -0.369154 -0.795325 -0.138579 0.381374 -0.0846258 -0.684008 -0.605506 0.56781 -0.677892 -0.89227 0.284518 -0.159186 0.0454134 -0.143111 0.000898018 -1.05754 -0.407317 0.00824338 -1.07914 -1.24095 0.275229 -0.643023 -0.681857 -0.0370378 -0.341624 -0.392365 0.0998544 -0.142134 -0.124684 -0.227561 -0.305128 -0.487992 -0.138332 0.259835 0.218835 -0.0835887 -1.13086 -1.33909 -1.3836 -0.612285 -0.354989 0.660776 0.772831 0.00980115 -0.786183 0.689889 -0.807743 -0.694433 0.055227 0.319968 -0.516112 -0.585736 -0.0359897 -0.45255 -1.09469 0.0270846 -1.12749 -0.0276677 -0.502746 -0.277961 -0.396278 -0.838343 0.710608 -0.873743 0.275179 -0.6235 -0.267974 -0.451536 -1.02823 -1.10377 0.884374 -0.492589 -0.640496 0.0768988 -0.151063 -0.238412 -0.535483 0.0274567 -0.470347 -0.120601 -1.37349 -0.0334893 -0.583409 0.629435 -0.206669 0.854887 -0.267672 -0.541722 -0.00630747 1.01109 -1.06896 -0.25835 0.126043 0.486273 0.763267 -0.243834 0.0985001 0.127201 -0.454538 -1.06006 -0.41881 -0.265014 -0.861474 -0.758218 -0.069984 0.447343 -0.861048 0.303337 -0.147185 0.146211
二 -0.798142 0.529734 -0.745754 0.251591 0.318588 0.349348 -1.0724 -0.340981 -0.146403 -1.25354 -0.631638 0.164002 -0.509362 -0.866194 -0.182106 -0.138651 -0.339155 -0.153471 0.22852 -0.282909 1.01857 -0.111522 -0.0727352 0.189735 -0.865347 0.0562991 0.0595785 -0.222721 -0.30398 -0.483872 0.391616 -0.774596 -0.906725 0.223919 -0.00199239 -0.738867 -0.286966 -0.953993 -0.00318465 0.545889 -1.06657 0.124444 -0.401464 -0.754527 0.302424 -0.140729 -0.568121 -0.574463 -1.12898 -0.670141 0.0922607 -0.0954251 0.494294 0.393719 -0.793681 -0.668873 -1.15142 0.0418037 -0.0811489 -1.12946 -0.0661025 -0.405782 -0.36136 0.827451 -0.378967 -1.41521 -0.0640376 0.251352 -0.40027 -0.175791 -0.903654 0.101298 -0.762038 -0.121619 -0.317455 0.250464 -0.699361 -0.123799 0.208518 -1.16385 -0.00621405 -0.521494 0.469941 0.0813844 -1.03003 -0.41334 -0.90117 -1.04255 0.0708945 -0.367477 -1.13113 0.0391504 -0.0385432 -0.699918 -1.22503 0.115826 -0.942612 -0.196187 -0.171865 -0.144385 0.0624232 -0.308229 -0.686403 0.45311 -0.04274 0.103563 -0.226936 1.25792 -0.633199 -0.585894 0.00397758 -0.332294 0.0354 -0.775451 0.12099 -0.411783 -0.606926 -1.4668 -0.91231 -0.963567 -0.970868 0.00189514 -0.520054 -1.41274 -0.74603 -0.0162635 -0.499716 0.704948
台北市 -0.383637 1.60928 -0.453665 -0.885921 -0.821631 0.1918 0.673091 -0.43463 0.109504 -1.40339 -0.466954 -0.110186 -0.160516 -0.189478 -0.669851 0.963998 0.687996 -0.660928 0.325277 0.253896 -1.00852 -0.681467 0.384851 -0.582582 -0.0495209 0.418832 -0.274389 -0.686721 0.296946 -1.02393 0.579141 -0.0195701 -1.2638 -1.24242 -0.0768594 -1.16106 0.569675 -0.951326 0.36837 -0.875357 -0.308301 -0.0537987 -0.412326 -0.391531 -0.159823 -0.548498 -0.407253 -0.629612 -0.241432 -0.964157 -0.424296 -0.573198 0.475104 -0.449101 -0.915804 -0.28946 -0.593075 -0.671351 -0.0323121 0.037 0.57718 0.917884 -0.178428 0.049953 -1.21203 0.394798 0.210196 0.444756 -0.299146 0.0397171 -0.547376 -0.0617366 -0.220962 0.0925643 -0.644811 0.552387 -1.26433 0.199491 0.531876 -0.531891 0.593941 -1.09256 -0.294645 -0.325314 -1.25416 -1.76266 -1.28569 -1.39486 0.961185 -0.321702 0.0489967 0.465034 -0.542005 -0.179659 -0.356332 -0.0031102 -0.0519003 -0.636471 -1.11717 0.0935934 -0.072681 0.84866 -0.0175495 0.768264 0.294266 -0.769181 -0.566788 0.684315 0.295509 0.55781 -0.611303 0.704334 0.146175 -0.446864 0.560161 -0.582308 -0.734649 -0.849489 -0.540984 -1.09206 -1.07145 -1.00161 -0.110971 0.0901424 -0.87452 1.08686 -0.468907 -0.500229
北 -0.30044 0.60961 -0.860996 -0.570012 -0.357218 0.353115 -0.157219 0.0770924 -0.719063 -1.40785 -0.511734 -0.196131 -0.259499 -0.67651 -0.612319 0.0231997 0.00734776 -0.648563 0.243445 -0.264567 -0.158701 0.230239 0.214229 -0.502769 -0.514477 0.856439 -0.356939 -0.570698 0.206508 -0.208431 -0.272991 -0.201854 -0.920468 0.0153285 -0.36144 -0.801925 -0.579713 -1.09645 -0.234984 -0.260246 -0.318297 -0.245194 0.104547 -0.392354 0.483501 -0.428851 -0.373615 -0.14572 -1.08191 -0.873845 0.587501 0.404483 0.081191 -0.369506 -1.22315 -0.669865 -1.17396 -0.392746 -0.319266 -0.0978003 0.0694897 -0.470506 -0.917974 0.968097 -0.764859 -0.949719 0.783394 0.860871 -0.297462 -0.706111 -0.558581 0.0795658 -0.207382 -0.456304 -0.750918 0.275561 -0.349974 -0.0558533 -0.255316 -0.394797 1.16919 0.205085 0.387556 -0.220022 -1.10248 -1.38303 -0.775328 -1.24445 0.255092 -0.283403 0.182549 0.342623 -0.564316 -0.866259 -0.885827 -0.167676 -1.12187 0.226551 -1.13538 -0.0125815 -0.267732 0.807204 0.00726933 0.777348 -0.711694 -0.516193 0.159144 0.996897 -0.944435 -0.498946 -0.477804 -0.189533 0.62886 -0.205357 0.160999 0.982131 -0.912058 -1.26622 -0.721168 -0.71011 -0.800463 -0.660995 -0.505623 0.384918 -0.964839 0.113617 -0.144327 0.257401
貴 -0.229856 -0.494681 -0.128406 -0.56845 0.31921 -0.204584 -1.12545 -0.0530713 0.277089 -1.56812 -0.905894 -0.763661 -0.427444 -0.358395 0.188047 -0.800117 0.723896 -0.855451 0.0503258 -0.522566 0.334745 0.11025 -0.0727261 -0.125083 0.174865 0.721802 -0.122237 -0.740445 0.102542 -0.799437 0.0334572 -0.335041 -0.268322 -0.910802 0.902752 -0.0956986 -0.514366 -0.710035 0.275601 -0.151229 -0.599348 -0.0189316 -0.174108 -0.497424 -0.122807 -0.13923 -0.159185 -0.940188 -1.39674 -0.446915 0.153607 -0.319186 -0.413847 -0.0419313 -0.786619 -0.96421 0.166895 -0.112398 -0.336255 0.0664418 -0.674781 0.147952 0.567971 -0.117172 -1.0786 -0.142179 0.157905 0.310884 -0.116776 -0.83543 -0.367238 -0.843764 -0.539199 0.265466 -0.722697 -0.192054 -0.704785 -0.248999 -0.117854 -0.655315 -0.767502 -0.150584 0.86095 -0.0524143 -0.542273 -0.25822 -0.0220801 -0.726596 0.569359 0.0626501 0.11474 -0.424499 -0.73154 -0.277108 -0.899934 -0.475307 -1.42906 0.468153 -0.883466 -0.603424 0.45731 0.504185 -0.0374216 0.0293201 -0.395077 -1.00795 -0.16863 1.01095 -1.11045 0.379462 0.618498 -0.79181 -0.250065 -0.04964 -0.624617 0.100692 -0.361862 -1.3701 -0.662869 -0.544207 -0.357471 -0.680872 0.689992 -0.472951 -1.39069 0.0414971 -0.462321 0.0637229
臉 -0.446307 -1.2248 -1.20457 -0.419612 -0.0186104 -0.235481 -0.464171 -0.529377 0.184623 -0.915424 -0.34991 0.0339294 1.03995 0.165342 -0.562182 -0.0863557 0.31896 -0.117445 0.150436 -0.827825 0.466968 -0.300345 -0.625626 0.0266014 0.051924 0.515997 -0.501174 0.0757559 -0.162811 0.417257 0.112199 -0.33739 -0.847185 0.266859 -0.35583 0.386882 -0.85579 -0.135915 -0.237996 -0.760614 -0.761342 -0.513443 -0.0900346 -0.640373 -0.19684 0.0996902 -0.256799 -0.892256 -0.593711 -0.537273 -0.0105367 0.169173 0.247238 -0.21831 -0.274912 -0.626112 -1.01343 1.12765 0.254433 0.180189 -0.945096 -0.447899 0.79624 0.385593 -0.309453 -0.932365 0.211484 -0.439313 -0.0129827 -0.838725 -1.12873 -0.195243 -0.621012 0.0990935 -1.42153 0.0956127 0.394261 0.434362 -0.29925 0.232848 -0.0990971 0.233768 0.35246 0.0274379 -0.870553 -0.635863 -0.580283 -0.0456837 -0.339879 -0.250805 0.194071 -0.416472 -0.393659 -1.56916 -0.252209 0.581509 -0.410787 0.278895 -1.38055 -0.494069 -0.037261 -0.679454 -0.583277 -0.497189 0.291759 -0.469458 -0.0455545 0.137975 -1.06225 -0.725822 -0.391484 -1.00243 0.678372 -0.00504308 0.0714564 0.737905 -0.390462 -0.891674 -1.04834 -0.698918 -0.698133 -0.0381337 -0.453363 0.403896 -1.35674 -0.825629 -0.00524673 0.118065
專業 -0.225218 -0.00971565 -0.466084 -0.864234 -0.447641 -0.154716 -1.08123 0.0625193 0.00451113 -0.970609 0.460729 -0.0754979 -0.0519903 0.293528 -0.929598 -0.244023 0.711846 -0.814893 0.00725822 -0.989232 0.564069 -0.581846 -0.21581 0.162348 0.517385 -0.201519 0.0314135 -0.165464 -0.117265 0.421245 0.451309 -0.692767 -0.696543 1.19778 -0.242496 0.388968 -0.569888 -0.396254 -0.101451 -0.199142 -0.546284 -1.30508 -1.21152 -0.287187 0.3098 -0.628641 0.083541 -0.041731 -0.0335099 -0.627882 -0.696957 -0.1083 -0.132003 0.340875 -0.856917 -0.989151 -0.684162 0.470268 -0.284746 0.409637 -0.777904 -0.494946 0.901923 0.180104 -0.228026 -0.736871 -1.01596 0.136961 0.390492 0.0962477 -0.662655 0.861568 -0.812261 1.13529 -0.899559 0.50079 -0.428224 0.0955798 -0.762085 -0.471227 0.333017 -0.465003 -0.119276 -0.771461 -1.51393 -0.464499 -0.525721 -0.350105 -0.0829638 -0.0234091 -0.261294 -0.146477 -1.09517 -0.440408 -0.236036 -0.480177 -0.888166 -0.0983259 -0.426728 -0.714349 -0.369345 0.417676 -1.04022 -0.525993 0.288995 -0.133942 0.323026 0.455815 -0.943273 -0.549788 -0.146874 -0.634765 0.774221 -1.07303 0.23274 1.10142 0.03762 -1.08288 -1.03353 -0.972341 0.417083 -1.20774 0.271797 -0.76392 -0.432196 0.471284 -0.169947 0.918983
光 -0.293716 -0.226028 -0.814387 -0.704068 0.0760048 -0.0749427 -0.442311 -0.375663 -0.453872 -0.637789 0.0359884 0.15475 -0.1062 -0.946785 -0.137029 -0.00882706 -0.667658 -0.631923 0.284683 -0.452572 0.0480645 -1.2043 -0.355084 -0.483021 0.0139407 0.691673 -0.728852 -0.509263 0.590523 -0.428229 -0.348666 -0.0688427 0.202293 -0.182751 -0.146261 0.290222 -1.37701 -1.22787 0.176641 -0.0726845 -0.7411 -0.701098 -0.388074 -0.574265 0.385873 -0.316534 -0.671578 -1.21921 -0.621854 0.0251839 0.402141 0.245529 0.433674 -0.1878 -0.64269 -0.10022 -0.531517 0.207575 -0.642157 0.0416402 -0.777638 0.00904675 -0.0288758 0.247021 -0.893689 -0.280528 0.109405 0.52071 -0.0257586 -0.757945 -1.06617 -0.307518 -0.602008 -0.509152 -1.32044 -0.159613 0.14998 0.254196 0.275778 -0.755431 0.469331 -0.510872 0.0723096 0.0969874 -0.974413 -0.576278 -0.153467 -0.465966 -0.0393053 -0.220813 -0.11881 -0.726131 0.588507 -0.347202 -0.66333 0.0523515 -1.35031 0.29695 -0.891197 -0.23451 0.260812 0.0740781 -0.712299 -0.593938 0.747386 -0.251767 0.490373 1.27637 -1.07525 -0.300199 0.383086 -0.380503 -0.469964 -0.153328 -0.0013002 -0.49948 -0.455614 -1.78879 -0.66293 -0.648979 -0.632622 -0.957321 -0.324834 -0.430079 -1.33327 -0.125202 0.485587 -0.154154
黑 0.0886941 -0.387761 -0.40697 0.00247677 0.306392 -1.27542 -0.744268 -0.893912 0.441501 -0.43427 -0.474471 -1.06139 -0.272022 -0.934671 -0.0586056 0.323305 0.210431 -0.257835 -1.35019 0.0299358 0.0269371 -0.323571 -0.500709 -0.655491 -0.755641 -0.0986586 -0.811679 0.299115 0.285496 -0.305905 0.455487 -0.482438 -0.722704 0.282356 0.229023 0.740124 -1.39561 -1.03745 0.306997 -0.464237 0.0141836 0.538909 -0.859859 -0.920423 -0.12086 -0.204458 -0.426976 -0.067697 -0.667905 0.288102 0.0179333 0.865468 0.0953997 -0.894965 -0.422292 -0.424874 -1.64791 -0.181673 -0.55472 -0.91571 -0.708108 0.383714 -0.197663 1.11557 -0.623586 -0.746089 0.496705 0.396171 0.0205303 -0.519482 -0.274306 0.425475 -1.10417 -0.41909 -0.860459 -0.601742 -0.241852 -0.0816364 0.0547018 0.660131 0.179941 -0.300484 0.0827928 -0.296932 -1.22586 -0.139916 -0.75563 -0.650411 0.716133 0.0206405 -0.724638 -0.346884 0.298621 -1.40396 -1.57351 -0.324285 -0.733062 0.683014 -0.332251 -1.06275 -0.0461495 -0.68685 0.10722 -0.493807 0.749656 -0.189099 -0.361802 0.845 -1.10992 -0.601174 -0.482964 -0.890362 -0.33865 -0.346322 -0.170241 0.1636 -0.92684 -0.9004 -0.582783 -0.9396 -0.438668 -0.636709 -0.187964 -0.692292 -1.17827 -0.700324 -0.107757 -0.277928
晚上 -0.707773 -0.249727 -0.519188 -0.313526 -0.734427 0.186374 -0.324306 -0.137807 -0.103572 -1.00365 -0.723198 -0.202313 0.768005 -0.344159 0.444425 -0.628725 0.272961 -1.28217 0.267699 -0.0564968 0.0632691 0.502034 -0.6068 0.494548 -0.202513 0.492538 0.998617 0.403369 -0.596168 -0.725671 0.317547 -0.115547 0.0174391 -0.0524635 -0.376784 0.140724 -0.753521 -1.41371 -0.266904 -0.0568111 -0.505023 0.490115 -1.12389 -0.313201 -0.32009 -0.0365653 0.141481 -0.969316 -0.757473 -0.818517 -0.733659 -0.848467 1.29369 0.209093 -0.338177 -0.990476 -0.416652 -0.287657 -0.0390456 -0.376025 0.377865 0.0539063 0.745691 0.243617 -0.47889 -0.559691 -0.115851 -0.359099 -0.470859 0.180691 -0.351322 0.294964 -0.344662 0.25587 -1.37552 0.266138 0.187462 0.429779 0.153264 -0.979144 -0.111662 -0.268283 -0.0222098 -0.279767 -0.63961 0.76612 -1.04031 -0.990051 -0.0547252 -0.224524 -0.593809 -0.103894 0.872505 -1.39682 -0.631304 0.407462 -0.960014 -0.490434 -0.882458 -1.06547 -0.25467 0.753526 0.00716953 0.55264 -0.254116 -0.998089 0.0949419 0.226525 -1.26594 -0.0430209 0.588807 -0.555483 -0.195018 0.847326 0.0337059 -0.304422 -0.380204 -1.17849 -0.136676 -0.207506 -1.0207 -0.164421 0.170683 -1.07433 -0.332658 -0.145612 0.0945473 -0.0296529
馬英九 -1.11647 -0.182501 -1.5153 -0.237153 -0.392666 0.395851 -0.649022 0.446351 0.31684 -0.877635 0.158066 -1.25968 0.0274579 -0.780323 0.261757 0.943678 0.872612 0.258793 0.575052 -0.236961 -0.195622 0.172549 -0.0434022 -0.813185 -0.798562 0.690743 0.346394 0.132899 0.132061 -0.466878 -0.952496 0.269064 -0.225457 -0.58774 -0.872493 0.0827386 -0.472517 -1.09405 0.11921 -0.971949 -0.307108 -0.408268 -0.26487 0.270365 0.0498089 0.97304 0.548998 -0.0963564 -0.465255 -1.45344 -1.04088 -0.525347 0.372353 0.49217 -0.291752 -0.823303 -0.348559 -0.0693011 -0.0293119 0.0565199 -0.695102 0.115033 -0.16653 0.443981 -0.40694 -0.781059 -0.115105 -0.423655 0.273289 -1.09091 -0.016824 -0.272126 -0.664654 -0.619033 -1.52506 0.400513 0.099287 -0.865203 -0.0289316 0.500954 0.11826 0.180836 0.552197 -0.0676667 -1.04611 -1.08468 0.219141 -0.523019 -0.198068 -0.51464 -0.149188 -0.270665 -0.889325 -0.814676 -0.346921 0.642375 -1.04938 -0.42396 -0.767161 -0.133142 0.678419 0.52369 -0.843848 -0.552841 -0.0403076 -0.512528 0.000810159 0.806609 -0.89242 -0.717885 -0.0163323 -0.51812 0.227273 -0.373454 -0.61172 0.27165 0.347013 -0.497402 -1.41122 -0.489201 -0.387167 -0.320583 -0.0564262 0.102365 -0.963443 -0.20121 -1.02346 -0.0657289
假 -0.0307387 -0.363741 -0.865691 -0.701397 -0.337633 -0.4107 -0.793348 -0.471934 0.382114 -1.21422 -0.623252 -0.0944866 0.448248 -0.743913 -0.461406 0.513959 -0.0905096 0.286551 0.190089 -0.53536 -0.0330912 -0.547618 -0.907023 0.528229 0.183525 -0.662695 0.511725 0.137258 0.115273 0.0226751 -0.115844 -0.46076 0.192285 -0.207129 0.109071 0.162692 -0.929619 -0.681435 -0.377103 -0.0847165 -0.645963 -0.215521 0.853843 -0.370219 -0.0451278 -0.154485 0.187382 -0.26268 -0.988635 -0.345051 -0.156985 -0.347177 0.702802 -0.216157 -0.38549 -1.30724 -1.12968 -0.607388 0.257018 -0.316858 -0.0262613 0.436927 0.59562 0.59108 -0.635452 -1.29902 -0.189745 -0.292137 0.627273 -0.539266 -0.976936 -0.0259457 -0.596567 0.668581 -0.962214 -1.36808 -0.290484 0.798609 -0.721662 0.651867 0.671371 -0.167622 0.916023 0.0817858 -0.471762 -0.282962 -0.827598 -1.00399 0.109636 -0.152041 -0.251783 -0.372922 -0.39176 -0.688613 -0.268463 0.211529 -1.08881 0.0970692 -0.170499 -0.576875 0.521916 0.334091 -1.05534 0.0401974 -0.771773 -0.877619 0.0953392 0.690521 -1.36984 -1.16003 0.352113 -0.333256 0.162723 -0.228022 0.430673 -0.330492 -0.288575 -1.01214 -0.915728 -0.761822 -0.633531 -0.352904 -0.0313647 -0.0759388 -0.773186 -0.0723879 -0.400504 0.17348
蛋糕 -1.02877 -0.390529 -0.411181 0.322192 0.214839 -0.834389 0.110874 -0.0550034 -0.296441 -1.6712 -0.190406 -0.000662033 0.276089 -0.224989 -0.641604 -0.0859116 0.694386 -0.289802 -0.363636 -0.291773 -0.20236 -1.48632 0.0179006 -0.179707 -1.3137 0.0293244 0.114734 0.401964 -0.554373 -0.0905878 1.12156 0.321501 0.282204 0.117782 -0.00835751 -0.0108044 -0.147775 -0.17398 0.144693 -0.731285 0.102984 0.0578225 -0.40562 -0.643458 -0.330527 0.11803 0.386077 -0.769561 -0.495095 0.191734 -0.434348 -0.534049 -0.511271 -0.610323 -1.18866 -1.22721 -0.662912 -0.926748 0.0730467 -0.893353 -1.51108 -0.321575 0.133491 1.30357 -0.574283 0.242083 0.130171 -0.354032 -1.26908 0.425863 -0.304386 -0.196779 -0.871754 -0.000644326 -0.995934 -0.315839 -0.547204 -0.796856 -0.384955 -0.767962 -1.35234 0.246766 0.787836 -0.248662 -0.299288 -0.336369 0.209583 -0.512475 0.596609 -0.0312168 0.0588075 -0.486458 0.466734 -0.407725 -0.419869 -0.745759 -1.06944 0.303211 -0.470618 -0.571405 0.000549987 -1.20548 1.15101 0.308523 0.787716 -0.907536 -0.735345 -0.525579 -0.638443 0.601446 0.466298 -0.924614 -0.567675 -0.403808 -0.811804 0.230258 -0.212935 -1.78024 -0.0852159 -0.0175288 -0.222943 -0.67848 0.367903 0.00986192 -0.797408 -0.526369 -0.512271 0.00104471
便宜 -0.363934 -0.396171 -0.044019 -0.778945 0.225517 0.238285 -0.827435 -0.34923 0.162482 -1.43442 -0.27714 -0.738256 -0.425204 -0.124134 -0.133045 -0.671886 0.859819 -0.773828 0.157725 -0.0956187 0.399999 -0.126087 0.130581 -0.128727 0.358365 0.349628 0.414974 -0.844879 0.631965 -0.402266 0.274105 -0.329616 -0.13755 -1.22291 0.987857 -0.335999 -0.545843 -0.833444 0.150096 -0.0944058 -0.443599 -0.308145 -0.454745 -0.178524 -0.00328516 0.0921404 -0.369898 -0.842196 -1.40358 -0.102539 -0.0286497 -0.441344 -0.36573 -0.499103 -0.671715 -1.26489 0.0983163 -0.337642 -0.394009 0.439301 -0.659559 0.381485 0.282717 0.310773 -1.31017 0.217334 0.363464 0.124509 -0.452371 -0.771688 -0.712406 -0.869999 -0.225628 0.474534 -0.963397 -0.0327101 -0.404443 -0.107754 -0.228673 -1.07962 -0.417442 -0.185808 0.451867 -0.309135 -0.269735 -0.0874267 0.00677689 -1.19064 0.228418 0.219776 -0.523815 -0.446889 -0.529053 -0.357806 -0.879727 -0.284986 -1.33514 0.241181 -0.499292 -0.672968 0.0728282 0.288578 -0.0427346 -0.129653 0.0442834 -0.692913 -0.281872 0.738536 -1.0297 0.684818 0.620939 -0.685175 -0.00362407 -0.277611 -0.443047 0.223075 -0.503047 -1.46799 -0.577603 -0.563171 -0.589084 -0.461866 0.937081 -0.190798 -1.19814 -0.242332 -0.321717 0.513003
女人 -0.655971 -1.06576 -0.833368 -0.88122 0.0477114 0.423721 -0.519211 -0.423785 0.0995846 -0.507148 0.493869 -0.881582 -0.329811 -0.146046 -0.91736 0.427767 -0.1771 0.51819 0.563805 -0.712261 0.52282 -0.983392 -0.727454 0.682973 -0.528168 0.284675 0.291855 -0.514522 -0.159031 0.0640689 -0.505398 -0.00418428 -0.170355 0.017294 0.790253 -0.223816 -0.778144 -0.613432 0.512355 -0.519471 -0.189376 -0.249483 -0.522966 -1.15459 0.275212 -0.551397 -0.316804 -0.263797 -0.644913 -0.15768 -0.0161199 -0.434663 0.748451 -0.628996 -0.696929 -0.896996 -0.882522 -0.163119 -0.697518 0.367112 -0.732797 -0.456968 0.615517 -0.193448 -0.681138 -0.576725 -0.00390925 0.0788823 0.559891 -0.848611 -1.03076 0.726234 -0.478384 0.730906 -0.822256 -0.164259 0.115305 -0.198292 0.156561 -0.280812 0.460486 -0.0819154 0.130106 0.26165 -0.552139 -0.170387 -0.155099 -0.1057 -0.268145 -0.221575 0.0292294 0.0381279 -0.176549 -0.56235 0.193186 -0.39322 -0.817693 0.379181 -0.260293 -0.507778 -0.230015 -0.000764951 -0.522857 0.464013 0.288033 0.106671 0.146754 0.596153 -1.10781 -0.421839 0.313179 -0.857027 0.632234 -0.268829 0.436219 -0.983587 -0.0840294 -0.871994 -0.54761 -0.814034 -0.864872 0.0231536 0.52212 -0.1031 -1.51071 -0.619617 0.020751 -0.607796
大陸 -0.297909 0.476903 -0.454547 -1.45785 -0.844526 0.0616358 -0.65982 -0.908556 0.805966 -0.521289 -0.0201203 -0.953969 -0.079285 -0.243865 0.541771 0.0660296 0.420209 -0.488843 0.368402 -0.813674 0.400928 -0.586542 -0.82207 0.210844 -0.0237954 -0.218963 0.508993 -0.587625 0.452836 -0.298312 -0.242354 -0.337399 -0.0606456 -0.284899 0.0045723 0.111365 -0.602811 -0.719955 -0.265911 -0.046178 -0.153276 -0.347421 -0.581031 0.20946 -0.162028 -0.374446 -0.0320884 -0.134359 0.26311 -1.02986 -0.692497 0.136044 0.32061 -0.125082 -0.80355 -1.36119 0.255562 -0.273899 -0.29914 0.536504 0.297843 0.338947 -0.23692 0.801579 -0.768457 -1.13956 -0.40043 0.079012 -0.64759 -0.782434 -1.04417 -0.143512 -0.513247 -0.949648 -1.33695 -0.0609177 -0.263768 0.0730129 -0.0198047 -0.456441 0.56725 0.534764 0.589607 -0.216333 -1.00948 0.0299312 -0.0834407 -0.438634 -0.194608 -0.643349 0.51437 0.062985 -0.765112 0.0973164 0.408439 -0.538998 -0.967329 -0.209711 -0.722893 0.1156 0.812828 0.0736536 -0.125749 -0.207457 0.355284 -0.839188 0.412989 0.808131 -1.02543 -0.210971 0.364176 -0.366704 0.0514043 -0.790733 -0.319829 -0.182495 -0.151415 -0.943273 -0.956822 -1.15169 -0.597896 -0.0379766 -0.358737 0.507978 -1.01051 0.137395 0.152844 0.0323304
坐 -1.24805 -0.517087 0.0590669 0.0129808 -0.155194 0.141349 -1.09501 0.177638 0.00716179 -0.524578 -0.447078 0.236972 0.556924 -0.627567 -0.42986 -0.887531 -0.00819281 -0.226206 0.21379 -0.255121 -0.313829 -0.0335229 -0.620874 -0.29731 0.187397 0.544767 1.02909 -0.326235 -0.355512 -0.118412 0.810305 -0.579999 -0.399604 -0.0690992 -1.01684 0.0877723 -0.592066 -1.38082 -0.350656 -0.404459 -0.567494 0.0713386 -0.744798 -2.0286 -0.171259 -0.585878 -0.420487 -0.128468 -0.679073 -0.369551 0.14391 -0.24677 0.690221 1.20339 -0.14796 -1.41562 -0.51861 -0.145608 -0.525549 -0.639714 -0.499586 -0.368469 -0.00451788 -0.052349 -0.530997 0.431674 0.480481 0.0764763 -0.418507 0.0777327 -0.88558 -0.0920586 -0.482049 0.441968 -1.14887 -0.0342956 0.129582 0.193008 -0.669742 -1.0631 0.114402 -0.514079 0.315165 -0.545978 -0.591634 -0.176328 -0.787515 -0.636502 -0.528152 -0.21911 -0.0330912 0.0340456 0.167795 -0.275693 -1.09785 0.0117886 -1.50202 0.763242 -0.378196 0.0443523 -0.447644 -0.204545 0.468705 0.72895 -0.648543 -1.00833 -0.242935 0.0833141 -1.27414 -0.107933 0.403922 -0.805717 0.320881 0.283161 0.585425 -0.434775 0.0532714 -0.626259 -0.502829 -0.379793 -1.06272 -0.467918 -0.528946 0.916598 -0.205949 0.217652 -0.200238 1.2278
拉麵 0.408565 -0.507865 -0.10912 0.369591 -0.355555 -0.829518 0.0649793 0.0210051 -0.054901 -1.76244 -0.486997 -1.06214 -1.09023 -0.933754 -0.840397 -0.907034 0.450636 -0.241798 -0.165404 -0.611642 0.00762109 0.159624 -0.469973 -0.387728 -0.484243 0.0958045 -0.845719 -0.398896 0.482266 0.383804 1.09597 -0.365403 -0.213346 -1.32081 -0.0253067 0.141009 0.0725522 -1.0821 -0.916137 0.254827 -0.423895 0.537469 -0.465196 -0.69591 0.139098 -0.0474806 -0.999893 -0.917604 -0.872978 0.267115 -0.294625 0.0699352 -0.473389 -0.949267 -0.591921 -0.819467 0.0106883 -0.433467 -0.0946505 -0.91063 -0.162793 0.676335 -0.158542 0.233731 -0.835797 0.180104 0.303499 -0.51558 -0.839278 -0.0857706 -0.680169 -0.124479 -0.540465 -0.51776 0.18256 0.160974 -0.788262 0.90949 -0.314648 -1.10843 0.036484 0.0713535 0.0556035 -0.243273 0.513055 -0.66103 -1.46895 -0.445742 0.672529 -1.10668 -0.115087 -0.617588 0.828371 -1.18668 -0.736081 0.520649 -0.792023 -0.547467 -0.218676 -0.472528 0.373023 -0.12669 0.213678 0.286179 -0.166265 -1.00837 -0.420777 0.75803 -1.05105 -0.0101455 -1.32603 0.410673 -1.50608 -0.591022 0.391409 -0.293088 -0.492521 -1.44119 0.456358 -0.632976 0.142652 -0.709805 0.312881 -1.10431 -0.947634 -0.298147 0.0426361 0.177898
低 -1.12058 -1.18708 -0.159434 -0.84947 -0.216627 -0.387574 -1.13592 -0.493682 0.643865 -0.837729 -1.14427 -0.841175 -0.53946 -0.119649 0.304155 0.325736 0.786188 -1.00581 0.326392 -0.0691024 0.321725 0.706168 0.223053 0.00417892 0.361381 -0.531033 -0.0261266 -0.727806 0.177066 -0.608954 -0.232578 -0.637724 -0.311752 0.546375 0.734007 -0.157646 -0.592712 -0.878935 -0.118178 -0.679998 0.0263649 0.0386325 -0.525948 -0.605296 -0.268313 -0.244392 -0.330295 -0.822863 -0.595904 0.31365 0.151936 -0.0868036 -0.121993 -0.467564 -0.495565 -0.900118 0.216313 -1.06595 -0.299117 -0.291317 -0.646997 -0.724832 0.204822 0.614176 -0.73461 -0.536981 -0.162871 0.0516816 0.153804 -0.703007 -0.375206 -0.571418 -0.137376 0.473863 -0.400764 -0.613482 -0.779612 0.160214 -0.743192 -0.492167 0.398415 0.117128 0.913866 -0.166209 -0.934029 -0.857123 -0.362696 -1.3055 0.439225 0.182366 0.297093 -0.156432 -0.61358 -0.205877 -0.967293 -0.373463 -1.34079 -0.472358 -0.339328 -0.161292 0.290443 0.211939 -0.287636 -0.0422626 -0.15074 -0.665838 0.775318 1.0259 -1.08137 0.724067 -0.144776 -1.27022 0.086925 -1.13858 0.629039 0.300063 -0.176989 -1.50225 -0.289424 -0.351363 -1.08379 -0.364163 0.105438 -0.407415 -0.800809 -0.444895 0.0845549 0.907804
信 -1.17989 -0.357742 -0.663924 -0.0989106 -0.273898 -0.195345 -0.223903 0.0476378 -0.548337 -0.759202 0.149848 -0.164217 -0.146681 -0.547008 -0.750391 0.775265 0.36791 0.0692153 0.781138 0.0142321 0.237989 0.185495 -0.561957 0.182648 -0.8152 -0.164157 0.77591 -0.957337 0.13111 -0.736199 0.0867037 -0.350889 -1.33409 -0.399198 -0.378866 -0.120492 -0.997311 -0.238892 1.37647 0.386334 -0.437119 -0.632166 0.135356 -0.463571 -0.545973 -0.596442 -0.647251 -0.260095 0.000235721 -0.108486 -0.279717 0.0298687 -0.0183369 0.624734 -0.723671 -0.79473 -0.69407 0.957989 0.157026 -0.631522 -0.643387 -0.574272 0.0771153 -0.428641 -0.0758712 -0.649275 -0.515348 0.0433811 0.743921 -0.517541 -1.07916 0.0552607 -1.16092 -0.262342 -0.558049 0.34063 -0.488058 -0.37443 -0.00650224 -0.402172 1.15927 0.79997 0.617508 -0.18349 -0.0352988 -0.241128 -0.706769 -0.684234 -0.361332 -1.2746 -0.10303 -0.429066 -1.05561 -0.714898 0.290856 -0.65133 -1.00456 0.453447 -1.0405 -0.169609 0.290447 0.483093 -0.334096 -0.337979 -0.76421 0.417321 -0.438257 0.946407 -0.842896 -0.747152 0.726515 0.772123 0.223281 -0.733064 -0.0531754 0.423392 -1.18217 -1.02538 -1.96681 -0.665389 -0.369143 -0.307625 0.0189407 -0.184193 -1.29491 -0.0392473 -0.22722 0.0744695
正妹 -0.364995 -0.394683 -1.02104 -0.460182 0.812999 -0.530948 -0.665468 -0.835208 -0.601388 -0.723724 -0.0391273 -0.0688496 -0.143524 -0.222687 -1.14761 -0.447232 0.548833 -0.549895 0.468107 -1.21301 0.805844 -0.341753 -0.141248 0.832989 0.178219 0.0200027 0.335974 -0.232905 -0.243739 -0.240112 0.0523463 -0.624185 -0.700542 0.675804 0.196335 -0.0380687 -1.36504 0.15782 -0.0518904 -0.91992 -0.107919 -0.552171 -0.557093 -0.920478 -0.0169399 -0.592746 0.269023 -0.393818 -1.3586 -0.0562412 -0.0858856 -0.0909116 0.326206 -0.435862 -0.445799 -0.9511 -1.11499 1.01757 -0.318031 -0.0394795 -0.0945675 -0.272112 0.453365 0.246978 -1.14675 -0.472698 0.468346 0.341856 -0.259537 -0.60217 -0.477042 0.0919383 -0.0848554 0.182719 -1.35342 -0.364118 0.237329 -0.2351 -0.0646366 0.388963 0.190341 -0.507585 -0.0563027 -0.291733 -0.870767 0.733573 -0.611978 -0.214814 -0.384278 -0.490626 0.294611 0.253142 -0.371007 -0.553382 -0.305314 -1.09739 -0.527295 0.21369 -0.667074 -0.732239 -0.084244 -0.054793 -0.496086 0.00939199 -0.336106 -0.107616 -0.522951 0.419505 -1.52051 -0.763078 -1.10381 -0.374346 0.453258 -0.194299 -0.228706 -0.296419 -0.393052 -0.927332 -0.912379 -1.01176 -0.246681 0.276921 0.0710632 0.310932 -0.825659 -0.163327 0.176836 0.270799
水 -0.139319 -1.15701 -0.715498 -0.714635 0.301241 -0.672319 -0.839328 -0.513007 -0.801797 -0.647265 -0.414822 -0.470498 -0.662497 -0.159214 0.214822 -0.0428454 -0.764804 -0.569886 0.0586783 -0.196404 -0.0120598 -0.270718 0.444693 -0.471699 0.273174 -0.675528 -0.303365 -0.339071 -0.601225 -0.28648 -0.377347 -0.109301 -0.726729 -0.160107 -0.566486 0.377724 -0.660551 -1.04838 -0.0765569 0.29052 -0.479981 -0.527754 -0.597007 -0.274576 0.30377 -0.391644 -0.251817 -0.736098 -0.754852 -0.309619 -0.573156 0.482648 -0.228708 0.474159 -0.679611 -0.931153 -0.78432 -0.684441 -1.14433 -0.0671776 -1.18818 -0.699219 0.323243 0.423609 -0.129797 -0.255579 0.762555 0.587841 -0.36024 -0.0855769 -0.885431 0.06762 -1.13501 0.485066 -1.07685 -1.14473 -0.131628 0.397143 -0.0409732 -0.62721 -0.139693 0.0368717 0.149635 -0.114068 -0.849228 -0.133177 -0.614706 -0.954059 0.0649514 -0.0746975 -0.211129 -0.0194419 -0.546299 -0.190683 -1.1046 0.196543 -0.870544 0.44159 -0.61434 -0.260492 -0.246519 0.0796732 0.660027 0.240724 0.462226 -0.807732 -0.419796 0.168762 -0.415777 -0.141579 0.352798 -0.532494 -0.610189 0.177486 0.691543 0.491248 -0.784119 -1.06416 -0.74526 -1.16467 -0.372968 -0.785714 -0.377562 -0.70795 -0.919289 -0.0828217 -0.441324 0.162774
貓 -0.581149 -0.541115 -1.38206 -0.275292 0.147086 0.229042 -0.833348 -0.717416 0.119416 -1.09737 0.115651 0.120251 0.576683 -1.13216 -0.762646 0.260479 -0.0656782 -0.0190416 0.928663 -1.50236 0.37185 -0.832108 0.498041 -0.072366 -0.335978 -0.142062 -0.220335 -0.0269462 -0.782094 -0.752114 -0.0275679 -0.515466 -0.692835 -0.335613 -0.430746 0.47871 -1.16497 -0.109038 0.090242 -0.954862 -0.294827 -0.446493 -0.293315 -1.45164 -0.325827 -0.401203 0.515917 0.507174 -1.2093 0.385974 0.496913 0.429635 -0.543606 -0.561635 -0.468255 -0.775758 -1.22544 0.280751 0.340953 -0.0938317 -1.3265 0.363377 0.610946 0.350894 -0.753126 -0.193705 0.293855 -0.12557 -0.72445 -0.198217 -0.318886 -0.518542 -0.732546 -0.0195111 -0.858926 -0.845833 0.194605 -0.526685 -0.794014 -0.923117 1.04178 -0.199722 -0.376119 -0.177265 -0.376165 0.869999 -0.993139 0.121983 -0.449275 -0.314168 -1.20936 -0.110742 -0.246344 -1.44064 -0.32562 0.459872 -0.698001 0.264225 -0.191586 0.399218 -0.602671 0.688277 -0.100633 0.334218 0.710757 -0.178529 -0.289674 0.860758 -0.834084 -1.28064 -0.286222 -0.656498 -0.718402 -0.0684649 0.940048 0.327898 -0.196783 -0.523478 -1.04936 -0.89793 0.58071 -0.112937 -0.668927 -0.410773 -0.250057 0.379484 -0.559492 0.171717
成功 -0.328017 0.280587 -1.0585 -0.498045 0.238542 -0.156572 -0.466574 -0.0777323 0.0788462 -0.282731 0.0382287 -0.647731 0.774764 -0.304573 -0.406155 0.120862 0.0985964 -0.248561 0.266828 -0.538524 -0.0324755 -0.381954 -0.520367 -0.356231 0.632977 0.660773 -0.459019 -0.425742 -0.232114 -0.780261 -0.372101 1.09432 -0.794631 -0.247059 -0.134457 -0.0980984 0.119645 -1.24366 -0.643791 -0.732845 -0.0449881 -0.621845 -0.969106 -0.184943 0.367151 -0.519656 -0.186776 -0.528172 -0.427361 0.657528 -0.341035 -0.533682 0.538652 0.149786 -0.0105428 -0.606856 -0.795158 0.311153 -0.553995 0.250959 -1.13286 0.784305 -0.672072 0.60273 -0.523044 -1.77348 -0.563479 0.160816 -0.315513 -0.244163 -0.712505 0.455088 -0.059226 0.336311 -0.895424 -0.245835 -0.905072 -0.4713 -0.582271 -0.339282 1.29438 -0.358002 -0.280179 0.581364 -1.55757 -0.29789 -0.904232 -0.466184 0.443369 -0.153798 -0.0630174 0.191358 -0.574241 0.270648 -0.104711 0.692205 -0.634862 -0.121898 -0.188145 -0.481606 -0.69513 0.25467 -0.544897 0.0746949 1.03661 0.0212442 -0.363944 0.983388 -1.45045 -0.373884 -0.129411 -0.659424 0.127914 -0.747597 -0.295588 -0.513994 -0.249682 -1.05736 -1.26043 -0.689835 -0.899649 -0.555862 -0.117513 0.135551 -0.676362 -0.00235081 -0.188348 0.281806
影片 -0.182674 -0.12146 -0.3839 0.169483 -0.244003 -0.71574 -0.783962 -0.439731 -0.342038 -0.57084 0.105209 -0.134555 0.55861 -0.485981 -0.308912 0.263468 0.271358 -0.809575 0.660159 -0.390712 0.180423 -0.901625 -0.560494 0.29768 0.0612291 -0.149668 0.69731 -0.514126 1.33209 -0.626035 -0.118377 0.435841 -0.451615 0.501324 -0.322951 0.0941391 -0.783891 0.269357 -0.249993 -0.206106 -0.109393 -0.874156 0.0281354 -0.942861 -0.246755 -1.2986 -0.341081 -0.293199 0.447417 0.0428365 -0.253902 -0.593204 0.721234 0.261873 -0.533862 -0.981847 -0.438177 0.587101 0.719525 -0.285506 -0.72834 -0.261758 0.0231108 0.732709 -0.683767 -0.82425 -0.713161 -0.0354279 -0.172959 0.175343 -0.786116 -0.385503 -1.03909 -0.722233 -1.0381 0.380314 -0.344242 -0.0853921 0.210201 -0.881682 1.08485 0.430284 0.0689003 0.00336629 -0.429981 -0.523316 -0.757098 -0.270622 -0.612231 -0.638171 0.970726 0.137373 0.039253 -0.997437 0.0869861 -0.132457 -0.571135 -0.261373 -0.45241 -1.03669 0.77554 -0.388493 -0.632933 -0.273279 0.298832 -0.11625 -0.283862 0.807904 -1.21459 -0.281954 -0.333608 -0.46153 -0.245234 -0.768347 -0.589265 0.0919448 -0.616462 -1.34831 -1.59404 -0.924217 -0.293022 -0.393193 -0.921147 -0.373838 -0.236315 -0.0245493 0.204538 -0.0725773
台南 -0.287257 0.895802 -0.397079 -0.193323 -0.713143 0.309403 -0.518754 -0.23959 -0.602285 -1.51987 0.341873 0.195067 -0.708864 -0.49155 -0.171986 -0.397483 0.144483 -0.284535 -0.59278 -0.681952 -0.33799 0.0752774 -0.774249 -0.555648 -0.26522 0.252051 -0.878962 -0.589361 -0.314646 -0.206931 0.204177 -0.562915 -0.420804 -1.09499 -0.0164625 0.0713594 -0.995012 -1.1713 0.0415423 -0.131001 -0.323667 0.138245 -0.436822 0.164098 -0.58883 -0.147053 -0.420258 -0.0363048 -0.340402 -0.361279 -0.0265827 0.457318 -0.197231 -0.383681 -1.57014 -1.08139 -0.936126 -0.849691 -0.298729 0.429416 0.280707 0.0307096 -0.67514 0.541197 -0.99377 -0.956144 0.180931 0.213522 -0.629743 -0.00712273 -0.278895 -0.197879 -0.859675 -0.322549 -1.12134 0.500405 -0.0478535 -0.510145 -0.0370253 -1.18473 0.259337 -0.75391 -0.074173 -0.809783 -0.33918 -0.0560539 -0.663865 -1.0056 0.309732 -0.142218 -0.553673 -0.179224 0.101786 -0.547583 -0.138156 0.295095 -0.659405 -0.0706171 -0.999732 -0.25591 -0.788856 0.5465 -0.105398 0.817251 -0.219457 -0.421371 -0.061505 0.858265 -0.51188 0.0116669 -0.308217 0.385416 0.24762 -0.250857 -0.25146 0.225987 0.0326531 -1.23465 -0.350636 -0.527967 -0.463701 -0.80773 -0.123371 -0.0159836 -0.786648 -0.208788 0.0507988 -0.0118737
讀 0.205159 0.943227 -1.04525 -0.694203 -0.376565 0.711855 -1.34017 -1.02797 0.102091 -0.988168 -0.262937 -0.832783 -1.02928 0.268767 -0.401494 0.600637 0.713306 -1.12051 -0.59651 -0.828494 -0.0956058 0.396121 -0.154041 -0.0118264 -0.447039 0.642935 0.216858 0.199295 -0.605426 0.149919 1.17355 0.0484754 -1.21948 -0.0447465 0.234316 0.854101 -0.992673 -1.06493 0.23834 -0.0818483 -0.744583 -0.217512 0.23894 -0.128919 -0.588525 -0.181315 -0.584646 0.177092 -0.417445 0.094352 0.55982 -0.115563 -0.212442 -0.161986 -1.02544 -0.750813 -0.337861 0.270929 0.147863 -0.48644 0.414525 -0.169262 0.0036756 0.31952 -0.163241 -0.980042 0.098672 -0.133579 0.28355 0.333466 -0.582251 0.327619 -1.76679 0.357313 -0.489379 -0.403722 0.24315 -0.079373 -0.284394 -0.869966 0.222484 -0.174369 0.224667 -0.00843898 -1.30073 -0.262782 -0.626934 -0.576805 0.180512 -0.424265 -0.0815889 0.0565234 0.448783 -1.08029 -0.273921 -0.251079 -1.10109 -1.53874 -0.512406 -0.511786 0.233303 0.79819 0.0120852 0.313207 -0.910072 0.351281 -0.391595 0.618976 -1.21037 0.181426 0.600418 -0.436584 0.549465 -0.803712 -0.706191 -0.0417983 0.725213 -1.44475 -0.856376 0.0397329 -1.10102 -0.0136321 0.12499 -1.27487 -0.231497 0.532771 0.179889 0.420632
海鮮 0.437375 -0.609721 0.743603 -0.293237 -0.60809 -0.809723 -0.0249837 -0.57858 0.308179 -0.372862 -0.0992688 -0.594653 -0.433759 -0.718865 -0.442837 -1.22563 0.400798 0.00313416 -1.05091 -0.374843 0.157319 -0.43798 0.395574 -0.469859 -0.392353 0.113677 0.133869 -1.56088 -0.167349 0.619744 1.12384 0.550691 -0.791132 -0.994608 -0.0391572 0.158769 -0.784522 -1.216 0.300946 0.769716 -0.519715 -0.373007 -1.07735 -0.617789 0.912421 -0.610557 -0.0813799 -0.645413 -0.133854 -0.0315557 0.26652 -0.0784998 -0.779984 -0.780693 -0.641791 -0.835028 -0.0374576 -0.664172 0.180913 -0.234565 -0.993781 0.0962839 0.112667 1.15117 -0.830159 0.394345 0.193658 -0.219434 -0.918695 0.230723 -0.656812 -0.30758 -0.598223 0.0894064 -0.580455 0.289633 -0.579799 -0.349179 -0.680007 -0.878701 -1.5361 -0.589866 0.263053 -0.844852 -0.21245 -0.261682 0.00783805 -1.01631 0.467708 -0.229115 -0.588821 -0.561404 -0.652414 -0.657679 -0.607335 0.20581 0.109594 0.224278 -1.21611 -0.593683 0.408198 -0.0430084 0.141959 0.112637 0.170626 -0.138314 -0.00566336 -0.518422 -0.135857 -0.689158 -0.151346 -0.0632631 -0.948905 -0.582259 -0.10696 -0.0174139 -0.223455 -1.46239 -0.644117 -0.464904 -0.871513 0.225345 0.15215 -0.832211 -0.910291 -0.291331 -0.0400432 -0.424193
魯 -0.571663 0.0416721 -0.503416 -0.330672 -0.733562 -0.25105 -0.668696 0.122805 -0.0622452 -1.15404 -0.774452 -0.156089 -0.396433 -1.26514 0.413971 -1.08445 0.842774 -0.0504051 -1.02322 -1.36516 0.552023 -0.344647 0.28456 0.364826 0.348503 0.47218 0.546331 -0.578966 -0.901044 -0.395318 0.0609095 -0.769843 0.123604 -0.0334883 0.785533 0.266423 -0.455931 -1.06686 0.575793 0.404205 -0.581896 -0.448155 -0.873824 -0.982498 0.16295 0.31625 -0.856162 -0.0786665 -1.03445 -0.736154 0.314997 0.269281 -0.64172 -0.427766 -1.11828 -1.40547 -0.796172 0.337512 -0.2612 -0.151719 -0.0816923 0.00529005 0.488772 -0.207083 -0.5904 -0.575626 0.320433 0.436537 -0.103004 -0.0431404 -0.36501 -0.412387 -0.742296 -0.0878231 -0.977029 -1.16758 0.251697 -0.139614 -0.112208 -0.0321355 -0.309134 0.0375571 0.0705043 -0.012028 -2.05958 0.417853 -0.392731 0.643986 0.329703 -0.662951 -0.998762 -0.739826 -0.423015 -0.799944 0.0429042 -0.270837 -0.603187 -0.553913 -0.774087 -0.724764 -0.440896 -0.00397708 -0.52083 0.0871401 0.240715 -0.23649 -0.871361 0.0337194 -0.891585 0.185702 -0.760519 -0.238064 -0.531422 -0.624805 0.325785 -0.207494 0.468777 -1.04126 -0.824278 -0.6296 -0.724745 -0.480896 -0.0814478 -0.163841 -1.09216 -0.382448 -0.931656 -0.872037
書 -0.109391 0.771168 -0.373768 -0.32075 0.299844 0.65133 -0.593614 -0.589172 -0.169351 -0.423876 -0.11405 -0.101643 -0.769971 -0.00413246 -0.0540318 -0.0156704 0.570189 -0.472269 0.477543 -1.08199 0.405855 -0.302508 -0.344721 -0.158471 0.267389 0.495586 0.947085 -0.346899 -0.13577 0.017786 0.00798336 -0.436948 -1.16627 0.0884813 0.16187 0.500701 -0.240079 -0.597075 -0.302774 -0.619686 -0.770357 -0.707096 0.0851512 0.0457223 -1.33201 -0.504436 -0.208241 -0.104445 0.930363 -0.0314697 0.313525 -0.110182 0.125172 0.307766 -0.453291 -0.778829 -0.417584 0.915112 -0.843264 -0.337056 -0.345511 -0.256148 -0.265003 -0.299759 -0.22976 -1.0459 0.296005 -0.325949 -0.285292 0.500721 -1.06967 -0.197061 -1.48981 0.163365 -0.706999 -0.271765 0.171858 -0.0375416 -0.431395 -0.653412 0.256094 -0.26517 0.485724 0.278404 -1.09947 -1.48774 -0.44937 -0.535004 -0.210555 -0.782074 0.0442436 -1.28545 -0.404987 -0.509271 -0.49992 -0.294044 -0.971706 -0.426122 -0.3294 -1.28408 0.817263 0.364225 -0.463307 0.847776 -0.016705 -0.690022 -0.0843289 0.441237 -1.14717 -1.33549 0.4726 -0.748214 0.326774 -0.296278 -1.05936 0.111577 -0.961697 -1.43286 -0.101607 -0.60444 -0.939826 -0.532555 0.312965 -0.428561 0.0274661 -0.160648 0.311226 0.112925
服務生 -0.698507 -1.26012 0.153442 -0.153255 -0.0973342 -0.653735 -0.543478 -1.00772 -0.309309 -0.561255 0.260197 -0.212688 0.305856 -0.555642 -0.578315 -0.699861 0.681219 -0.271625 0.924223 -0.343847 1.02614 -0.497214 -0.427143 0.107666 1.26382 0.992045 0.317613 0.211271 -0.703711 0.519052 0.141171 -0.350977 -0.435482 0.392983 -0.191119 0.0572353 -0.542945 -0.643163 -0.107253 -0.0393024 -0.113513 0.0558709 -0.998244 -1.28323 0.1888 -0.312327 0.122153 -1.0991 -0.929377 -0.629465 -0.0641131 -0.87035 -0.671752 -0.0641228 0.342577 -1.06605 -0.185054 -0.0294443 -0.212373 -0.494984 -0.799522 -0.156057 0.175821 -0.0571214 0.119517 -0.158367 0.259716 0.320348 -0.224825 0.454601 -1.19795 -0.0401275 -0.547055 -0.351947 -1.31044 0.198571 -0.685053 0.396473 -0.482752 0.0423033 -0.909155 0.710614 0.291207 -0.388764 -0.387083 0.14955 -0.529075 -0.605152 -0.270812 0.189702 -0.308751 0.473583 -0.15591 -0.560296 -0.719478 -0.19448 -0.367431 0.226921 -1.24773 -0.221591 0.0275952 -0.635929 0.53105 0.25683 -0.064142 -0.390405 -0.624198 -0.472989 -0.87231 0.084872 0.697199 -0.639092 -0.0602637 -0.460319 -0.535387 0.130439 -0.677689 -1.09595 -0.990858 -0.47699 -0.493256 -1.0857 -1.29734 -0.911583 0.0545699 -0.169884 -0.430691 1.238
香港 -0.399318 0.565219 -0.216175 -0.81601 -0.691164 -0.050758 -0.224896 -0.678708 0.309987 -0.995185 0.101417 -0.701782 -0.541047 -0.118678 -0.11714 0.157233 0.515467 -0.397348 -0.227946 -1.07676 0.445908 -0.476936 -0.349423 0.152221 -0.0645276 -0.355924 0.284142 -0.645737 0.452836 -0.166967 0.00787934 -0.245965 -0.473805 -0.729198 -0.108107 0.377077 -0.515567 -0.578481 -0.323745 -0.110704 -0.0951448 -0.0874789 -0.734255 0.0307603 -0.302807 -0.509676 -0.766708 -0.392487 0.00463395 -0.832946 -0.334339 -0.039496 0.421147 0.128655 -1.33636 -1.24736 -0.349896 -0.442112 -0.455026 0.285951 0.487138 0.76016 -0.112849 0.75216 -0.506512 -1.1869 -0.0739264 0.0737547 -0.621666 -0.814404 -1.10993 -0.316831 -0.588292 -0.934653 -1.08367 0.462148 -0.435878 -0.0875877 0.0993006 -0.825375 0.263604 0.0219105 0.24853 -0.31236 -0.787095 0.0252279 -0.10774 -0.595792 0.587195 -0.756599 0.262617 0.013403 -0.418501 0.289969 0.307411 -0.320089 -0.625202 -0.415466 -0.5054 -0.224996 -0.16485 -0.10302 0.00778185 0.0311399 0.28912 -0.566607 0.039248 0.638652 -0.603153 -0.016972 0.114605 0.0204303 0.102137 -0.587389 0.10755 -1.06269 -0.581741 -1.07625 -0.333725 -0.419714 -0.352963 -0.543186 -0.202821 0.6849 -1.15811 -0.20863 -0.182024 0.145271
