人 0.0843112 0.0332984 -0.118542 -0.0414779 -0.0710125 -0.0735239 0.0234007 -0.0379597 -0.000740079 0.0394739 0.0367831 0.104523 0.00765478 0.043814 -0.0375331 0.0326955 -0.00583825 0.0190802 -0.163106 -0.0270481 -0.031989 0.00257063 -0.0293327 0.0159371 0.0359188 -0.0314923 -0.025576 -0.0488153 -0.0243229 -0.105648 0.11355 0.0520644 -0.0419713 -0.0292956 -0.063268 0.0650302 -0.136201 -0.0389969 -0.0152568 -0.0218489 -0.0252753 0.118093 0.111697 0.0333247 -0.057673 0.0554265 0.00175143 0.0684501 -0.0443922 0.0409072 -0.0616326 0.00167718 0.0662145 -0.029356 -0.0954474 0.0617414 -0.0198805 -0.0225945 -0.0125253 0.0348792 0.0419127 -0.0923158 0.0235679 -0.116344 -0.0134168 -0.0351537 -0.00213372 0.0417595 0.0942255 0.0479159 -0.0300782 -0.100332 -0.0708301 -0.00812728 0.0207574 0.00656728 -0.0181278 -0.0117005 0.173868 -0.0681938 -0.0128899 0.0296384 -0.0296297 -0.00901356 0.0311618 0.00283018 0.0525735 0.0252072 -0.129314 0.0725138 -0.0281497 0.0931199 0.0210034 0.0431143 0.033768 0.00560063 -0.00361467 0.0703965 0.0648218 -0.0664403 -0.0155708 -0.0583999 -0.0962611 0.0327241 -0.055076 -0.0572784 -0.182875 0.110636 -0.025439 -0.0258327 -0.0721644 0.0492435 -0.0886525 0.0369311 -0.0643403 0.126483 -0.0589219 0.00448889 -0.125582 0.0991926 -0.0222215 0.00870159 0.0418507 0.130104 0.00656519 -0.172794 0.0905444 -0.0145987 0.0564512 -0.0347509 0.0704181 -0.0039316 0.013885 0.143661 -0.0242544 -0.0180637 -0.224968 0.140403 0.0360467 0.0449921 0.0654109 0.15973 -0.0611579 0.0777509 -0.0574504 -0.144974 -0.0187714 -0.0808831 0.0480021 0.0503794 -0.069511 -0.140407 0.0151099 0.024179 -0.0241358 -0.0787314 -0.127948 -0.0229178 -0.0440359 -0.0261789 0.0220182 -0.154548 -0.0750534 -0.0564198 -0.0381386 0.00284682 -0.0173999 -0.0403694 0.00954335 0.155211 0.0981643 0.0136707 0.142573 0.0277048 -0.0174733 -0.0571825 -0.0263274 -0.00815331 0.0152966 -0.152515 0.127972 0.105828 -0.117413 0.0343436 -0.0813072 0.0372548 -0.114157 0.0555222 0.0378103 0.0964646 0.0115196 -0.0629414 0.00882184 -0.0114938 -0.00401358 -0.0925742 -0.0382794 0.0477635 -0.037881 -0.0221906
說 0.107457 0.0648595 -0.0356082 -0.0558342 0.0780457 -0.000668852 0.0724708 -0.0336508 0.0640545 0.118522 0.07358 0.0640521 -0.00404904 0.0387887 0.0137501 0.0566902 -0.0200914 -0.101248 -0.0734387 -0.0471407 0.185256 -0.0711079 -0.0175447 -0.0300412 0.0912103 -0.0822086 -0.0131969 -0.0287856 -0.022065 0.0136367 0.0174985 0.0801132 -0.0826663 -0.0378707 -0.156255 0.142138 -0.0196651 -0.0431059 0.0659934 -0.0782338 -0.062825 -0.00592 0.0491012 -0.0629754 -0.0973632 -0.0782627 0.0301822 0.0507724 -0.0718053 -0.0335311 0.0812566 0.0242514 0.0381188 -0.0329781 -0.126762 0.0517546 -0.0707335 -0.0425027 0.105662 0.0753989 -0.0379723 -0.0392466 -0.0826936 0.0284373 -0.0144338 0.0236877 0.0582654 0.0629656 -0.0176577 0.193684 0.0961169 -0.0452174 0.0247718 0.00609431 -0.0222916 0.0622756 0.00520015 -0.00865199 -0.0415239 -0.0831554 0.0759552 0.224105 -0.00193637 0.0859707 -0.0152013 0.00595117 0.00601098 -0.00121815 -0.118342 0.0733793 -0.014374 -0.0299836 -0.0705188 0.068668 -0.0106028 0.0719763 0.00712298 0.0241819 0.0203896 -0.154175 -0.0969334 -0.119006 -0.0493552 -0.0349373 0.0292838 -0.00746512 -0.110867 0.10845 0.0794004 -0.0432336 -0.096221 0.0372876 -0.0365613 -0.0092597 -0.0152198 0.127093 -0.0323518 0.112349 0.0335308 -0.0627344 0.0953986 -0.0987815 0.0270578 0.134408 0.0484184 -0.0852528 0.0116949 -0.0254371 -0.0346126 -0.0658971 0.0553127 -0.0219999 0.068611 0.131206 0.0271699 0.0743261 -0.125344 0.0172918 0.0363498 0.0729093 -0.0189429 0.116781 -0.0383238 -0.0212444 -0.0839807 -0.0237879 0.0419074 -0.0704458 0.0159003 -0.0791195 -0.101388 -0.0380917 0.0144792 -0.124583 0.0330537 -0.0161674 -0.148661 -0.0285485 -0.0922584 -0.0550789 0.0368208 -0.0888696 -0.0387704 -0.0412111 -0.0164516 -0.079703 0.0339033 -0.122854 -0.0242814 0.136751 -0.0194124 -0.0429498 0.0207516 -0.0237276 0.0180842 -0.0418748 -0.0695275 0.0731073 0.105698 -0.012573 0.0645861 -0.0198691 -0.12369 0.00345617 0.0113638 -0.0574431 -0.159204 -0.0280993 0.0140534 0.0296307 -0.0990888 0.0218782 0.113447 -0.0714055 0.055607 0.0530884 -0.101352 -0.0221466 -0.0302734 -0.00463339
看 0.101297 0.0558149 -0.0532662 -0.0679752 0.0501986 -0.0252679 0.0946141 0.0770536 0.0726368 -0.0919925 0.0992611 -0.0649672 -0.0223182 0.0130415 -0.0350338 0.0354844 0.00476227 -0.017936 -0.0619383 -0.00984656 0.0739731 -0.0750841 -0.0282008 -0.0132621 0.0555552 -0.083023 -0.0271196 0.0103273 -0.036745 -0.0579463 0.0374115 0.139052 -0.090091 0.0471862 -0.173684 0.0351311 -0.141534 -0.027462 -0.000460744 -0.0148361 -0.00646311 -0.0206602 0.154161 0.0897369 -0.154536 -0.106903 0.0529329 0.00243124 0.016108 -0.00514866 0.0869166 -0.0820741 0.00908561 -0.0161072 -0.0904095 0.0826942 0.0955853 -0.105028 -0.0976067 -0.00793274 -0.0562062 -0.132205 -0.0262665 0.0212912 -0.0950702 0.0349842 -0.0161682 -0.055124 0.0580206 0.126506 -0.0120966 0.000473414 0.00435093 -0.0174539 -0.07117 -0.036557 0.0534669 -0.0292005 0.0854878 -0.175988 -0.0760674 0.0442967 0.00687054 0.139324 0.00957092 0.00703126 -0.00256542 -0.0235631 0.0071486 0.0386065 0.0600592 0.0443847 -0.126764 -0.0026324 0.0256409 0.0176402 0.0969156 0.0721942 0.0418899 -0.154551 -0.030788 -0.0921324 -0.0840184 -0.0783341 -0.00845167 -0.0235178 -0.17686 0.0587479 -0.0431516 -0.00850841 0.00522066 0.0265932 0.0430767 0.0376589 -0.0761713 -0.0361262 -0.0118497 0.00145853 0.0772459 0.00857304 0.0268459 0.153641 0.0843181 0.124501 0.115858 -0.0364756 0.0245248 -0.0662328 -0.102707 -0.0368898 -0.00149347 0.0647976 0.0637169 0.0345934 -0.0144925 0.0729538 -0.0877941 0.0217568 0.0337806 0.113347 0.106228 0.167921 0.0225379 -0.0472713 -0.042748 -0.0765812 0.0230642 0.0660405 0.0924302 0.0349761 0.140737 -0.0395316 0.0188625 -0.104874 0.0799251 0.039164 -0.151085 -0.0138111 -0.0615055 0.0797832 0.106742 -0.120105 -0.0321426 -0.0146524 0.0229455 -0.0235924 0.0309189 -0.113405 0.0602532 0.00730687 -0.0323612 -0.0262998 0.0669907 -0.0339663 -0.0532075 0.0989702 0.00137511 -0.00860958 0.0180895 0.0415447 0.0760952 0.0624436 -0.0833154 -0.0116286 0.0347825 -0.0690306 -0.142025 -0.0486725 -0.0823702 0.0260735 -0.134789 0.0218362 0.0589066 -0.0780157 0.0597758 0.0057094 -0.0188745 -0.0310319 -0.0609834 -0.00770563
推 0.0628277 0.122864 -0.0774955 -0.165408 -0.00183558 -0.0478071 0.0028821 0.0146187 0.0163552 0.077023 0.166993 0.109613 0.044891 -0.00531589 0.00839788 0.00402462 0.011446 0.0183895 -0.0704431 -0.12834 0.0378704 -0.0627382 -0.000383572 -0.0198647 0.0449006 -0.111332 -0.0521239 -0.0260164 0.0539747 -0.0366041 0.0861122 -0.0024878 0.0179571 0.0699136 -0.107562 0.0375758 -0.054866 -0.115366 -0.103055 -0.128649 0.0199027 0.152515 0.0741243 0.110671 -0.108599 -0.0332161 -0.0292279 -0.00199022 -0.000542 0.0095816 -0.0537012 -0.0508931 -0.0268585 -0.000461705 -0.0473965 0.125247 0.0337847 -0.0366641 -0.00893316 0.0136001 0.00125636 -0.175565 0.0365096 0.0013913 -0.00542611 -0.0200722 -0.0282002 -0.0169398 -0.0508218 0.0115248 -0.0167142 -0.0704138 0.00347702 -0.0457746 0.0397186 0.0307483 -0.0427101 0.0337616 -0.0043748 -0.0285354 -0.0468156 0.190643 0.0680624 0.148228 0.0618517 0.0357173 0.16852 0.0264882 -0.0100908 0.0644266 -0.0446136 0.174537 0.063948 -0.0666306 0.00137007 -0.0475372 0.0749459 0.107828 -0.0225881 -0.064559 -0.13784 -0.146299 -0.0159923 -0.0557426 0.117057 -0.0386845 -0.0399387 0.0540951 0.00313232 0.0116975 -0.111395 0.00234175 -0.122438 -0.0292136 -0.025036 0.0343595 0.067745 0.0221918 -0.050914 0.0201817 0.0440659 -0.0786167 0.159891 0.0161906 0.0897626 -0.0622054 -0.044989 -0.10242 -0.0992301 -0.0233667 0.011727 0.0280022 -0.0266655 -0.000737056 0.0473656 0.0227546 0.0140569 -0.0200566 0.0105467 -0.0133026 0.0252663 0.0653583 -0.0212708 -0.0524819 0.00272767 -0.104555 -0.0642363 0.00492939 0.0164107 -0.0080323 0.0114854 -0.0769717 0.00360576 -0.122872 0.0109252 -0.0656916 -0.232572 -0.0387262 0.0807084 -0.0169526 -0.0928297 -0.0373853 0.0508699 -0.0109934 -0.040133 0.0140726 0.127592 -0.155188 0.0874364 0.00114944 -0.0182686 -0.0054174 0.103036 -0.0479099 0.13455 -0.0363366 -0.0285167 0.0936821 0.0469739 0.0160994 0.0999236 -0.0227295 -0.0789532 -0.067647 0.0170616 -0.0141433 -0.109176 -0.0170703 -0.0315475 -0.0366345 -0.0896289 -0.0933975 0.0719079 -0.102115 -0.0466389 -0.0218513 0.0102495 -0.096231 0.00666308 0.0404361
上 0.0558599 0.0511159 -0.0025762 0.0289642 -0.0470934 -0.00459696 0.0445491 0.0403643 0.0343222 -0.0177582 0.0431974 0.050657 -0.089894 0.0120972 0.0197201 0.027447 0.0526998 -0.000986603 -0.0125689 -0.0577169 0.087617 -0.11434 -0.0559038 -0.0641943 0.106625 -0.0357453 -0.0166749 -0.0891633 -0.007 -0.0528076 -0.0181118 0.0386261 -0.0035191 0.0350708 -0.209774 -0.0183653 -0.022115 0.047413 0.0585434 -0.0787022 -0.0494113 0.105984 0.098898 0.102052 -0.0336552 -0.0775397 0.0934618 0.0310888 0.00493069 -0.0813533 0.112918 0.0512902 -0.0127949 0.0866312 -0.144697 0.0580491 0.069821 0.0207673 0.0281293 0.0254895 -0.136265 0.0228046 -0.121647 -0.0741846 -0.0654384 -0.015687 0.0534457 -0.0558306 -0.0341607 0.0186479 0.0179068 -0.130955 0.049443 -0.0400965 0.0349822 -0.151515 0.0678088 0.0641276 0.00607205 -0.14787 0.0517387 0.0401237 0.0695062 -0.0138489 -0.0211001 -0.0127409 0.0460752 0.0615175 -0.0379456 0.0462728 -0.0192445 -0.0193377 -0.0679492 0.0156081 -0.0530734 0.0591826 0.0743517 0.13578 0.0860753 -0.0794039 -0.0293197 -0.0219071 0.0108406 0.0031266 0.0679118 -0.0128183 -0.162456 0.0970051 0.11891 -0.0411987 -0.151902 -0.00992244 -0.0627748 0.00628255 0.0370466 0.106982 -0.0200257 -0.103885 0.0161943 -0.0594423 -0.0799197 -0.127525 0.0606638 0.0881649 0.0339047 -0.202157 -0.055181 0.043141 -0.00253792 -0.0272384 -0.0641106 0.0269353 -0.0606582 0.122823 -0.0159007 0.125545 -0.0627736 0.0727957 -0.0189142 -0.0344577 0.0860756 0.110364 -0.047391 0.0597004 -0.00175514 -0.11712 -0.11072 0.0297307 0.0152884 0.0423202 -0.0536433 -0.0695769 0.0204419 0.105817 -0.0013426 -0.0699321 -0.0880019 0.0499349 -0.0370789 0.0490749 -0.0240628 -0.156817 0.0327434 0.0917901 0.0391196 -0.0189864 0.0210739 -0.135426 0.0481569 0.0489778 0.0472542 -0.00343958 0.0179004 -0.013081 -0.114887 0.0816832 -0.117252 0.0417811 -0.0222906 -0.0574412 -0.0677454 0.0416705 -0.149808 0.0970868 8.66583e-06 -0.0608422 -0.0831872 -0.014437 0.0683754 -0.00190548 -0.0738887 -0.105211 -0.0667917 -0.099177 0.0392352 -0.0258307 0.0130545 -0.0518259 -0.1239 -0.0434608
大 0.0376216 0.0463767 -0.0429821 -0.0369118 0.00915509 -0.0457239 0.0386482 -0.0682802 -0.0408484 0.0178142 0.214975 0.0584871 -0.105155 0.0105856 -0.0675192 0.000170621 0.0879102 0.144654 0.00202487 0.0163125 0.138742 -0.176635 -0.0347357 0.0492565 0.00386216 -0.0267045 -0.016066 -0.146523 0.0330755 0.015807 0.00739077 0.0488763 -0.0394636 -0.0128289 -0.0570829 0.0120497 0.0746105 -0.0849833 0.0303302 -0.0684659 0.00866786 -0.0435328 0.0142385 0.0939267 -0.00915675 -0.0993507 0.0115176 -0.00673054 -0.088895 -0.0621948 0.0582854 0.0319721 0.0640122 -0.0739653 0.0298283 0.0676906 -0.0366527 -0.0286483 -0.0346102 -0.00207953 0.11634 -0.117523 0.0326085 0.0259752 0.0669301 -0.0254056 0.0720767 -0.0421895 0.0382654 -0.00658327 0.0362771 -0.0586484 -0.0340422 -0.0770252 0.0111028 0.0373815 0.0385478 0.0132281 0.105889 -0.0427109 -0.0165651 0.122968 0.112642 -0.00868682 0.0133569 0.0358189 -0.036655 0.104033 -0.0787326 -0.0162953 0.0489674 0.1174 -0.0342414 0.0476298 0.0388651 0.0181653 0.0385462 0.0226957 -0.00290282 -0.166618 -0.011628 -0.0843028 0.013843 0.133137 -0.0395439 -0.0193917 -0.0258625 0.0414706 -0.0334605 -0.0331688 -0.0323594 -0.025297 -0.162362 -0.120428 0.0249454 0.000307632 0.0501283 0.0441536 0.0332384 0.0748079 0.0791469 -0.0309495 0.0572474 -0.0777035 0.0230326 -0.0291283 -0.123556 0.126748 -0.0666462 0.0332478 -0.114834 0.0768967 0.0928594 0.101351 -0.0365707 0.0585815 -0.127614 0.126166 -0.0122334 0.0305909 0.0438518 0.185755 -0.0802108 0.0391963 -0.14886 -0.169026 -0.0974971 0.0450603 -0.0555921 -0.0576171 0.0137944 0.0130006 0.0674095 0.0419133 -0.0596026 -0.0555857 -0.0851894 0.0631367 0.0746465 0.103641 0.0416457 -0.0540793 0.00990683 -0.0127765 0.0144023 0.0450948 0.0352456 -0.125987 -0.0511447 0.16139 0.0627711 -0.0478756 0.0148763 0.142824 0.00409961 0.0613029 0.0924907 -0.0673307 0.0284124 0.0468471 0.13109 0.0478189 -0.0411572 0.0250678 -0.00171094 0.0128062 -0.0791249 0.0846139 -0.0609443 0.09183 -0.0863423 -0.032223 0.0629844 -0.0609437 -0.0181939 -0.0527988 -0.124467 -0.072622 -0.0219636 0.01606
一 0.0190696 0.057717 -0.0410935 -0.0904421 0.0309065 -0.0592239 0.0944201 0.0569678 0.105661 -0.0560225 0.0891767 0.0511759 -0.0813087 0.0529179 0.0554779 -0.0125559 0.0109138 -0.0260644 -0.020981 -0.116997 0.0982258 -0.0749231 -0.0201203 -0.0711797 0.0657273 -0.0267694 -0.0300464 -0.0525795 -0.013548 -0.00888657 0.00199378 0.0160743 -0.178086 0.0311942 -0.0411724 0.0603536 -0.00194625 -0.00608347 0.106126 0.0239916 0.0187725 0.0157785 -0.00584239 0.0129972 0.0501299 -0.186785 -0.00386954 0.058176 0.0168955 -0.0443707 0.0462213 -0.0335729 0.0728162 -0.0785938 -0.146852 0.106583 0.0738048 -0.0865754 0.00629276 -0.00580876 0.0526391 0.00305253 -0.0363576 -0.0886912 0.0522922 -0.0827315 0.0151343 0.0354955 0.0137207 -0.00952706 -0.0409395 0.108349 -0.0863603 -0.081719 -0.0417021 -0.163485 0.155223 0.0527504 0.0450004 -0.0204491 0.0556756 0.0770608 0.000919211 0.0310226 0.0464026 0.224925 0.155678 0.0497923 -0.126954 -0.016481 0.0623905 0.0336162 -0.0537273 0.0820006 0.015286 -0.0282618 0.0268586 0.0496325 -0.0106044 -0.169792 -0.0621081 -0.118596 -0.0431074 -0.0316549 -0.0117208 -0.0447321 -0.0779923 0.0158196 0.0568056 -0.0977247 -0.0661608 -0.0259269 0.0980825 0.056191 0.0613 0.100185 -0.080527 -0.0736846 -0.0157747 0.149412 0.0232069 -0.0241095 -0.0181748 0.107593 0.0110131 0.00174449 0.0392769 -0.0232479 -0.0326854 -0.0110816 0.0500675 0.101501 0.0691661 0.058072 -0.0612345 -0.0233774 -0.0762218 0.040435 0.0990272 0.0689909 -0.051756 0.0989833 0.0631292 -0.0134612 0.0930225 -0.0980504 -0.0537308 0.0138027 -0.0277744 -0.131769 -0.123508 -0.139306 0.0205107 -0.00898035 -0.0415257 -0.0264508 -0.0205647 0.0389641 0.00982887 -0.035311 -0.089315 -0.0036037 -0.0371713 -0.0259158 0.118981 -0.0592737 -0.0688362 -0.0855254 -0.000417299 0.143787 0.0877669 -0.0313164 0.0682605 0.0861887 -0.0692059 0.0378937 -0.055339 -0.015466 0.193337 -0.0575343 0.0474031 -0.0110083 -0.0533372 -0.0120973 0.0211633 0.0741065 -0.012069 0.114703 -0.0126191 -0.0457718 -0.0127862 0.0676588 0.140767 -0.0333903 -0.00711245 -0.038226 -0.0910729 -0.0721668 -0.0520175 0.0123857
台灣 0.0683551 0.0497606 -0.07996 -0.0557191 0.0622704 0.069011 0.0204886 0.0749138 0.00464412 0.0808375 0.175935 0.131352 -0.0217905 0.0602315 -0.0681268 0.0584452 0.00449434 0.108947 0.0232422 -0.0572578 0.089546 -0.0713522 0.0806977 -0.125986 0.0217709 -0.093744 -0.102965 -0.0674435 -0.000124194 -0.0104693 0.0502437 0.0910968 -0.0255858 0.0524942 -0.11625 -0.00548886 -0.041362 -0.110527 0.0845245 -0.101071 -0.120879 -0.000762136 0.0168103 0.0529318 -0.0897649 0.169251 -0.0146844 0.116118 -0.0218973 0.0178325 0.126131 0.0392318 0.132352 -0.0503523 -0.0535131 0.0100033 0.0802599 -0.0516642 0.0302269 0.0269878 0.00938019 -0.151462 -0.0686684 -0.0986938 -0.0231512 -0.0236177 0.0322474 0.0766003 -0.0390436 0.00664631 0.0425514 -0.0598067 -0.0260491 0.0145071 -0.0161731 0.0976472 -0.06096 0.130365 0.161749 -0.131962 -0.060125 0.146436 -0.066774 0.10687 0.0181075 0.0691879 0.0656462 0.0021982 -0.109918 0.0395966 0.0251965 -0.021691 -0.0255417 0.0872378 -0.0590082 0.0551046 0.0662882 -0.0677447 0.00664763 -0.0850884 -0.0377434 0.00634373 -0.105731 0.0253638 0.0323439 -0.00604165 -0.0241702 0.00278247 0.0841558 -0.0508736 -0.150301 -0.147474 0.083463 0.0740207 -0.00305057 0.107967 -0.0519814 -0.00385931 -0.00762495 0.0667943 0.011396 -0.042289 -0.0392188 -0.00651848 -0.0534149 -0.032537 0.05746 -0.0832219 0.0476573 -0.0946709 -0.0839777 0.0147438 0.0314505 0.0815834 0.0703877 -0.0582059 -0.0576447 0.066272 -0.0362738 -0.0218446 0.051605 0.0758742 0.0466559 0.0241232 -0.102093 0.00987828 -0.029559 -0.0410186 -0.111431 -0.156349 -0.0283148 -0.00520472 -0.019401 0.0509707 0.0727926 -0.128861 -0.0450928 0.0550502 -0.0285304 -0.0041957 -0.0129162 -0.178194 -0.0365987 0.0437021 0.0177721 -0.0348487 0.0230223 -0.0831706 -0.0346788 0.067454 0.00469441 -0.0790198 0.0287586 -0.103654 -0.0256691 -0.0728719 0.049415 -0.0291972 0.067012 -0.00104194 0.0243861 0.1182 -0.029578 0.0112884 0.081318 0.157789 0.0438524 -0.00342124 -0.0155366 0.0338187 -0.0687908 -0.0517879 0.0245098 -0.0326263 0.0458253 -0.0465242 -0.124396 -0.0818825 -0.0249419 0.0236129
小 0.0454062 0.00263836 -0.0186974 -0.108178 0.0451925 0.0850454 0.0166482 -0.0298712 0.0396428 0.0230472 0.18273 -0.0321644 -0.0504252 -0.00480538 -0.0240394 0.022073 0.113014 0.0936081 -0.059324 -0.10316 0.109547 -0.153272 -0.0604565 0.0231173 0.0388029 -0.0801258 -0.021514 -0.0154707 -0.0519361 0.00745725 0.104737 0.0701937 0.00636504 0.0140971 0.00832743 0.0853654 0.0516869 0.048364 -0.0109205 -0.00447947 0.0769205 0.0990262 0.0831338 -0.0451374 -0.040351 -0.0450494 0.00923824 0.0161713 -0.091858 -0.00170185 0.0536231 -0.0150074 -0.0306638 -0.0142286 0.0314641 0.172653 0.0619783 -0.0269535 0.00223397 -0.0466814 0.135449 -0.0431657 0.0198177 -0.0155309 -0.0513622 -0.0693674 0.126133 0.0782667 -0.0659985 -0.0335716 0.117475 -0.00758874 0.0244349 -0.0543272 -0.080309 -0.0023693 0.0385303 -0.0791972 -0.00159139 -0.107997 0.0199347 0.128683 -0.0808892 0.0727877 -0.00788058 0.0610189 -0.0310062 0.0304995 0.0358431 0.102737 0.103491 0.0549525 -0.0560544 0.133821 0.0520603 -0.0858992 0.139737 0.0328034 0.0215776 -0.076062 -0.0283377 -0.11083 0.0402347 0.0289448 -0.0273008 -0.044292 -0.05395 0.0506948 -0.0403726 -0.05547 -0.0468394 -0.0660837 -0.00418197 -0.137868 0.0366635 -0.0279336 -0.0276345 -0.0371216 -0.0133323 0.066059 0.0405395 0.0459961 -0.10442 -0.0079816 0.0546097 -0.131382 0.0767398 -0.0211193 -0.0804816 -0.0248922 0.0736371 0.0721212 0.00224097 0.00409012 -0.0170034 -0.00684831 -0.0661538 0.084758 -0.0122739 -0.0790955 0.110757 0.200505 -0.0937473 0.0154261 -0.0338165 -0.0689295 -0.102498 0.0445573 -0.0448776 -0.183693 -0.050223 -0.104722 -0.00281051 0.0669342 -0.0153409 -0.1142 -0.132339 -0.001953 0.023461 0.111457 0.177164 -0.0763744 -0.00750864 0.0443785 -0.115946 -0.0202441 -0.0792472 -0.136485 -0.00961321 0.110164 0.0186492 -0.0922593 0.0219659 0.0225891 -0.0319492 0.0176328 0.0340367 -0.077148 0.194427 0.0140918 -0.0329228 -0.0427174 -0.0623444 0.0687173 -0.0335574 -0.0568946 -0.0137553 0.0790439 0.0264504 0.0510822 -0.0660995 -0.000809128 0.0709797 -0.0332917 -0.044728 0.0440425 -0.135 -0.0074145 0.037005 0.000624345
女生 -0.0429035 0.0557468 -0.0867053 -0.0143937 0.0585066 -0.0067271 0.0845392 0.0496495 0.113481 0.0638641 0.118471 0.117019 -0.0502881 0.0642028 -0.0818425 -0.0160457 -0.0126833 0.08752 -0.160874 -0.0151135 0.103964 0.0180573 -0.117499 0.129677 0.100342 -0.117693 0.100741 0.0393865 -0.0581929 -0.0456464 0.0548374 0.0120287 0.0545968 0.110187 -0.130007 -0.036322 -0.0462992 0.0720072 -0.120386 -0.00435682 0.0500821 0.125553 0.0446426 0.0182414 -0.0665187 0.0332472 0.0933461 -0.0184759 -0.104802 0.0251403 -0.0866251 0.0762291 0.0187148 -0.0215461 -0.0382821 0.0454211 -0.065066 -0.00517336 -0.0194563 -0.00777898 -9.89527e-07 -0.0918901 -0.00409453 -0.0629577 -0.0262066 0.0573986 0.13452 -0.0481278 0.0325297 -0.00269131 0.00154916 -0.0156249 0.0987598 -0.0654771 0.086326 -0.0101416 0.02556 -0.0699732 0.0795981 -0.0231924 -0.0766778 0.0249905 0.0285538 -0.0238047 -0.00398513 0.0406678 0.0760138 0.0490206 -0.0441077 0.0486337 0.0224673 0.0588301 -0.0204786 0.0631495 -0.0350813 -0.0316149 0.0622267 0.0958621 0.0673862 -0.16846 0.0352752 -0.100229 -0.108074 -0.0174723 -0.00479234 -0.0463697 -0.143535 0.075426 -0.107212 -0.0378536 0.0552028 -0.0498533 0.0712396 0.011227 -0.141086 0.0662466 -0.0218631 -0.0591624 -0.0399446 -0.028405 0.00365691 -0.0569538 0.07334 0.118347 -0.00835228 -0.0863477 0.0675437 -0.0189689 0.0675259 -0.0825815 -0.0446505 0.000154323 -0.0325463 0.034884 0.0177454 -0.0903806 -0.249128 0.0455294 0.00611376 0.12909 0.0803407 0.11573 -0.115413 0.0545701 0.0106582 -0.014578 -0.0621748 -0.0947971 -0.00950985 0.0618452 -0.0357277 -0.0797383 0.0346586 0.0406082 0.131503 0.00363589 -0.00205581 -0.0120009 0.0231202 -0.0168936 0.0329639 -0.0355144 -0.0509017 -0.0286488 -0.103019 -0.0962285 -0.0432889 -0.0014992 -0.0115399 0.222857 0.102306 -0.00772588 0.0230336 0.0243723 0.0209541 -0.0929117 -0.0206663 -0.098885 0.100356 -0.13329 0.0786921 -0.00274101 -0.117951 0.0125954 -0.0130902 -0.0849358 0.0532234 0.0267607 -0.0532368 0.0800255 0.0214547 0.0361715 -0.0178416 -0.0112299 -0.00146196 -0.0680828 -0.0873558 -0.0283089 -0.0311696 8.88248e-05
八卦 0.0872614 0.0936637 -0.0524674 -0.142933 0.0867176 -0.0447931 0.0228725 -0.015364 0.0377534 -0.0366859 0.0339736 -0.0104911 -0.0222317 0.00998479 0.0481832 -0.0388579 0.0870216 -0.01727 -0.0906954 -0.10157 0.0954048 -0.11869 -0.0242822 0.0306225 -0.0112063 -0.0667328 -0.0556183 0.00637203 0.0138577 0.0127078 0.0624823 0.0321115 -0.0141862 0.082682 -0.0843561 0.0114896 -0.095522 0.0184276 -0.02044 -0.153682 -0.0300866 0.106559 0.0940018 -0.0708013 -0.0503107 -0.0138356 0.100893 0.0386197 -0.0400084 0.0230587 0.0629189 0.022777 0.0829648 -0.0323173 -0.178662 0.0171455 -0.0190093 -0.0986507 0.055042 0.0174295 0.0326855 -0.0677776 -0.0156823 0.000275906 -0.100805 0.0517088 0.0405111 0.201585 -0.17862 0.0821243 -0.0246307 -0.0386168 -0.0478992 0.0861039 0.0207756 0.0198505 -0.0550173 -0.0326918 0.00293057 -0.0969073 -0.0958413 -0.0211563 -0.0212171 0.1045 0.0277616 0.0396209 0.0861028 0.0507651 -0.132129 -0.0678869 0.0437844 0.0655519 -0.0206051 0.110083 0.113938 -0.0755775 -0.0369936 0.0302263 0.0330832 -0.174632 0.0218401 -0.0292862 -0.132715 -0.0170292 0.229137 -0.0295716 -0.0310746 0.0850272 0.0416091 -0.0775333 -0.147638 -0.0674359 0.0811663 -0.0336041 -0.0100346 0.0369735 0.064617 -0.0942183 -0.000985225 0.0730801 -0.00253824 0.0503943 0.0725893 0.0658886 -0.0289319 -0.00838412 -0.0256869 -0.0764429 -0.0148668 0.0832844 -0.0362344 -0.0220806 0.0358576 0.00725125 0.0361819 0.0111442 -0.119481 0.0357877 -0.0130198 -0.0337055 0.026078 0.139519 -0.0066586 -0.0374653 -0.160883 -0.0705353 0.0365756 -0.0294008 -0.155028 -0.0373029 0.0164219 -0.0585538 0.020155 0.011008 0.0393214 -0.033244 0.0508296 -0.0329001 0.0813928 0.0316611 0.0158967 -0.124264 -0.0618152 0.0180352 -0.056496 -0.11758 -0.0138549 -0.066225 0.00684672 0.0392052 -0.00802099 -0.0103819 0.0449544 -0.0285418 -0.00794589 0.00284292 -0.0930237 0.0164434 0.0494649 -0.018304 0.0817683 -0.0553695 -0.103936 -0.0361723 0.013035 -0.100182 -0.072257 0.0575242 -0.0360844 0.0973981 -0.128234 -0.0887394 0.124882 -0.132755 -0.0295678 -0.036622 -0.0977089 -0.0333332 -0.0897903 -0.0031665
下 0.0563514 -0.0290562 -0.0331504 -0.0402353 -0.0589593 0.0277979 0.0261684 -0.00274974 -0.0334667 -0.0234773 0.0678162 0.0921783 -0.124076 -0.00986109 0.0274125 0.00517924 -0.0232815 -0.0382343 -0.0426002 0.00823848 0.132089 -0.0395791 -0.0785721 -0.0899835 0.0672678 -0.117202 0.00470133 -0.136108 0.0418008 -0.0390694 0.0676611 -0.0433595 -0.10338 -0.0576205 -0.145428 -0.00244522 0.0294749 0.150086 0.067708 0.0882563 -0.042523 -0.00712654 0.163893 0.0444077 0.00621286 -0.0144184 0.00652973 -0.00949839 -0.15509 0.00131054 0.0772791 -0.183752 0.0696655 0.0155049 0.102887 0.052547 -0.0320338 -0.0196555 -0.0301922 -0.0241998 -0.0466983 0.00548107 -0.0923151 0.02877 -0.00158658 -0.0126345 0.0933543 0.00277836 -0.0496085 0.0444402 -0.0303398 0.0249648 -0.00806359 0.026932 0.0462092 0.0332957 0.028588 -0.12063 0.0725306 -0.0966872 -0.0194969 0.109105 0.0623908 0.0894885 -0.0434625 0.0213674 0.102068 -0.0425412 -0.0103005 -0.0160155 -0.0468643 0.0810724 0.117365 0.141119 -0.0253904 -0.0383172 0.0390761 0.0601699 0.0493682 -0.0303644 0.0282509 -0.0649557 0.0562626 -0.0582641 0.0413565 0.0268233 -0.14697 0.0149398 0.0407984 -0.121554 -0.0863137 -0.132307 -0.0555536 0.14108 0.00159141 -0.000362428 0.0938507 0.0047595 -0.00236809 0.0269628 -0.0175276 -0.0932408 0.0526349 0.121326 0.0228907 -0.096034 0.0412347 0.0181259 -0.113769 0.000650272 -0.00275908 -0.0442014 0.086229 0.0402084 0.0565499 0.0726449 -0.0588016 0.0275043 0.11439 -0.0347276 0.0880945 0.102394 -0.137596 0.000211916 0.00422921 -0.0582386 -0.193573 0.16838 -0.0485624 -0.0266812 -0.00440399 -0.107857 0.0439336 0.0687214 0.0177915 -0.00190805 -0.0347955 0.0372616 -0.0134096 0.0757698 -0.118828 -0.0375962 -0.135648 6.8257e-05 0.0497605 -0.186643 0.00828995 0.0179361 0.0848448 0.02428 -0.00920706 0.122507 0.037391 0.0469893 -0.0196732 0.00533921 -0.0459562 -0.0146255 -0.00489846 0.00571769 0.0617454 0.0783455 -0.108563 0.104511 0.0907649 0.0695137 -0.0664555 0.0241935 0.0194685 -0.0954697 -0.016999 -0.0456535 0.0584723 -0.114033 0.0327321 0.0345979 -0.0738049 -0.0586961 -0.0249851 0.0803383
餐廳 -0.0342787 0.0957474 0.00386497 -0.0592199 0.110867 -0.0193001 0.0557278 -0.00749707 0.0677236 -0.0121039 0.0757086 0.173774 -0.10645 -0.0866064 0.014675 -0.0312335 -0.0775086 0.0553849 -0.0458598 0.0205605 -0.0636985 -0.0392321 -0.0829998 0.0193875 -0.186307 -0.230289 -0.00552933 0.0108209 0.0934243 -0.0884078 0.0986109 -0.0416506 0.0714146 0.02198 -0.0980984 0.0954065 0.030817 0.0430824 0.104743 -0.00451567 -0.0955058 -0.0154063 0.0161809 0.00591347 -0.0562669 0.0540918 0.0186667 0.134427 -0.10586 -0.0782384 0.0314054 0.0195964 0.00669163 -0.084329 -0.0109254 -0.047482 0.016158 0.0589871 -0.0232803 -0.0433242 0.0530131 -0.123416 0.0929345 -0.140626 0.0107168 -0.0827159 0.0625474 0.0119036 0.0635463 0.00353999 0.0931871 0.0192469 0.0291944 0.0717167 0.0807321 -0.041337 0.0415727 -0.166391 0.0174943 -0.155235 0.103503 -0.0531307 0.0368141 0.0761237 -0.058848 -0.0922413 0.0321838 0.0104288 -0.114341 -0.00478707 0.0446189 -0.0272326 -0.0721148 -0.00192213 0.0104066 0.0137204 0.0622484 0.0313612 0.153845 -0.000625202 0.0623272 0.044338 0.0467982 0.00561608 0.094814 0.0164196 -0.202816 0.102588 0.0441486 -0.144413 -0.0415994 -0.0975025 -0.0424533 -0.00789197 0.0566255 0.145441 0.0203131 0.0318868 0.0463933 0.0215352 0.0837636 -0.0525831 0.0619689 0.0270282 0.0597197 -0.122073 0.00645982 0.0312503 -0.0460688 -0.0862079 -0.0560087 -0.0303852 0.039984 0.0559811 0.0211274 -0.0180723 -0.0809729 -0.108848 0.0565265 0.0813939 -0.0196627 0.169349 0.00489596 0.0401997 0.0183982 -0.0151806 0.0194465 -0.134486 -0.0502092 -0.0285811 -0.00812896 -0.0533537 0.0537667 -0.0312654 0.0571831 -0.0328752 0.0157503 -0.038976 -0.0481612 -0.0649531 0.0747831 0.0535072 -0.0808112 0.0360895 0.0268059 -0.0647695 -0.0940018 0.143292 -0.0113127 0.00949758 -0.000993217 0.0117009 -0.0253985 0.0440617 -0.0254509 -0.0623025 0.039752 -0.0563853 0.0737514 -0.11786 -0.0854833 0.116999 -0.0203378 0.0234826 -0.0412753 0.0521406 -0.039847 -0.064091 -0.0450233 0.042137 -0.100771 -0.0314894 0.0765624 0.0179266 0.0242994 -0.0439164 -0.0910342 -0.0372509 -0.0236859 0.072396
高 0.0114974 0.00204543 -0.0618313 -0.066759 0.0218579 -0.152138 0.012995 -0.0614933 0.0767209 -0.0631129 0.141894 0.0697622 -0.161441 0.10377 0.0444253 0.065457 0.0212476 0.0635971 -0.0417588 0.0200615 0.067502 0.0281429 -0.0197785 0.00858992 0.0382466 0.0637715 0.0440473 -0.110028 0.00312557 0.00633228 0.0730319 -0.0643291 0.0480175 -0.00459486 -0.1622 0.0252392 -0.0143147 -0.0288244 0.0846076 -0.0077438 0.012054 0.0198816 -0.0889659 0.0901935 -0.123031 0.0693326 0.090368 -0.0428548 -0.0824965 -0.0715059 -0.0266228 0.13514 0.131508 0.00569019 0.00139975 0.104506 0.0437302 -0.00277217 0.0323871 0.0374066 0.227899 -0.125845 -0.149336 -0.0785844 -0.0264797 -0.0385554 0.11653 0.0946274 0.0645242 0.00397978 0.0860271 -0.0130356 0.0307053 -0.0475197 -0.0465366 0.0891635 0.0418507 0.0494011 -0.096872 0.0364616 -0.0635806 0.0340185 0.0873985 0.00443769 -0.019868 0.0323596 0.0348126 0.116652 -0.0894625 -0.033224 0.0292866 0.0178319 -0.0467912 0.0432058 0.104694 0.0713926 0.110937 0.0378327 0.00982427 -0.0717316 -0.0354191 0.00385332 0.0160247 0.0326438 0.0172314 -0.0586579 0.0711337 0.101215 0.00240133 -0.0323907 0.065782 -0.0600796 -0.0630283 0.0479833 -0.0302562 0.14406 -0.00420013 0.00176682 -0.0510556 0.0385456 0.0260126 -0.00733865 0.0629639 0.0899547 -0.0576044 -0.136953 -0.0368733 -0.0229663 -0.00633182 0.00623705 -0.0320584 0.0113835 0.140249 0.0765973 -0.0151948 -0.0380889 0.00862693 -0.0379448 -0.0626768 -0.107746 0.0326846 0.194465 -0.00492244 0.0257986 -0.0595137 -0.0815545 -0.0669363 -0.00597639 0.0139428 -0.0685213 -0.103765 -0.0438247 0.0767224 -0.00905956 0.181582 -0.0187049 -0.107714 0.0782872 0.0664777 0.112084 0.0552053 -0.0192488 -0.137829 -0.145699 -0.00168463 0.0440094 0.0224099 0.000558962 0.00353312 0.0233511 0.0317158 0.00905134 -0.0339661 0.0481282 -0.0100312 -0.0269428 0.041993 0.0337682 0.0833588 0.00972865 0.141411 0.0248763 -0.000968579 0.120555 0.00620128 0.0728269 -0.0794041 0.0394342 0.0587366 0.0629855 -0.062661 -0.0908141 0.0490616 -0.112408 0.0596736 0.00253918 -0.0356102 -0.105883 -0.0118668 0.0743727
日本 0.0227271 0.0162712 0.0626665 -0.0553463 0.0338537 0.00152402 0.0280909 0.0330779 0.110237 0.10277 0.156048 0.0464431 -0.0476516 0.0197489 -0.143172 0.0526679 0.0855645 0.141925 0.0139875 -0.0108494 0.0397166 -0.0203761 0.0247814 -0.117314 0.00489069 -0.150707 -0.0509412 0.0624021 0.0166829 0.0611488 -0.066384 0.063553 -0.0442396 0.182813 -0.078884 -0.108578 0.00865868 -0.0191088 -0.0241456 -0.0733526 -0.118748 0.0973449 -0.0135683 0.0723203 -0.0270347 0.0978058 -0.0499312 0.173909 -0.0236723 0.0248712 0.104916 0.109302 0.141845 -0.0783348 -0.0334983 0.0647141 0.0697329 -0.0733926 0.0266247 0.0644044 0.064835 -0.216952 -0.126439 -0.000364904 -0.0107609 -0.034057 0.0695243 0.0466102 -0.0269348 -0.00606731 0.0502145 0.0249185 -0.0337155 -0.0495676 0.0282056 0.0639643 0.0367364 0.0160873 0.137254 -0.143471 -0.112786 0.0748557 0.0153221 0.0433383 -0.0338386 -0.0641463 0.0879763 0.0221912 -0.0726736 0.0785651 -0.0045069 0.0226994 0.0459291 0.128307 -0.0209566 0.0763223 0.0319864 0.011436 0.101868 -0.0522753 -0.00872989 -0.0799233 -0.0956823 -0.0151888 0.0215909 -0.104354 -0.0315648 -0.0285331 -0.0219647 -0.075362 -0.107189 -0.0950416 0.0285455 0.0014496 -0.0658232 0.147272 -0.0909468 -0.0513215 -0.0624007 0.056534 0.0197749 0.0922441 -0.0272726 0.00105471 -0.0236802 -0.0499512 0.0024284 -0.0503838 0.0171008 -0.0468655 0.0252601 -0.0169994 0.087896 -0.0108796 0.0404155 -0.0680405 -0.0777219 -0.0466834 0.00264081 -0.0650976 0.0914257 0.145927 -0.0126001 0.0109961 -0.129159 -0.00766451 -0.0156343 -0.000546635 -0.0406323 -0.00445202 -0.0684839 -0.00428436 -0.0653644 0.0290982 0.0438822 -0.0166993 -0.113945 0.00768164 -0.05342 -0.0418424 0.02304 -0.194475 -0.0278028 0.111267 -0.0472537 -0.0512164 0.0286549 -0.0331253 0.0162178 0.0496554 -0.056316 -0.0671266 0.0726889 -0.0204401 0.0122406 -0.0921874 -0.0283645 -0.0762721 -0.0541468 0.00937839 0.00305815 0.074912 -0.0709796 0.0453637 0.108762 0.112171 0.0371854 -0.00221097 -0.0451928 -0.00992507 -0.0511167 0.104766 -0.0186376 -0.0123654 0.0374996 -0.0655051 -0.0463015 -0.15402 0.0222094 0.0899486
家 0.0580575 0.0706534 -0.0104461 -0.0758025 0.0845712 0.00849395 0.0921209 0.0861268 0.157986 0.0277901 0.220425 0.163155 -0.14469 -0.00362221 0.0127987 -0.0594291 -0.0270736 0.0355127 0.00910946 0.0327733 0.0394009 0.0302364 -0.188489 -0.0287422 0.00214366 -0.0330335 -0.0535466 0.11391 0.0896873 -0.0787038 0.0667222 0.090088 0.0299305 0.00988938 0.0371812 0.0893472 0.0760371 -0.047529 0.065722 -0.0152365 -0.0188979 0.0202671 0.0111238 0.0422149 -0.0485187 -0.0546082 0.0357347 0.0651077 -0.0771651 -0.013149 0.0816053 0.00455949 -0.0163024 0.0127456 0.0160674 0.0858977 0.037822 0.0289847 0.0434877 -0.0993604 -0.0638637 -0.0229796 0.06041 -0.0962183 -0.0513755 -0.0384876 -0.0186905 0.0778033 0.0304898 -0.0856074 0.0578653 -0.0537633 0.0508157 0.0371504 -0.0318518 0.00934693 0.129026 -0.0170603 -0.0161357 -0.136568 0.0092877 0.0559897 -0.0485628 0.127866 0.0473477 0.0251678 0.0723537 0.105753 -0.0921905 0.0616971 0.0378224 -0.024602 -0.0357224 0.0129516 0.0376841 -0.0346908 -0.0420881 0.0137656 0.0727649 0.00199857 0.050368 0.0878344 0.0464913 -0.0520792 -0.00180712 0.0774064 -0.156869 -0.0524189 0.0882833 0.0781153 0.000310715 0.0156526 -0.0428397 -0.0122037 0.124966 0.017364 -0.0697052 0.010291 -0.123683 0.0670752 0.097567 -0.0609017 -0.148975 0.0333562 0.0244598 -0.145478 -0.0482074 0.0462694 -0.0813888 -0.106417 0.048221 0.0370572 -0.116093 0.0611583 -0.0299344 0.104441 -0.0329055 0.102616 -0.0446953 -0.0596455 -0.0530006 0.0781403 -0.0322593 0.0893261 -0.0987084 0.0366107 0.0592008 -0.0402645 0.016112 -0.00819751 0.00799865 0.0286549 0.0356454 -0.0710975 0.0533091 -0.0573046 -0.0396031 -0.0394827 -0.117464 -0.104012 0.0788014 -0.0898332 -0.150041 -0.0770549 -0.0790921 -0.0938028 -0.0146671 -0.0996399 0.0517608 0.0481648 -0.0353329 -0.0294187 -0.0144103 -0.00318232 -0.043119 0.0627894 -0.0123095 -0.0742338 0.102169 -0.092226 -0.066582 -0.0472823 0.011913 -0.0331816 -0.0106135 0.0549478 -0.0461829 0.0458754 0.0147798 0.134293 -0.113421 0.100952 -0.0477578 -0.108069 -0.0807425 -0.0994805 -0.0968445 -0.0911574 -0.0579508 0.0672477
錢 -0.0046818 0.04585 -0.165366 0.045378 0.0780486 0.00962622 0.0218401 0.0885299 0.00933112 0.0150802 0.123058 0.095436 -0.0745249 0.107257 0.00213212 -0.0389354 0.0796714 0.0701416 0.00328329 -0.0216663 0.0430686 -0.0815708 -0.103632 -0.0460806 -0.0017253 -0.0354991 -0.0301996 -0.153795 0.063867 -0.0736074 0.00339825 -0.0269537 -0.0609764 0.0103868 -0.108664 0.142112 -0.108189 -0.0135913 0.0848793 -0.101298 -0.0586912 -0.0139111 0.0891527 0.0184295 -0.0615995 0.0266374 0.0740498 -0.00527755 -0.125639 -0.00864566 -0.0757587 -0.0203459 0.0975703 -0.0405979 -0.111507 -0.00682108 -0.00707659 0.0268422 -0.0049167 -0.0444876 0.110319 -0.106003 -0.116447 -0.0426792 -0.00494221 0.0705359 0.0133484 0.0971763 -0.010132 0.0959774 -0.00697748 0.00448388 -0.00949846 -0.00546297 -0.0347364 -0.0441419 -0.079141 -0.0327646 0.0385148 -0.115304 -0.0771244 0.0152209 0.00998605 0.111461 0.123664 -0.0189507 0.112268 0.125569 -0.0399127 -0.010451 0.0225227 -0.0457069 -0.105168 0.0927718 0.122868 -0.0192553 0.037554 -0.0206115 0.0189215 0.0366755 -0.0118399 0.00391435 -0.0355514 0.0114706 -0.0874157 -0.0455513 -0.0381642 0.0417173 0.0432406 0.0350043 -0.00433175 -0.139285 -0.0550809 0.072184 -0.0998972 -0.00796482 -0.0678063 -0.00220795 -0.140112 0.0602677 -0.0354692 -0.0774686 0.00491028 0.134531 0.0471799 -0.146242 0.0156206 0.0205773 -0.0409705 -0.0766824 0.00368804 0.0679254 -0.138116 0.0813722 0.0531379 0.0116095 -0.131738 0.0874061 0.0574545 -0.0132493 -0.033851 0.1325 -0.117381 0.117075 -0.0121172 0.0671651 -0.0412474 -0.088628 0.00242653 0.0818848 0.0155179 -0.0325796 -0.0197441 0.0309774 -0.100761 -0.144167 -0.0641045 -0.0666296 -0.0876579 -0.0195146 0.0647074 -0.092526 -0.0373385 0.0669103 0.000609528 -0.00586614 -0.0036024 0.0522422 -0.126806 0.039494 -0.0484479 -0.0971794 0.107508 0.00230177 -0.0141263 0.0121428 0.00327277 0.0927837 0.0794407 0.0300327 0.0832068 0.0970722 -0.00808089 0.0020975 0.019283 0.0822789 -0.0803798 0.107027 -0.015735 0.0554528 -0.184603 0.0576464 0.0491604 -0.0214731 0.0566829 -0.0758254 -0.0366662 0.0318284 -0.133359 0.00555978
噓 0.0569733 0.0798506 -0.113146 -0.13216 0.0191058 -0.106573 0.0026122 0.0550769 0.0857432 -0.0253587 0.095613 0.0787625 0.0660432 0.0107613 -0.00882911 -6.32754e-05 -0.0139365 -0.0534177 -0.047842 -0.1337 -0.04606 -0.0337458 -0.107766 0.0368592 -0.00167616 -0.0121699 -0.00361055 -0.00824455 0.0348606 0.0512285 0.145548 -0.0138224 0.0534046 0.110807 -0.153645 0.0496023 -0.09489 -0.0605531 -0.0571297 -0.104945 0.0907786 0.143083 0.128113 0.13784 -0.051745 -0.026119 -0.0538966 0.0395667 -0.0788153 -0.00123287 -0.0300272 0.000165441 0.0988738 -0.144796 -0.0639932 0.132387 0.0338053 -0.0485465 -0.00976792 -0.0666884 0.00470942 -0.0874353 0.0309496 -0.00718267 0.0149171 -0.0553706 -0.0450009 0.0892072 -0.0247896 0.00397797 -0.105373 0.0168942 -0.03204 -0.0222865 0.00587959 0.0264364 -0.0696389 -0.0361367 -0.00395476 -0.0290115 -0.092615 0.1107 0.0542399 0.17745 0.116752 -0.036459 0.107428 -0.0193107 -0.0117149 0.115572 -0.02923 0.0548928 0.0146793 -0.0404874 0.0465553 -0.0586328 0.10682 0.0520303 -0.0131542 0.0530068 -0.0468564 -0.0654573 0.000543761 -0.0794577 0.0404835 -0.0419888 -0.0296731 0.0519571 -0.022615 -0.0239102 -0.103877 0.0505638 -0.0653412 -0.0504418 -0.11548 0.00803728 0.0763563 0.0626988 -0.00901066 0.00678413 0.0352001 -0.0688856 0.0958834 0.117633 0.11855 -0.0225207 -0.0384628 -0.0734959 -0.0894134 0.0291116 -0.0137597 -0.0465461 0.0277061 -0.0460344 0.0603715 0.0189677 -0.0075627 0.0772097 0.0500475 -0.0468085 -0.141816 0.0853038 -0.0467029 -0.104929 -0.0186955 0.0377072 -0.00438966 0.00962385 0.0102271 0.00911334 -0.0826013 -0.0615336 0.13013 -0.0677858 0.0161902 -0.14148 -0.160866 0.000243319 -0.000381351 -0.0212908 -0.0979366 -0.0704309 -0.0904735 -0.109917 0.00938967 -0.0486527 0.0935626 -0.149067 0.0417544 -0.016394 -0.172633 0.0656312 0.0202686 0.0142115 -0.0267734 -0.0279506 0.0452777 0.0744316 0.119322 0.109118 0.0314426 -0.0411807 0.0532718 -0.0700188 0.08406 0.0265272 -0.00519893 -0.0674469 0.0622733 -0.0341984 -0.111599 -0.0683337 -0.0418235 -0.124683 -0.0879174 0.0139924 0.018303 0.0109696 -0.0423322 0.00677765
地 0.116234 -0.050159 0.0502696 -0.00970362 -0.0722747 -0.0375521 0.0765296 0.0259214 0.137209 0.0126463 0.0566311 0.176994 0.0285433 0.0101825 -0.107103 -0.122857 -0.00437478 -0.0734015 -0.00485543 0.00528459 0.0883614 0.0385843 -0.0440467 -0.125218 0.026012 0.0572602 0.00902471 -0.158173 0.116817 -0.0876008 -0.0336776 -0.102651 0.0395131 -0.0988012 0.000526569 -0.0214523 0.118952 0.0113146 -0.103329 0.0926227 -0.0252355 -0.043617 0.033335 0.0223625 -0.00916715 -0.0083365 0.0588255 0.0340203 -0.0577827 -0.0161817 -0.0241084 -0.0340126 -0.013239 -0.0482358 -0.026948 0.0833709 0.0595308 0.0122454 -0.0302171 -0.0424509 0.0419734 0.0136143 -0.167735 -0.0553504 0.0681565 -0.0761053 0.100484 0.0327267 0.0562495 0.0533285 0.0249405 -0.0439387 0.0387122 -0.15711 0.0767517 -0.110532 -0.000284932 -0.0312346 0.108521 -0.0219908 0.0584013 0.132164 0.00480042 0.0762119 -0.0322348 0.0872298 0.132149 -0.0615663 -0.0284462 -0.138603 -0.137231 2.69226e-05 -0.0308057 0.0402855 -0.0790908 0.0158724 -0.0666365 0.0601074 0.0119729 -0.084355 -0.0893223 -0.0440155 0.0584968 0.00718418 0.066637 -0.146438 0.0130068 0.0838008 -0.0145734 0.0237252 0.00885376 0.0781589 -0.0553804 0.0612696 -0.0485702 0.0780948 0.00568323 0.0422903 -0.0871582 -0.00564007 0.0307199 -0.041133 -0.0506393 0.047081 0.102077 -0.121744 0.0791571 -0.0557072 0.0625909 0.0245768 0.072865 0.0466759 -0.11743 0.108582 -0.0632968 -0.0662067 -0.0266773 -0.0934879 0.029628 -0.00605725 0.0690444 0.213672 0.0286379 0.00737196 0.0804829 -0.0598696 0.00705698 -0.0932245 0.0390661 0.0244133 -0.0376588 -0.0457473 0.0234191 -0.0195148 0.0316817 -0.0720253 -0.0948249 -0.0313698 -0.00464726 -0.0819708 0.0309118 -0.0520282 -0.0721059 0.0274536 -0.0164283 -0.0260416 -0.0482283 -0.0514428 0.0543808 -0.00552057 -0.0481517 -0.0111382 0.00521927 -0.0525472 -0.011792 0.00434243 -0.0576933 -0.140425 0.0405143 0.0673101 0.0940485 -0.065392 -0.14463 0.101625 0.00286861 -0.0193435 0.00132818 0.0726966 0.00868465 -0.0128995 -0.0454379 -0.013796 0.123961 0.0360603 -0.0901084 0.00974298 -0.214094 -0.141481 -0.013431 0.0568132
台北 0.112822 0.0216931 0.00393617 -0.0524812 -0.0582693 0.0299295 0.0949911 0.00978645 -0.0654875 -0.125297 0.163433 0.159873 -0.0587971 0.0456759 -0.0723109 -0.0557559 0.0556879 0.0863889 0.0642489 -0.00799964 0.104765 -0.0662338 0.00746548 -0.0855981 0.0785593 -0.0640115 -0.0386876 0.0178555 0.0312671 0.035705 0.0639787 0.0817109 0.0761632 0.0125461 -0.17611 0.0301003 -0.042297 -0.0786976 0.0519448 -0.105532 -0.033781 0.0986454 0.0433142 -0.0831535 0.0350248 0.0865108 0.0398596 0.0358953 -0.0581543 0.0240491 0.0318218 0.0187272 0.110991 -0.0492787 -0.0398506 0.0476542 0.0143929 -0.00618313 -0.00212568 -0.0430406 -0.0318017 -0.102562 0.037761 -0.0964835 -0.0567155 -0.150924 0.0117667 0.108437 -0.0416384 -0.0309088 0.0477612 -0.0914773 0.0926059 0.105529 -0.0457957 0.0344769 -0.0401633 0.100206 0.0665865 -0.0448284 0.0815736 0.0644551 0.0915901 0.0497648 -0.0506286 0.0768805 0.0436252 0.0679145 -0.0451046 0.0388366 -0.0794948 -0.0288193 -0.0592899 0.197369 0.0204848 0.0450075 0.0626608 -0.0153579 -0.0538515 -0.139539 0.0797517 -0.0238288 0.0744445 0.0333003 0.0441358 0.0860834 -0.030181 0.0607617 0.107386 -0.0606804 0.0226178 0.0724337 0.0185391 0.033898 -0.045568 -0.0491423 -0.074883 0.091936 -0.0846353 0.01123 -0.069039 -0.0389907 -0.0369079 -0.014506 0.0160861 -0.215041 0.0654097 -0.0197528 -0.0149043 -0.106211 0.0637941 0.0631874 -0.0570681 0.0468409 0.109557 -0.0407777 0.0818448 -0.0137866 -0.0420554 -0.146757 0.0466809 0.0887837 -0.0684105 -0.0650579 0.0242493 -0.0825937 0.0078437 -0.0560827 0.0215241 -0.0649156 -0.0238925 0.0398306 0.0291353 0.00750167 0.0596908 -0.0458273 -0.0710128 0.0641685 -0.059498 0.0688008 -0.0100361 -0.104764 0.0292315 -0.105314 -0.0338253 -0.021408 -0.00133191 0.0872947 -0.0232709 -0.0267512 -0.0230112 0.0299029 0.04229 -0.0677647 -0.0331217 0.0400878 0.0855562 -0.0701085 0.113545 0.0458062 -0.0164821 0.0816066 -0.0428311 -0.0700073 0.0651483 -0.0380004 0.0143891 0.0163038 -0.0486974 0.105776 -0.0873965 -0.0114048 0.0977368 -0.0233389 -0.0157739 -0.0594789 -0.209248 -0.18936 -0.0333734 -0.0169156
電話 0.119428 0.128091 -0.168563 -0.157768 0.144395 -0.0303498 0.162547 0.0241855 0.0727287 0.121105 0.0480734 0.0386388 -0.0437078 0.0685297 0.0161089 -0.00806688 -0.0717236 -0.0870601 0.0193379 0.0173709 -0.0244636 0.0548288 -0.0817942 0.0573077 -0.0267842 0.0413406 -0.0477506 -0.0888026 -0.0344116 -0.0335364 -0.0523246 -0.0819382 0.0945671 -0.0667399 -0.0512507 -0.0162221 0.0778626 -0.073701 -0.0698821 0.0863848 0.0126866 -0.0626559 -0.0482436 -0.0511463 -0.152114 -0.0318065 0.00163263 0.0466613 -0.130721 -0.00813675 -0.0984871 0.0352667 0.105211 -0.012731 0.00889621 0.0999421 -0.0329697 -0.0738302 -0.00234301 -0.0591001 -0.0804217 -0.0975209 0.00250488 -0.0136839 0.0256894 0.00768798 0.154322 -0.0687662 -0.148595 -0.0473518 -0.00987988 -0.0585675 0.0235976 -0.103745 -0.0541769 0.0443673 -0.0962623 -0.146339 0.0515551 -0.102407 -0.0480415 0.0214691 0.0155732 0.0829147 0.0379762 0.0157577 0.147062 0.0024189 -0.0193635 0.0810895 0.0858797 -0.133616 -0.0504372 0.0506757 -0.0323982 0.044381 0.0299134 0.00535579 0.0427334 -0.0738088 0.00896595 -0.00392646 -0.0815072 -0.0117469 0.0349666 0.0513922 -0.183572 -0.0140835 0.00678224 0.037939 0.0198117 0.112563 -0.0371051 -0.0486536 0.00573535 0.071811 0.025604 0.0992035 0.0358137 0.0547538 0.0453348 -0.0367465 -0.0688603 -0.0723699 0.0261253 -0.180047 0.0526195 0.0547278 -0.0442294 -0.0864793 -0.0277077 0.0621687 -0.00335174 0.0623813 0.0225211 0.0022913 0.0401491 -0.0297555 -0.0790939 -0.00280024 -0.183097 0.0358154 -0.0268111 0.0330684 0.0430176 -0.0999287 -0.0148566 0.0549401 0.0300441 0.110398 0.0390997 -0.0281689 -0.056113 0.00552146 -0.0493213 -0.0822447 -0.0864359 -0.0961551 -0.12521 0.0192363 -0.0827019 -0.0580484 -0.00158907 0.0423568 0.211481 -0.0712679 -0.135698 0.0389305 -0.00645132 0.0510418 0.0377062 -0.0564125 -0.0823551 0.0140951 -0.0432034 0.0353284 -0.0935596 0.0270377 0.0931995 -0.0259871 0.0400605 -0.0248607 -0.0722442 0.0620053 -0.0474564 0.0373612 -0.0956335 0.0339984 -0.00752898 0.018103 0.0158003 -0.01097 0.0311322 0.0347 0.0858432 -0.0582138 -0.0480123 -0.00843451 0.036865 -0.00513565
寫 0.0380345 0.0317112 -0.0406052 -0.113368 -0.00728939 -0.0715943 0.0616584 -0.110852 -0.028187 0.0198054 0.039473 -0.0307215 -0.0431277 0.0115271 0.014235 -0.0263712 0.00458626 0.0282626 0.052817 -0.0277586 -0.0255122 0.0243493 -0.057735 0.00111718 0.00102958 -0.0159164 -0.0428023 0.0494765 -0.0147016 -0.0341026 -0.0276762 0.0562658 -0.117973 0.0367466 -0.136028 0.0445054 -0.0926299 0.00593972 0.0418073 -0.0647092 -0.0961986 0.0808233 0.0858844 0.0571727 -0.0491325 -0.0538739 0.162099 0.0136738 -0.0416721 -0.00742081 0.0357845 0.107823 0.00670595 0.0148874 -0.148608 0.129202 0.053048 -0.055127 0.0234167 0.0318024 -0.0822419 -0.0577259 -0.000860009 -0.0267985 -0.0537799 0.0476666 0.0175869 0.0556255 0.0790901 0.0693401 0.0584065 -0.0838703 0.0894763 0.027072 0.0103261 0.103054 -0.0729829 -0.143512 -0.0257509 -0.0996849 -0.00482917 0.0962749 -0.0591317 0.0943418 0.00498246 0.0489069 0.00562393 -0.0130034 0.0181256 0.099184 -0.0467275 0.0219138 -0.0378978 -0.00970285 0.0539201 -0.00315788 0.0930317 0.0809482 0.0853861 -0.153656 -0.0489021 -0.135946 -0.0462153 -0.110197 0.0364626 0.0724155 -0.0829626 0.0624217 -0.0192118 -0.0619894 0.0444176 -0.11333 0.0924407 0.0589337 -0.0898578 -0.0129007 -0.0517934 -0.0828402 -0.0223791 0.0348312 0.117383 -0.03428 0.0745221 0.00237998 0.0965303 -0.139543 0.0688555 -0.0773263 -0.0970577 -0.00572295 0.000169393 -0.0177058 0.119507 0.0190039 -0.0705968 0.109526 -0.0461493 0.0277635 0.00844671 0.0428966 0.00647134 0.0981064 0.0204923 0.0450472 -0.0662586 -0.119031 -0.00915076 0.0663092 0.1611 -0.0620213 0.0522793 -0.0896307 0.131481 -0.0132695 -0.0752402 0.00559889 -0.00427431 0.0308913 -0.0857366 -0.0959779 0.142213 -0.148917 0.0116991 0.020318 0.0957318 -0.0749846 0.129131 -0.109997 0.00152316 0.0673612 -0.174987 0.0350049 0.0888911 0.0212791 0.064093 -0.0513269 -0.065258 0.100724 0.142886 -0.00356958 0.000414265 -0.0458413 -0.038493 -0.0192317 -0.0294964 0.0246922 -0.168916 0.0185478 -0.0606364 0.0859271 -0.0322732 0.0153855 -0.0361632 0.0114754 0.118621 -0.0442576 -0.0973737 -0.0436514 -0.0117422 0.0894165
女 0.0807602 0.021277 -0.0533992 -0.0164065 0.0475123 0.101096 -0.0605389 0.122217 0.0859565 0.0598144 0.111119 0.0683618 0.0539495 -0.0677749 -0.042459 -0.151682 0.0147857 -0.0358172 -0.187848 0.00542772 0.0537128 -0.0167406 -0.121981 0.0979303 0.0795282 -0.0289963 -0.0514037 0.0177262 0.00277312 -0.096264 -0.0206984 -0.0515593 0.046352 0.0717103 0.0177882 -0.00368456 0.051687 -0.0278915 0.0493196 -0.0226436 0.00347707 0.0857946 -0.0854499 0.0654838 -0.0488066 -0.0487206 0.0832212 0.0105716 -0.0879315 0.0936157 -0.0861569 0.0922812 -0.0140953 -0.0245347 -0.0281275 -0.0721846 0.034191 0.0184598 -0.0146966 0.00299916 -0.0510224 -0.0503578 0.0298715 -0.0205253 -0.157897 -0.0306874 0.143657 -0.110698 0.0359531 -0.0178217 -0.00471741 -0.0864988 -0.0136801 -0.107369 -0.0042664 -0.0797887 -0.00253444 -0.209456 0.0381183 -0.0785927 -0.0708794 0.0775228 0.074612 0.0208824 0.027938 0.00114781 0.059716 0.0911238 -0.0530702 0.0811557 0.0252205 0.0271035 0.0223663 0.123147 -0.0416366 -0.10697 0.125175 0.132685 0.0280104 -0.183424 -0.0614484 -0.098418 -0.121537 0.0125551 -0.0651735 -0.0338231 -0.107743 0.0165219 0.0240733 0.00890411 -0.0500967 -0.0500208 0.0231425 -0.019717 -0.120109 0.0478366 0.0637906 -0.131358 -0.00192871 0.0916732 -0.0553028 -0.0532661 0.107869 0.0519318 0.0642651 -0.153186 0.017982 -0.0327629 -0.06452 0.034558 -0.0618323 0.0889467 0.000734694 -0.00232026 0.0645876 -0.0621868 -0.156064 0.0361007 0.141154 0.0782159 -0.0695661 0.102373 -0.129555 0.0795663 -0.0774891 -0.000411565 -0.0587753 -0.0687887 -0.0395512 -0.0621378 -0.0482707 -0.0376115 0.0432432 0.0505982 0.0182703 0.0394463 -0.00543142 0.0638359 -0.00307251 -0.0272497 0.0745481 -0.142712 -0.0844461 -0.0467265 0.0674277 -0.044629 -0.0616555 -0.0167876 0.00604329 0.126581 -0.0522573 0.00113027 0.00182507 0.0317882 0.0278514 0.0264855 0.0576096 -0.0638952 0.0154294 -0.0395878 0.132618 0.0717893 -0.122062 0.00319291 0.0217953 0.0126111 -0.0625459 -0.043447 -0.0405688 0.0130291 -0.0741706 0.0924799 0.0162567 0.0171703 -0.0228176 0.0159692 -0.0404295 -0.0559419 0.0546313 0.0421227
聽 0.0828969 0.0580609 -0.0253246 -0.0596321 0.133844 -0.00669357 0.139111 0.0144597 0.0442581 0.0348515 0.141434 0.00149785 -0.0858578 0.112697 0.00507044 -0.00543275 0.0897005 -0.1018 -0.159912 0.0382286 0.0486709 0.000465732 0.00334387 -0.151349 0.0413098 0.00444849 -0.0249363 0.0332768 -0.00220957 -0.0691216 0.00384101 0.117882 0.0180178 0.0312219 -0.104495 0.0208628 -0.0234213 -0.0455178 -0.0417401 -0.118674 -0.00759445 0.00707829 0.0843153 -0.0790354 -0.160298 -0.0544401 0.0611096 0.100318 -0.0179296 -0.0457197 0.0932006 -0.0307239 -0.061234 -0.092659 -0.012318 -0.000462868 -0.0292295 -0.063546 0.011957 0.0212194 -0.0186121 -0.067312 -0.0751334 0.00663903 0.0936895 -0.0682965 -0.013688 0.0694805 0.0257178 0.0878803 -0.028283 -0.0635775 -0.0154455 0.0529359 -0.0940118 0.0271706 -0.00546917 -0.102203 0.00122518 0.0287153 -0.0913137 0.0910605 -0.00884862 0.113028 -0.00681332 0.0196462 0.0548734 -0.148088 -0.0379985 0.0994944 0.0195547 0.0466554 -0.00809031 0.0538949 0.0129219 0.0112249 -0.00986961 -0.0127948 -0.00688342 -0.0791566 -0.00807771 -0.107924 -0.138931 -0.0520032 0.0984293 -0.0367305 -0.109241 0.0131051 -0.0836718 -0.0635347 -0.0195027 0.080452 -0.0429158 0.0607972 0.00841476 0.102639 -0.00228775 0.0497603 -0.131994 0.0461806 -0.0200957 -0.0487836 0.030994 0.0290754 0.0513559 -0.0539289 -0.0493825 -0.0351985 0.0592072 -0.0528085 0.00640059 0.0434558 0.00990125 0.123073 0.0316735 0.0772082 -0.0422469 -0.0345858 0.0322711 0.0338904 -0.0333966 0.171396 -0.0486612 -0.0111653 -0.01229 -0.104285 0.0370674 -0.0134474 -0.0468803 0.0804534 -0.0353704 -0.103515 0.0756339 0.0234381 -0.0524339 0.0351411 -0.0694162 -0.111275 -0.0602424 0.0860055 0.06768 -0.101419 0.0286652 0.0560769 0.0930512 0.021893 0.103693 -0.169198 -0.030175 0.0504357 -0.0108594 -0.124046 -0.131023 -0.0190005 -0.0051379 0.0241881 -0.0033834 0.114034 0.0447432 0.125272 -0.00275731 0.0368719 -0.149372 -0.144617 -0.0174126 -0.0503444 -0.0674673 0.0767688 -0.262129 0.0718417 -0.0110978 -0.0555678 0.0989484 -0.0365154 0.0108173 -0.0152572 -0.0116342 -0.0195048 0.0129097 -0.0273043
女友 0.011738 0.11682 -0.00897101 -0.173389 0.038834 -0.00209799 -0.00619311 0.0141847 0.0390883 0.0678984 0.123708 0.0778848 -0.0241642 0.0782917 0.0296452 -0.104428 -0.017994 -0.0634009 -0.0828084 0.0401294 0.0432934 0.0157207 -0.158506 0.0884411 0.0584597 -0.0753482 -0.0133344 -0.0890717 0.054278 -0.0375433 0.0932198 -0.0412934 0.0783179 0.00962449 0.0193364 0.00701508 0.0162652 0.0578238 -0.0180928 0.0230966 -0.0101569 0.0358321 0.0670286 -0.0847745 -0.0958443 0.0351356 -0.0473628 0.00261151 -0.057776 0.0582241 -0.0440373 0.0607356 0.0824176 -0.0223023 -0.0160932 0.12266 -0.0809192 0.0316041 0.12703 -0.0107017 -0.0502855 -0.0854216 -0.0153372 -0.0253321 -0.0722454 -0.0838949 0.116368 0.0426202 -0.0511524 -0.00567464 -0.0101312 0.00805297 0.0383408 -0.0488359 0.0503367 -0.151353 -0.0467958 -0.0657133 0.0402677 -0.0332483 -0.0648398 -0.00171768 0.0977127 0.00866886 0.00398859 -0.119712 0.138391 0.0539144 -0.0124306 0.0530016 -0.052131 -0.00326787 -0.00434703 0.0607818 -0.102658 -0.211696 0.0557757 -0.00393264 0.116646 -0.1216 0.0364898 -0.0355188 0.0951568 -0.0345679 -0.076976 -0.00913448 -0.0997828 -0.00264635 0.00186818 -0.0859571 0.0258365 -0.0688621 0.0512358 0.00911517 -0.0860004 0.130882 -0.0186413 -0.0849221 -0.0477068 0.0668224 -0.0202328 -0.0882426 0.0053966 0.0740083 0.0965543 -0.000350433 0.105948 0.0375858 0.0670819 -0.0500681 0.0236534 0.0432407 0.0304285 0.0521157 0.0640372 -0.0565403 -0.0854885 0.0499946 -0.0362818 0.141571 0.0506084 0.144924 -0.152722 -0.0639574 -0.055711 -0.0840071 -0.0186602 -0.0430949 -0.0413593 0.0695022 -0.0530105 0.0378011 0.0748072 -0.0465691 0.0296996 0.0447893 -0.023356 -0.0311879 -0.0356922 0.0372894 -0.00905405 -0.0743904 0.0289685 -0.0602215 0.0197574 0.00921166 -0.0335004 -0.0131362 -0.106811 0.173603 -0.0313793 -0.0775499 -0.000134648 0.141652 -0.14254 0.0326817 0.0466576 -0.0877119 0.019877 -0.0137852 0.136789 -0.0251661 -0.220132 -0.0581145 5.70571e-05 -0.191645 0.0436454 0.0125842 0.0069319 0.119248 -0.0185966 0.0318932 -0.000490688 -0.00685109 -0.0115818 0.0103215 0.0637436 0.0477817 0.0154671 0.0509621
男 0.0842204 0.0178436 -0.0175775 -0.0156213 0.0196872 0.122495 0.0141555 0.164683 0.116373 0.0447928 0.068552 0.0217593 0.0884865 -0.00271859 -0.0156719 -0.099707 -0.00310438 -0.0288737 -0.149108 0.0143827 0.106594 0.0491676 -0.0373205 0.0843005 0.0504845 -0.0320689 0.000760994 -0.00560848 -0.0184776 -0.0676908 0.102875 -0.055945 0.0592016 0.0572764 -0.0416264 -0.11323 0.0214444 -0.0538867 0.0736593 -0.020729 0.00147528 0.0940834 -0.00401241 0.0693939 -0.0436647 -0.0435603 0.0627 -0.0345514 -0.0604998 0.0346249 -0.0933534 0.11867 -0.0506339 -0.0721082 -0.0198329 -0.039985 -0.00771343 -0.0525064 0.00994513 -0.0269693 -0.0637455 0.000908653 0.042294 -0.00389405 -0.186873 -0.0164633 0.0862132 -0.0971598 -0.00171772 -0.057668 0.0574436 -0.0393595 -0.0387154 -0.151707 -0.0283249 -0.134863 -0.0464923 -0.155679 0.055263 -0.0161731 -0.0495288 0.0507552 0.0817852 0.0414279 0.0243398 -0.0266182 0.0598513 0.0442341 -0.0546131 0.0636973 -0.0240533 -0.0404217 -0.0276739 0.0841172 -0.0543359 -0.150403 0.0583361 0.062348 0.0399163 -0.131951 -0.0773966 -0.081529 -0.0846891 0.0118401 -0.0911787 -0.0092493 -0.174494 -0.0169611 0.0714173 -0.0680836 0.00621833 0.0134397 0.0697262 0.027855 -0.109368 0.0589433 0.0129189 -0.17129 -0.0209346 0.110316 -0.0116785 -0.0714422 0.0305967 0.0853454 0.0599772 -0.160617 0.0929181 -0.0560868 -0.0476114 0.00480965 -0.0556953 0.0681721 -0.0121712 0.0122891 0.0372229 -0.0156751 -0.0906917 0.0694092 0.0445788 0.128163 -0.0310452 0.11326 -0.186969 0.0715723 -0.146352 0.01631 -0.0320667 -0.0666965 -0.0410685 -0.0612055 -0.107413 -0.0522794 0.0705593 0.0375455 0.0541378 0.00528103 -0.064303 0.0230118 0.0447737 0.023838 0.0660641 -0.0825661 -0.0446132 -0.0148408 0.0357974 -0.0324109 -0.0766861 -0.0514495 0.0147224 0.102893 -0.00750296 0.00380267 -0.0531871 0.0725842 0.0136636 0.0141845 0.0651144 -0.0805667 0.042086 -0.0787034 0.172806 0.0684177 -0.11909 0.0613898 0.113235 -0.0846335 -0.0731153 -0.0429075 -0.00506415 0.0534019 -0.102183 0.0620909 0.0117206 0.0192766 -0.0169696 -0.0331238 -0.0115759 -0.0889207 0.0210079 0.0533
男生 -0.0437337 0.0747344 -0.0599288 -0.03545 0.0229347 0.00590403 0.0504277 0.039507 0.0434964 0.0777724 0.161996 0.0870593 -0.0207079 0.127257 0.0052136 0.0139523 -0.034691 0.00336808 -0.121608 -0.0453107 0.0484601 -0.00217627 -0.152454 0.0827378 0.10861 -0.158103 0.0898799 0.0304202 -0.107208 -0.0571064 0.0909741 -0.0856555 -0.00404492 0.120938 -0.0972086 -0.0837764 0.0270824 0.0486277 -0.0925312 0.0323219 0.0207126 0.133117 0.0559955 0.0323238 -0.0303344 0.0279763 0.112886 -0.0340671 -0.0777441 0.0449607 -0.050651 0.0637981 0.0163478 -0.0420771 -0.0231597 0.0503519 -0.0502219 -0.000273367 -0.0533221 -0.00181235 0.0478693 -0.0958836 -0.0118798 -0.0972275 -0.0308358 0.0605852 0.146341 -0.0548225 0.0781487 -0.039609 0.00862627 0.0357726 0.164373 -0.0311683 0.11578 -0.0548881 0.0184754 -0.0433542 0.050955 -0.0437855 -0.0693505 0.00791575 0.051674 -0.0634671 0.0144031 -0.0298385 0.0557421 0.0430219 0.000855072 0.0324092 -0.0404336 0.0513158 -0.0494874 0.031089 -0.00605936 -0.0302638 0.0616837 0.0478831 0.10654 -0.156922 0.0498496 -0.0431265 -0.0909141 -0.0952482 0.0216691 -0.0552577 -0.123655 0.0305643 -0.109881 -0.0422331 0.0439634 0.0022855 0.0729046 0.048979 -0.137348 0.0576644 -0.0491275 -0.0523848 -0.00615706 0.0213652 -0.00825761 -0.0504668 0.0511293 0.106707 -0.0345703 -0.0854303 0.0244253 -0.0245055 0.0234873 -0.0697504 -0.0808962 -0.0346195 -0.0241029 -0.0425759 0.0277248 -0.0717302 -0.188174 0.075956 -0.0200415 0.0812066 0.0699515 0.101429 -0.154992 0.0517657 0.0152743 -0.00770552 -0.0137044 -0.0955738 -0.0579577 0.0871703 -0.0716912 -0.0616071 0.107384 0.0699247 0.0973314 0.0094696 0.00453038 -0.0352211 0.0175723 0.0128061 0.0858565 -0.0840002 0.0332298 -0.035644 -0.0407655 -0.0986625 -0.0526205 -0.0125126 -0.0360204 0.250853 0.0707433 -0.00705862 0.00453793 0.000942721 0.0280255 -0.105044 -0.0208429 -0.111726 0.133405 -0.111693 0.0887934 -0.0264312 -0.0490617 0.0101827 0.0281747 -0.0864028 0.0811774 0.0196835 -0.00016516 0.114648 0.0250579 0.0432394 -0.031107 -0.00182441 0.0409214 -0.0870968 -0.0876883 -0.00862832 -0.0881277 0.0101661
中國 -0.00440687 0.0961708 -0.0584563 -0.0537534 0.0468323 -0.0615212 0.0730517 -0.0269882 0.0471628 0.0182572 0.148701 -0.0204656 0.0476397 0.0459301 -0.0733706 0.0186193 0.0281509 0.158569 0.00266092 0.0581277 0.000476248 -0.0843841 0.0330548 -0.0618463 0.0298589 -0.10808 -0.116402 0.0452673 0.0263505 0.0823803 -0.0523998 -0.0308517 -0.0194646 0.00953556 -0.122871 -0.102943 0.0621186 -0.0512949 -0.0364757 -0.0850719 -0.0877212 0.152872 0.0100661 0.0612777 -0.0330334 0.0744226 -0.10887 0.113991 -0.115066 0.00137006 0.0655806 0.0653887 0.104134 -0.0768325 -0.014106 0.0742929 -0.0295724 -0.0527173 0.0778961 0.0409597 -0.0411659 -0.113259 -0.154622 -0.000728553 -0.0828618 0.0104501 -0.0118282 0.0415107 0.0199297 -0.0329705 0.10901 -0.0664258 0.0679703 -0.10471 -0.0380918 0.0687093 -0.0105186 0.01571 0.0792006 -0.146491 -0.0218772 0.0570042 -0.0594117 0.0781605 0.0331607 -0.0669391 0.0863767 0.00366033 -0.0404473 -0.0569873 0.0247588 -0.0244253 -0.0683265 0.106592 -0.0529117 0.069831 -0.00518328 0.0248257 0.0261775 -0.0799973 0.0270356 -0.0575708 -0.0724573 -0.0271877 0.0469399 -0.0702607 -0.0800984 0.0397206 -0.0391466 -0.065967 -0.0497096 -0.00595588 -0.0346331 0.0768474 -0.0260992 0.115083 -0.0523926 -0.0556375 -0.0533243 0.0908028 0.0277402 0.0396239 -0.0836912 0.145529 0.00185979 -0.0518083 -0.00761762 -0.0590468 0.021856 -0.0937805 0.0558821 0.0609916 0.0307231 -0.0450077 0.136989 -0.00482441 -0.0723606 0.0575307 0.0267609 -0.0182249 0.0732294 0.0826286 -0.0280914 0.0139077 -0.0179675 0.0420592 0.0494895 0.014032 0.0013015 -0.113189 -0.0432353 0.0558656 -0.0246184 0.0735581 0.000205527 -0.0682231 -0.129003 0.00603391 -0.169745 -0.0278801 0.0537283 -0.229983 0.0485532 0.172207 0.0230582 0.00549322 0.0367183 -0.168583 0.0985038 0.0438362 -0.0182104 0.00423307 0.0511371 0.0132632 0.0496435 -0.0182726 0.0889902 0.00417436 -0.0375212 -0.0271295 0.121459 0.0966783 -0.0414079 0.0764532 0.0773155 0.138933 -0.0142798 0.0204123 -0.0095957 -0.0716449 -0.0784519 -0.00488144 -0.0668221 -0.0967472 0.057404 -0.0329963 -0.174171 -0.0188182 0.0210845 0.0431204
工作 0.125416 0.000912932 -0.145815 -0.0765936 0.0268061 -0.0595253 0.0586988 -0.0313529 0.0833596 0.0161217 0.136835 0.069252 -0.07179 0.152469 0.0688755 0.0174339 -0.0159032 -0.00321594 -0.0319255 0.0800771 -0.0381489 -0.0740136 -0.0856391 0.0798873 0.00337895 0.000903201 0.0123215 -0.0585618 -0.0366469 -0.107521 -0.0151398 -0.0375966 0.00838254 -0.0435514 -0.138645 0.071589 -0.120287 0.0305945 0.00247046 0.10311 -0.222855 0.0137209 0.0230356 -0.0716462 -0.0691776 -0.0100579 -0.103228 0.0428338 -0.138725 -0.0208617 0.0654356 0.0497423 0.04279 0.0152479 -0.0375258 0.109542 0.0600905 0.0306887 0.0174088 -0.041083 0.0571501 -0.119283 0.0350746 -0.0717454 -0.104347 -0.121199 0.106963 0.0692841 0.128938 0.0128462 -0.0609078 -0.00248971 0.00280549 -0.0138489 0.076998 -0.0356611 0.00779559 0.039009 0.0897541 0.00842733 -0.0473104 -0.0104774 0.0696873 0.00386375 -0.119079 0.0290219 0.0594145 0.0389486 -0.0351949 0.125164 -0.0634181 -0.0423051 -0.114278 0.04437 -0.0823242 -0.0540928 0.0634806 -0.00463328 0.0309394 -0.0331792 0.0867678 0.0558566 -0.0271069 -0.0800652 -0.0353801 -0.0450202 -0.114633 -0.0198667 -0.0426101 -0.0577616 0.0220296 0.0858053 0.0547303 0.082848 0.040208 0.0524407 0.0911852 0.0376868 -0.0515643 0.0138634 0.115057 -0.0969593 -0.0948889 -0.0123539 0.0182093 -0.075475 0.0245918 -0.00694939 -0.0209175 -0.0156829 0.0148837 0.0116922 -0.142222 0.103889 -0.0245046 -0.0836798 0.0216009 -0.00791478 0.0189714 0.00640406 0.020298 0.19058 -0.0313698 -0.0118067 -0.139197 0.0557129 0.00564003 -0.0576688 -0.0457937 -0.066133 -0.0613098 -0.094186 -0.0574445 -0.00861987 0.0151025 -0.0249308 0.0811482 -0.048817 -0.0839576 -0.0384787 -0.00875391 -0.148738 0.0963682 -0.0641899 0.0303012 0.0197646 -0.0358235 -0.0580302 -0.00341925 0.0965248 -0.0843761 0.0370467 0.0911203 -0.0602797 -0.160412 -0.0407786 0.0476391 0.00879007 0.0832921 0.0161924 0.0969483 0.0387518 -0.0743697 0.00867984 -0.00216265 0.0923035 -0.11351 -0.0697318 0.00622918 0.0706552 -0.114624 0.0258543 0.120556 0.0718852 0.0649309 -0.0898778 -0.13121 0.0458614 -0.026881 -0.00335097
香 0.00525259 0.0967592 0.0439015 0.0138206 -0.0231232 -0.131619 0.0187871 0.0794829 0.0161871 0.0768643 0.126048 0.0759484 -0.00859764 -0.0696445 0.0827528 -0.0518784 -0.0138514 0.128883 -0.0490231 -0.0191054 0.121321 0.0973146 -0.124986 -0.0203032 0.0959308 -0.0374063 0.0757974 0.121885 -0.0128423 -0.0739673 0.00479856 0.0509577 0.0342947 0.0073056 -0.113324 -0.0219355 0.0962113 -0.0973877 0.0597455 -0.0736547 0.0352666 -0.0331872 0.0543388 0.0579751 -0.00613266 -0.056735 0.0636732 -0.0485003 -0.114302 0.0631517 0.0178418 0.0222922 0.159071 -0.0602711 -0.0499581 0.0725377 0.0343521 -0.00560632 0.102457 -0.0298871 0.0535995 -0.0379139 -0.0117339 -0.0276317 0.0269102 0.100346 0.111479 -0.0273311 -0.0292504 0.0922225 -0.0514069 -0.0152946 -0.120612 0.0563403 -0.0618004 0.079877 0.130724 0.0255553 0.0582049 0.00389731 -0.0416297 0.0138096 0.0111896 0.106254 0.0294185 -0.151121 0.124192 -0.0169417 -0.0111806 -0.0332456 0.0186849 0.0714292 -0.0585611 0.0779592 -0.00433943 -0.0813084 0.106688 0.00533608 0.0658912 -0.0195098 -0.119408 -0.109567 0.0913929 0.111455 -0.0147215 -0.0736264 0.0357887 -0.0312566 -0.173747 -0.088038 0.0886785 -0.0185414 0.0719634 -0.155404 0.0302375 0.0683685 0.0109752 -0.0581588 -0.0143782 0.0223488 -0.0934054 -0.0564127 -0.0286204 -0.0455138 0.0055305 -0.0160407 0.0891248 0.0208109 -0.0395856 -0.0604408 0.0465873 -0.0735579 0.0916011 0.0581057 0.0282128 -0.0705877 -0.0640568 -0.0710936 -0.0549255 -0.00902227 -0.0953998 0.0943915 0.0158927 -0.0462581 0.0023788 -0.01311 -0.111191 0.0494821 0.038141 -0.0254489 -0.0809859 0.0648713 0.121522 0.0232566 -0.0768502 -0.00733439 0.0478146 -0.113959 -0.0912097 -0.0467996 0.109545 -0.0668926 0.0548145 0.00107624 0.000412932 0.033148 0.014531 0.0087552 -0.123634 0.0211221 -0.0907232 -0.051484 -0.0276068 0.000712925 -0.0746465 0.0556093 -0.0368389 -0.0282089 0.164807 -0.0274179 0.0554375 0.0485068 0.0143175 0.0630478 0.0454949 0.00127563 0.069352 0.0867019 -0.113424 0.191423 -0.0521222 -0.0247603 -0.0679243 -0.0755767 -0.144959 -0.0574494 -0.0355407 -0.0930928 0.0485444 0.0116294
美國 0.00758147 0.0327634 -0.0356111 -0.0305503 0.0606834 -0.0654827 0.0895493 -0.0211658 0.00878466 0.0159866 0.139105 0.045824 -0.0685423 0.121199 -0.0907057 0.090127 0.0270254 0.139486 0.120121 0.0636144 0.026197 -0.0721393 0.0605 -0.0622729 0.0574783 -0.0958701 -0.0904984 -0.00375716 0.0993112 0.0224791 -0.0159654 -0.0324312 -0.071266 0.0610044 -0.0540553 -0.0180185 0.065451 -0.0393606 0.0691358 -0.0362519 -0.149706 0.0458587 -0.0450273 0.0584617 -0.140623 0.168419 0.0285301 0.168882 -0.0684265 -0.0963306 0.109233 0.104818 0.150124 -0.144587 -0.0255344 0.0304702 0.0638213 -0.0108171 0.0451276 0.0535657 0.0276828 -0.165049 -0.134521 0.0476486 -0.0199862 -0.0964879 0.0525297 0.0343914 0.0862835 0.042218 0.043157 -0.0420093 0.0184905 -0.048562 0.0798642 0.0129567 0.0101737 -0.0029602 0.159204 -0.139909 0.0484154 0.132009 0.00710834 0.0237576 0.0463905 0.0179043 0.142507 0.0975804 -0.0893547 0.0456269 -0.0405232 -0.00119016 -0.0543101 0.0440929 -0.0784343 0.0258898 -0.00215087 0.0603755 0.0858445 -0.0835516 -0.0409431 -0.0312949 -0.0502195 -0.0236762 -0.00498257 -0.0809875 -0.0805774 0.0415051 0.0745766 0.0702274 -0.121475 -0.0546637 -0.0767701 0.00290953 0.000342136 0.11193 -0.0266793 0.0204825 -0.0697648 0.0814513 -0.0268505 0.0823989 -0.0889894 0.105156 0.0578552 -0.0665326 -0.00440689 0.0110402 -0.0609437 -0.0630565 -0.0650306 -0.0126652 0.00353024 0.00513173 0.122013 0.0418103 -0.0391381 -0.0138651 -0.0414777 0.0550089 0.0349961 -0.00742239 0.022125 0.00308938 -0.0532418 -0.0340224 0.0175314 -0.0160905 -0.0107249 -0.0485094 -0.0697864 -0.0282649 -0.0605677 -0.0199191 0.0423889 -0.0197649 -0.0759308 0.0374459 -0.0663699 0.0279907 -0.106693 -0.249298 0.0360122 0.0848141 0.0621514 0.0317003 0.00585484 -0.0251634 0.0322992 -0.0787995 0.0514171 -0.054531 0.0731546 -0.0534606 0.0101271 -0.0296703 0.0287676 -0.105923 -0.0375234 -0.0224915 0.0307582 0.0917118 0.00526635 -0.0589551 0.0635726 0.130547 -0.00365302 -0.0320149 -0.0923676 -0.0337793 -0.0168445 -0.00647756 0.0634054 -0.119517 0.0388006 -0.084731 -0.105561 0.0210856 -0.0258509 0.0469762
天 0.0965621 0.0554878 0.0270371 -0.0226261 0.00152329 -0.00575863 -0.00266459 0.0871557 -0.026868 -0.0598033 0.136375 0.204572 -0.0482211 0.00697826 0.0265628 -0.0107029 -0.0455507 0.0427871 -0.0944303 0.041668 0.0425173 -0.102924 0.0367883 -0.104836 0.115261 0.0858253 -0.0402669 0.0590027 0.0482151 -0.0734154 0.0569333 -0.0434451 -0.0194531 0.0167758 -0.021406 -0.0661138 0.109972 -0.021025 0.0992888 -0.0723877 0.0518906 0.0456668 0.0526937 0.0356284 0.0176155 -0.0899733 -0.150115 0.0280439 -0.028906 0.0865538 -0.0272112 -0.0351657 0.0738775 -0.0922071 0.0363358 -0.0129308 0.1141 0.0256872 0.11359 0.00781739 0.102331 0.0342607 -0.0548189 -0.00686483 0.0754338 -0.0293987 -0.0208438 0.111679 0.142685 -0.0549979 -0.0458981 0.0322403 -0.0399556 0.0406712 -0.0215229 0.01364 0.0447765 -0.0771265 0.00213146 -0.0237689 0.0248527 0.147433 0.0716096 0.118179 -0.0813485 0.0439926 0.0179558 0.0390904 -0.10054 0.0305367 0.0988653 -0.00724796 0.0450988 0.127056 -0.0302851 -0.112018 -0.0504202 0.0749466 0.0260089 -0.0748067 -0.0685156 0.0609613 -0.00947832 -0.0873261 -0.002219 -0.0135254 -0.13372 0.0680572 -0.000388551 -0.0134548 0.0390652 -0.0449327 0.044525 -0.0101014 0.0235496 0.146524 -0.0502045 -0.0899987 -0.0313081 0.0443172 0.0374176 -0.0491927 0.147677 -0.063746 0.0600442 -0.171653 0.0357559 0.0151659 0.0237908 -0.0348419 0.0887622 0.00150661 -0.102414 -0.069117 -0.0296576 0.0342202 -0.0200541 0.000990888 -0.0528891 -0.0296848 0.0074192 0.127375 0.031085 0.0255817 -0.136113 0.0792203 -0.131355 -0.0677417 0.0644017 0.0501524 -0.0336591 -0.0249039 0.0936556 -0.12481 0.00953635 -0.0218692 -0.0624586 -0.013976 -0.118225 0.0436706 -0.0967029 -0.0800344 0.0545912 0.00921658 0.136075 -0.0384248 -0.0481481 -0.0457285 -0.0115227 0.128519 0.0815936 -0.0350338 -0.00391476 0.0262152 0.0598106 -0.028348 -0.030072 -0.0841896 0.154276 -0.00698426 0.00461541 0.0262016 -0.166007 -0.0712293 -0.0205146 0.0664239 -0.0899839 -0.0263564 0.0691188 0.0812145 -0.0569823 -0.0550339 -0.019764 -0.0118934 0.00662201 0.0565451 0.0124358 -0.170278 -0.0594925 0.1254
跑 -0.0260851 0.10332 0.00869559 -0.09057 0.14045 -0.0704022 0.0807784 0.0252806 0.0519638 -0.0889101 0.224903 0.0944869 0.00861121 0.0738261 0.00619558 -0.0761944 0.0430317 -0.0684403 -0.00575947 0.0920775 0.0353589 -0.0271466 -0.0216943 0.0239993 -0.0576906 -0.066285 0.047215 0.0408579 0.015334 0.0274543 0.0254548 -0.0190428 -0.0037247 0.0183094 -0.0723248 0.0658681 -0.0724146 -0.0246866 -0.0162555 0.0349374 -0.0719531 0.0472856 -0.017235 0.084594 -0.0672137 -0.0297171 -0.0770928 0.0567299 -0.113006 -0.017808 -0.0176409 0.0869747 0.0726007 -0.084175 0.00308528 0.164345 0.0687836 -0.00328855 0.0837558 -0.0786118 0.00749213 -0.0696191 -0.0333918 0.084172 -0.0131368 0.00173314 -0.0664109 -0.0667662 -0.00421782 0.073736 0.0423823 -0.109185 0.113309 0.0715454 0.00426867 -0.118328 0.0596326 -0.0334594 0.100917 -0.0983197 0.00896282 -0.0397098 -0.0281404 0.10249 0.101967 0.0648539 0.101177 0.0388638 0.0554683 0.00206728 -0.0225151 0.0416829 -0.0631871 0.0262369 0.0308685 0.0357421 0.113829 0.0486555 0.0376577 -0.171528 0.0122545 -0.0569582 0.0791682 0.00220106 -0.0164745 -0.0604077 -0.134513 0.0786968 -0.0197567 0.0175567 -0.0406612 -0.0863166 -0.0551243 0.0351761 -0.00651438 0.0399879 -0.068367 0.0169164 -0.127066 -0.0197772 -0.0133224 0.13015 0.0594425 0.0534963 0.0473959 -0.0165127 0.122985 -0.0215858 0.0775551 -0.0315672 0.0388102 0.0293582 -0.242173 0.0755801 0.0149053 -0.0526934 -0.102371 0.0245844 0.0100207 0.0146802 0.0498343 0.189913 -0.031162 0.0307478 -0.00297182 -0.0916298 0.0637677 -0.0175446 0.0330435 0.0282904 0.12593 -0.0777647 0.0646151 0.00459072 0.162274 -0.00388577 -0.103899 -0.0301399 -0.0249125 0.00595006 -0.0261234 -0.0626641 0.0158582 0.0712136 0.0219341 -0.058298 -0.108576 -0.0834409 -0.1009 0.0209199 0.0141238 0.0118894 0.0501479 0.0118606 -0.0465886 0.11962 0.0325949 0.0185854 0.159917 0.035829 -0.0575949 0.0848567 -0.0244096 0.0122756 -0.0781538 0.0394683 -0.108973 0.104698 -0.0115801 0.0421122 -0.00779772 -0.124444 0.0181846 0.0803167 0.0890862 0.081873 -0.0695158 -0.0198946 -0.0983692 0.059811
茶 0.0793683 0.129018 0.0344133 0.00829278 0.084435 -0.122779 -0.0289271 -0.0241054 0.104466 0.00711422 -0.0202555 0.0407822 -0.137415 -0.105302 0.194278 0.014678 0.00839515 0.0762454 0.00604583 -0.078391 -0.000173071 -0.0186443 -0.0862285 -0.0909824 0.0462833 -0.123593 0.0659499 0.0314018 -0.129875 -0.0875725 0.00630546 -0.0262178 0.00989278 0.0856532 -0.17905 0.0881127 0.105658 -0.00177612 0.0225007 -0.041668 -0.0263608 0.0588388 0.0650037 0.0491103 -0.0095002 0.0443461 0.0298038 0.0867952 0.0246126 0.148845 0.00470394 0.00535131 0.0405899 -0.0782132 0.0286396 -0.0463768 0.0576611 -0.0349653 0.116721 -0.0412965 -0.0525795 -0.0554133 -0.0417349 0.101613 -0.021342 -0.0864021 -0.0854433 0.0267398 -0.0258852 -0.0592288 -0.0317915 0.0598443 0.0136346 0.0915059 -0.0212631 0.084101 0.0764618 -0.182859 0.0455967 -0.13782 -0.0349801 -0.0050614 -0.056861 0.0204093 -0.114629 -0.0874061 0.112237 0.00208007 -0.0652408 0.00232627 -0.018354 0.028456 -0.0786971 -0.0297822 0.019122 -0.0733452 0.0360689 -0.0255289 -0.0111002 0.0410915 -0.0844766 -0.0366882 0.0101862 -0.0170461 0.0808846 -0.0898179 -0.0390332 0.0330516 -0.0691477 -0.126602 -0.0580441 0.038022 0.00672167 -0.0943251 0.00959141 -0.0080914 -0.016666 0.0193588 -0.0970908 0.023489 -0.0225163 -0.0681046 0.0484759 0.121237 -0.0921995 -0.0494072 -0.0314701 0.0369625 0.0420604 -0.115941 -0.0283973 0.0293627 -0.0688513 0.102337 0.0122023 -0.0295786 -0.0293877 -0.009631 0.0493626 0.102698 -0.0266986 0.172387 -0.0122177 0.0151043 0.00116116 0.0134758 -0.0789421 -0.115222 0.047122 0.0304464 -0.122552 0.0187745 0.10297 -0.0315206 0.0759519 -0.0525504 0.0440333 -0.148329 0.0150012 -0.120331 0.141997 0.0147469 0.0514234 0.0398339 0.0090286 -0.0871621 0.0755095 -0.00148392 -0.126471 0.0265805 0.0369805 0.0210081 -0.057693 0.0730764 -0.12612 -0.038519 -0.022999 -0.0762508 0.034598 0.0536853 0.0692945 0.0615553 0.0481849 0.0740482 0.129569 0.0534685 -0.166466 0.0508347 0.0262916 0.0441324 -0.0358343 0.0286946 0.0747277 -0.0963619 -0.064241 -0.0709199 -0.0267162 -0.0882627 -0.00925805 0.0435528
飲料 -0.0261422 0.123258 0.100095 0.0408442 0.111816 -0.0351003 0.0682135 -0.0367344 0.0485257 0.0407171 0.0628727 0.060721 -0.144695 -0.0159172 0.0452694 0.0320221 0.0416339 0.0113347 -0.0202545 -0.103736 0.0388524 0.0206554 -0.0985586 -0.0214434 -0.0233462 -0.074314 -0.0116367 -0.0343451 -0.162256 0.00650063 0.060931 -0.0983959 -0.0952362 0.0299312 -0.0133623 0.160861 -0.0102216 -0.0131371 0.107715 0.0737944 -0.0928112 0.0866713 -0.0362702 -0.0406879 -0.0598211 0.00908923 0.0449301 0.111169 -0.0510371 -0.0751752 -0.00383344 0.00465785 0.057928 -0.0776391 0.0668515 0.0785549 0.0906969 -0.0554387 0.125758 -0.0614166 -0.02949 -0.144235 -0.0114378 -0.103207 0.00219884 0.0378808 -0.0497586 0.000260249 -0.11711 -0.0709109 -0.121168 -0.0406766 0.0984772 0.116638 0.00945407 0.0115723 0.0433932 -0.233893 0.0147535 -0.199196 0.00458752 -0.0427755 0.0436518 -0.0135343 -0.0967777 -0.0429477 0.00808275 0.0889342 -0.0339507 -0.0505163 -0.103216 0.00191656 -0.119502 -0.0565054 -0.0274752 0.072313 0.0134262 0.0173476 0.0687787 0.0164081 -0.101662 -0.0478052 -0.0567213 -0.0146256 0.0375685 -0.032961 -0.0363913 0.0577836 -0.0970781 -0.110545 -0.119472 -0.00272837 -0.0303693 0.0424736 0.0187887 -0.0301716 0.0525181 -0.0904191 -0.0600102 0.0971456 0.00663923 -0.0917607 0.0266431 0.0863689 0.0149809 -0.0729832 0.0267532 0.03095 0.0258042 -0.118284 -0.00112605 -0.0102458 -0.0688092 0.124506 0.0421934 -0.012999 0.027036 0.0420108 0.0309108 0.0806215 0.00813346 0.123812 0.0420064 -0.0389791 -0.0435396 -0.066142 -0.01276 -0.241212 0.0548122 -0.0245525 0.00637161 -0.0504373 -0.0872468 0.0354542 -0.0182173 0.00979284 -0.000385769 -0.136773 -0.0100481 -0.0461581 0.0495649 -0.0117105 -0.0211785 -0.00452364 -0.0399402 0.00582422 0.00107224 -0.0204287 -0.0940294 0.0320075 0.0528785 0.0384044 0.0156856 0.0658232 -0.0246055 -0.0173972 0.00950264 -0.106107 0.160647 0.0406269 -0.00690106 0.00311258 -0.00635066 0.117195 0.137293 -0.00596667 0.0497458 -0.0647521 -0.0121498 0.135439 0.00591514 0.016652 0.12385 -0.0855992 -0.059226 -0.0649238 -0.022906 0.0136127 -0.0150883 0.079279
媽媽 0.0527744 0.107801 0.0507039 -0.0352737 -0.0478381 0.00776007 -0.00282409 -0.0451472 0.114498 0.0755643 0.147086 0.15367 0.026344 0.0735554 0.0782943 -0.0239361 0.053413 0.048329 -0.0794198 0.00566275 0.0884115 0.0960217 -0.154406 -0.0333078 -0.0956753 -0.161077 -0.104781 -0.0120525 0.0438221 -0.0596763 0.101028 0.0154767 -0.0317241 -0.00752361 -0.0934129 -0.0013283 -0.0754807 0.0533493 0.0107073 -0.0928966 -0.00343634 -0.006555 0.0600902 0.0375614 -0.050298 -0.0154147 0.0548493 -0.0560619 -0.0880597 -0.0305036 -0.0288075 0.0764793 0.0775962 -0.0562173 -0.0603145 0.132616 0.0568273 0.00370876 0.00492455 -0.00120972 -0.0840307 0.00736359 -0.145773 -0.0279534 -0.000743591 -0.0347073 0.106751 -0.016779 -0.0471533 -0.0823231 -0.0904582 -0.00064832 0.0916522 -0.027094 0.00733877 -0.0413871 0.00304183 -0.066977 0.0243958 -0.0468219 -0.0499821 0.0224621 -0.0901577 0.0288517 0.0157223 -0.0843502 0.0566301 0.110264 0.00839572 0.117974 0.0525131 0.0649818 -0.0446969 0.0314004 -0.038507 -0.181123 -0.113605 0.0100642 -0.0317632 -0.190201 0.0400525 -0.154577 0.0899586 -0.00985346 -0.0393964 0.0186349 -0.0906063 -0.0346693 0.0957393 0.0353337 -0.00560177 0.0146658 0.023053 -0.107364 0.0242571 -0.0316079 0.0594505 -0.00716117 -0.0224934 -0.00439219 0.0774154 -0.0327105 -0.098843 0.00653091 0.178868 -0.112589 0.0530213 -0.0709204 -0.00410508 0.0639072 0.0215137 0.0455403 0.00751317 0.0481222 0.125772 0.00291231 -0.0580218 0.0933674 0.0148327 0.0616124 0.0606215 0.175159 -0.0533344 0.0607914 -0.00130957 -0.0081571 -0.0591463 -0.0744423 -0.00633981 0.0349957 0.0717106 -0.0835002 -0.052585 0.0376196 0.138633 0.000747612 -0.0771654 0.0717828 -0.0654844 0.0262794 0.0526331 -0.107308 -0.0749567 -0.0484872 -0.0158406 0.010475 -0.0613471 -0.0267848 0.0974968 0.0911113 -0.0509202 -0.0230452 0.0245088 0.0376488 -0.134592 -0.0580746 -0.0833118 0.0211781 0.0926792 -0.0542927 0.0658341 -0.0703041 0.0251732 -0.104012 0.112841 -0.0663373 -0.000641937 0.0852833 -0.0527003 0.0395677 -0.00221291 0.0211562 0.00131501 -0.0951149 -0.00511319 -0.0227146 -0.0892967 0.137689 0.0895893 0.0515411
老師 0.0391057 -0.0287398 -0.0472237 -0.141804 0.0402211 0.0323744 0.137578 -0.0207627 0.0576628 0.0235408 0.113493 0.0316984 -0.0245896 0.0838662 -0.0465752 0.0239976 0.0391345 0.00166525 -0.112345 0.000967738 0.0196546 0.0562157 -0.0983045 -0.0029382 -0.0279193 -0.120393 -0.00757343 -0.154454 -0.09423 -0.0790272 0.100986 -0.0631267 0.00723017 0.0167648 -0.0686888 -0.0394182 0.0364184 0.105615 0.046325 -0.115659 0.0425306 0.0844442 0.0175264 -0.0401236 -0.0356523 -0.0519906 0.0842433 0.0707168 0.00454031 0.0492458 0.0022061 -0.0740681 -0.059566 -0.105881 -0.0209902 0.150992 0.0970415 0.0452101 -0.0205492 -0.058311 0.0804939 -0.0287197 -0.0886827 -0.0622683 -0.0682542 -0.0535915 0.141738 -0.0288607 -0.00740937 -0.00187572 0.0532699 -0.0189568 0.000570117 -0.082511 0.0111546 0.056289 -0.032796 -0.0862099 0.0492924 -0.00220912 0.0543931 0.105583 -0.0309252 -0.0270902 -0.0211631 -0.006227 -0.0174777 -0.0182517 -0.10218 0.150274 -0.0368869 0.0569905 -0.0194076 -0.000920872 0.0520258 0.013955 -0.124551 0.10955 0.0557495 -0.150332 -0.0242459 -0.0716965 -0.0691305 -0.00548767 0.0308025 0.0409829 -0.0645813 0.00651885 -0.0338119 0.0384092 -0.0778589 -0.0026015 -0.0585761 0.0617827 -0.0357207 -0.0500566 -0.00321368 -0.108623 0.0665309 0.0804434 0.146836 -0.0234434 -0.0649511 0.0638395 0.0663331 -0.10375 0.0276048 0.071358 -0.0786739 -0.0357715 0.0811687 -0.0511927 0.0512404 -0.0106662 0.00538965 -0.0280792 -0.100864 0.078495 -0.11212 0.00871667 -0.0862849 0.245008 -0.0910159 0.0806653 -0.0113455 -0.0900721 0.0514218 -0.0234953 -0.00392269 -0.0377926 -0.0989194 -0.0824873 0.104796 0.0623528 0.0394075 -0.0292569 -0.104232 0.109281 -0.0716936 -0.0510799 0.0414265 0.0141929 0.0452918 -0.0471133 0.026994 -0.0153633 0.00638829 -0.12927 0.11643 0.072946 -0.0357159 -0.0559636 -0.106421 -0.0677819 -0.0962006 0.0245745 -0.0859159 -0.100081 0.0652701 -0.112681 0.0189826 0.113205 -0.0390999 -0.0750167 0.0732352 -0.0382766 -0.123061 -0.0705918 -0.0626737 0.0462835 -0.0650539 -0.0515084 -0.0164597 -0.00943848 0.018402 -0.0479745 -0.073779 0.121371 0.0166808 0.112353
男人 -0.0549057 0.11606 -0.0836803 0.0520781 -0.0169996 0.00986675 0.0444315 0.010677 0.0467301 0.103332 0.0499605 0.0816216 0.0495485 0.0326097 0.0306441 -0.0757397 -0.0405819 0.0337229 -0.0616508 0.0671238 0.00858673 0.0201208 -0.111611 0.0600999 0.0423206 -0.18974 0.0376584 0.028537 0.00387728 -0.0642098 0.109205 -0.133755 0.0710652 0.0975758 -0.124517 -0.0395619 -0.0368449 0.0306517 -0.09209 -0.0275745 0.0412328 0.129161 0.190954 0.0803437 0.0242105 0.0425029 -0.00134275 -0.0555432 -0.0136508 0.0228021 -0.101687 0.0227167 0.074476 -0.00736963 -0.0212415 0.0549884 -0.0590496 -0.0643783 0.0566477 0.0421382 -0.0301605 -0.12566 -0.0219665 -0.101108 -0.117354 -0.0487543 0.0542459 -0.162659 0.145816 -0.00437044 0.0318097 0.0186445 0.0850325 0.0242513 0.000247075 -0.0218192 0.0185345 0.0301171 0.029995 -0.0329307 -0.0339895 0.0710231 0.0610068 -0.095521 -0.0256168 -0.0330363 0.171689 0.0755216 -0.0157991 0.0551295 -0.0286836 0.0615067 -0.0503412 -0.0261588 -0.0556996 -0.0572058 -0.0189634 -0.0688018 -0.0290281 -0.127436 0.0260708 -0.0703256 -0.105511 -0.0743157 -0.0352242 -0.095778 -0.0769265 0.0470775 -0.106267 0.00670675 0.00673198 0.0469079 0.0147371 -0.00404396 -0.0544322 0.0611366 0.0275121 -0.0466264 -0.0272745 0.00811062 0.0171919 -0.0416749 0.021924 0.0681805 -0.00582344 -0.0482622 0.0204482 0.0129202 -0.00435877 -0.00301716 -0.075984 -0.02044 -0.017618 0.00423049 0.144144 -0.0264287 -0.127196 0.142132 -0.111473 0.103284 0.0886305 0.169998 -0.10667 0.0310216 -0.0402905 0.056222 -0.0477004 -0.069874 0.0475424 0.0298846 -0.0157413 0.0192432 0.0599174 0.0473083 -0.0223471 -0.0713657 0.0169216 -0.0442721 0.0432912 0.000868526 -0.0371758 -0.17913 0.0509766 -0.0559843 -0.066126 0.0218504 0.0802774 0.0298963 0.0290302 0.209827 0.0180045 -0.137008 0.0556562 0.129886 0.125013 -0.0269257 0.034039 -0.0520514 0.150856 -0.10813 0.114266 0.0191929 -0.0556065 0.00387142 0.0616472 -0.0690417 0.0170981 0.066884 -0.00452398 0.0582097 -0.0833017 -0.0559594 -0.0555413 -0.0283671 0.0591467 -0.0134499 0.00426547 0.0633678 -0.0385683 -0.0452104
魚 0.0470236 0.10229 0.0781972 -0.0580307 0.0340184 -0.0496678 -0.137738 -0.0286189 -0.0524805 0.114195 0.120841 0.0153846 0.0457868 -0.0566263 0.0145086 0.0783403 -0.0474613 0.149111 0.0946618 -0.131038 0.0367074 -0.0189462 -0.122693 0.0512493 -0.0100188 0.0143663 -0.0933692 -0.0024939 0.0870922 -0.141992 0.0590468 0.151446 -0.0576517 0.0349337 -0.111794 0.0886453 -0.0196819 0.00724031 -0.0138974 -0.0486106 0.0757406 -0.0843514 0.0486832 0.153917 0.0441061 -0.0712842 0.0325682 0.0744554 -0.0774901 -0.0540854 -0.033289 0.118727 0.0970114 -0.0758902 0.132054 0.0647241 0.0255584 0.138992 0.0422772 -0.0340158 -0.0250572 -0.0425378 0.0273872 -0.0957145 -0.0810642 0.000424953 -0.000843411 0.0190459 -0.0525558 -0.0451764 0.00215061 -0.020039 0.0534641 -0.0381854 -0.0421775 -0.0284871 0.027027 -0.135073 0.0433493 -0.0660368 -0.143593 0.0603793 0.0220813 0.104224 -0.0140396 -0.0225831 0.00314639 -0.0693661 -0.00612556 -0.0580012 -0.0172398 0.0043572 -0.0624691 0.0879556 -0.0222433 -0.0728774 0.011473 0.0814921 0.0240818 -0.00458269 -0.0178197 -0.079243 0.0121868 -0.0384161 0.063912 -0.0139718 0.0356184 0.0495892 0.0242859 -0.0279793 -0.0483827 -0.0249783 0.0343994 0.0649857 -0.0756737 0.127153 0.0480728 -0.109483 -0.117102 0.0541135 -0.0739787 0.190115 0.050128 0.0292906 -0.015114 -0.0600208 -0.0788426 0.0029963 -0.029909 -0.121479 0.0674173 -0.0933989 0.0548234 0.153482 0.13457 -0.136839 -0.0877259 -0.00510155 0.059305 0.0199117 -0.048227 0.0807388 -0.0482578 -0.0277628 0.00363311 0.0436723 -0.0602727 -0.0637024 -0.00281495 -0.070352 -0.0579856 -0.100854 -0.00388976 -0.0205721 -0.0349858 -0.149689 0.0314126 0.0693518 0.108033 -0.145563 -0.0165374 -0.0473994 -0.00659717 0.0413148 -0.0712985 0.00340031 -0.0203664 -0.147023 -0.0971937 -0.0407956 -0.00714999 -0.0249635 0.159218 -0.00605171 -0.092761 -0.0195454 0.062235 -0.0287596 -0.0134509 -0.0367035 0.00883316 -0.0219216 -0.0120576 0.0369156 0.0210784 -0.0569326 -0.083989 -0.0570864 0.080716 0.0296364 -0.0778819 0.0162318 0.0458074 -0.0819563 -0.066138 0.0178236 -0.0269051 -0.0705466 -0.0825035 0.0905367
手 0.0170632 -0.0697326 0.125178 -0.163796 0.0598505 0.0327123 0.0400532 0.0599016 0.0441908 0.0210225 0.144288 0.123261 -0.0655307 -0.104748 0.0742968 -0.036561 0.0134469 -0.0027007 -0.0085725 0.0385839 0.00394534 -0.0311936 -0.0684488 0.0231492 -0.109159 -0.154599 -0.0721814 -0.0421469 0.0101697 0.0459689 0.068006 0.0456166 -0.143304 -0.0813729 -0.140058 0.0741381 0.118129 0.049518 0.000171158 0.104561 0.148726 -0.108342 0.0539496 -0.00658415 0.0680718 -0.0566143 -0.00506359 0.0115924 0.00891141 0.0196043 -0.0854243 0.0428171 0.0188354 -0.0447027 0.0408306 0.129075 -0.073899 -0.0816951 0.0457252 -0.0609505 0.00631824 -0.036378 -0.0436708 -0.0267403 0.0109339 0.00185898 0.080238 -0.029677 -0.0339822 -0.0403215 0.0571183 -0.0303334 -0.0556922 -0.0432426 0.0598411 0.0261525 0.062309 -0.0190304 0.102355 -0.0994572 -0.0423474 0.0393673 -0.0650377 0.0589707 -0.00537541 0.00314399 0.08937 -0.0226039 0.0327811 0.0481628 0.118131 0.0882178 -0.0664746 0.0601473 0.0130697 -0.101033 0.00793006 0.0165989 0.00801 -0.122989 0.08373 -0.0179381 0.0289501 0.030735 -0.0426286 -0.00703759 -0.0917015 0.154017 -0.0642817 -0.0162933 0.0716413 -0.124351 0.030696 0.0164898 -0.0545486 0.0262756 -0.0229951 -0.0188919 -0.14666 0.0168326 -0.00322508 -0.0318372 -0.0298047 0.15075 -0.0118881 -0.139226 0.0398216 0.018041 -0.0704266 -0.0056068 0.0262289 0.0197681 -0.015667 0.0501098 0.0407183 -0.0333219 -0.0675223 0.0490384 0.0536535 0.0393094 -0.0594289 -0.046143 0.0181529 0.0456537 0.131864 -0.093482 -0.031524 0.0837787 0.083742 0.0934366 -0.0526784 0.0106019 -0.00804302 -0.0888289 0.0710922 -0.0699023 -0.040064 -0.170815 -0.0567972 0.0256366 -0.0388802 -0.142679 -0.107151 0.0149845 0.0509774 -0.0665916 0.141685 -0.0961972 -0.0168278 0.108373 -0.0975859 -0.11053 -0.0136495 0.0246819 0.0270621 0.0327183 -0.160289 -0.0482938 0.0825944 0.00702626 -0.0325228 -0.0319117 -0.122099 0.00641937 0.0199881 0.0233475 -0.0670384 -0.086194 0.0175005 0.0861431 -0.104307 -0.0449316 0.028285 -0.00369408 0.0476336 -0.0874156 -0.137734 -0.138443 0.00275612 -0.00585711
麵包 0.131131 -0.0074699 0.0165182 -0.085949 0.0556256 0.0635591 0.0387883 0.0495159 0.0323422 -0.00145916 0.174252 0.0829336 -0.0274466 -0.11709 0.1241 -0.0709733 0.0666653 0.0387331 -0.00583781 -0.153607 -0.000340766 0.1027 -0.0516646 0.120188 -0.0790414 -0.00147283 -0.0390986 0.0497956 -0.00837207 -0.0151395 0.044686 0.127757 -0.0741336 -0.034138 -0.0267267 0.0146737 -0.000829319 -0.0178816 0.0454629 -0.0218089 -0.0424095 0.028102 0.0112538 -0.0371532 0.0938007 0.0272087 -0.0318204 0.0669387 -0.0672756 -0.00554089 0.0702522 0.051984 -0.0346573 -0.0768295 0.055375 0.0293504 -0.101379 0.14888 0.0980105 -0.0524475 -0.0364178 -0.0547741 -0.0078704 -0.0496546 -0.129978 -0.0116383 0.0372403 -0.0609282 -0.0696109 -0.0278542 0.0400188 0.0404118 -0.0937118 0.0163349 -0.0169229 -0.0384922 0.0604487 -0.048897 0.0536914 -0.193737 -0.012678 -0.0381581 -0.0321576 -0.0403981 -0.105537 0.0341852 0.0304801 -0.0817383 -0.0470536 0.00806741 -0.0667492 0.045678 -0.185048 0.046763 -0.0981166 -0.104125 -0.0813758 0.0775888 0.0363064 0.0198018 0.0359176 -0.153159 -0.0436474 0.032624 -0.00695942 -0.0156709 0.0713054 -0.0409474 -0.0823729 -0.0166442 -0.0495029 -0.00957148 -0.0266948 -0.0432965 0.00817733 0.093826 -0.0327256 0.00116286 0.0556095 0.0498519 0.0382305 0.0654776 -0.0760271 0.0429164 -0.00522724 -0.112598 0.0145176 -0.0215151 -0.0926524 -0.0535235 -0.0552511 0.0804684 -0.0358361 -0.11968 0.0536175 0.0262288 -0.0397623 -0.13136 0.0356736 0.125741 -0.0233142 0.0707413 0.10541 0.00663236 -0.147407 -0.0953213 -0.00891658 -0.169912 0.122158 -0.084947 0.0763568 -0.107748 -0.0181314 0.014658 0.0775895 -0.0840395 0.047161 -0.115087 -0.085557 0.0438524 0.0452518 0.0104282 0.00278934 0.103342 -0.0131975 -0.106051 -0.103679 0.08844 -0.0699211 0.019716 -0.0784335 0.0317207 0.0295767 0.0526475 0.017507 -0.0118235 -0.00508468 -0.061825 0.136882 -0.0247358 -0.0541025 0.153417 -0.0873252 0.0992096 0.0752907 0.00743883 0.00927228 -0.0593839 0.0457796 0.126529 -0.0639693 0.0226001 0.0652256 -0.107037 -0.025859 0.0109219 -0.0428696 0.0973836 0.0399174 0.00782548
結婚 0.0953501 0.0821489 0.0171164 -0.0648039 0.0128692 -0.0486512 0.0461816 -0.134527 -0.00762384 0.0341219 0.126222 0.116845 0.0744264 0.113748 0.0267414 -0.0129857 -0.118637 -0.0626298 -0.0166124 0.0491022 0.106131 -0.108833 -0.112013 -0.0673032 0.15018 -0.117169 0.0665969 0.0463316 0.00911227 -0.094768 -0.0681766 -0.113551 -0.11359 -0.00574444 -0.0983697 0.0128429 -0.0271468 -0.00370559 0.0411281 0.0663461 -0.0382209 0.173348 0.149799 0.00467068 -0.114054 0.0169129 0.136483 0.0435599 -0.0294475 -0.00800879 0.0823484 -0.0160405 0.128009 -0.0255381 -0.0456109 0.0499943 -0.0763087 -0.0392682 0.00693864 0.0153578 -0.0201323 -0.0825198 -0.015391 0.02456 -0.0641473 0.0375415 0.139269 0.0152266 -0.00219782 0.0460453 -0.0237154 -0.0241663 0.0590745 0.0640052 0.00611381 -0.0628703 -0.0387136 -0.0379423 -0.0251619 0.046575 -0.115771 -0.00885509 0.0977226 0.106713 -0.137567 -0.000844798 0.122978 -0.000743967 -0.0411936 0.125051 0.0729623 0.0325606 0.00725411 0.0770761 -0.0955606 -0.15565 0.100144 -0.116276 0.0548845 -0.00967391 -0.025916 0.0677585 0.0254961 0.0352007 -0.0679289 0.0373638 -0.1284 -0.00247126 0.0482146 -0.00873915 -0.00730117 0.0664397 0.0297699 0.0541818 0.0089593 0.150573 0.0270734 0.0111115 -0.0286075 0.00316145 0.0226603 -0.11012 -0.106747 0.116498 0.0642334 -0.00270973 0.0469665 -0.0122256 -0.0786002 0.0157795 -0.0636506 0.0501021 -0.0588613 -0.00733356 -0.022956 -0.0212408 -0.0329882 -0.016524 -0.069012 0.115775 0.025389 0.0576708 -0.155782 -0.0222689 -0.0530219 -0.024945 -0.00086366 -0.0455216 -0.051106 0.0288529 -0.117521 0.00517378 0.0881119 -0.00967359 0.0094864 -0.0404376 -0.103539 0.0197939 -0.0928399 -0.0386599 0.075119 -0.148227 0.0425551 -0.0563055 0.000495425 -0.0892921 -0.0375826 -0.0888376 -0.0145319 0.0089267 0.0142134 -0.0181274 -0.011364 0.171576 -0.0953464 -0.105404 -0.0115865 -0.0731431 0.041557 -0.00559405 0.102926 0.0672843 -0.0441478 -0.00526435 0.0178242 -0.00727554 0.0405176 0.0148639 -0.0157334 0.0113048 -0.0443391 0.010805 -0.0679297 0.170467 -0.11141 0.0148388 0.0236403 0.0341455 -0.0512443 0.0371908
白 0.0841904 0.0698061 0.0446663 -0.0572631 0.0443418 -0.00812316 0.146913 -0.0210051 -0.0569711 0.107759 0.0577765 0.0797265 -0.043717 0.124363 -0.0126464 -0.139289 0.0297942 -0.0256674 0.0306225 -0.0214885 0.0318309 -0.0609208 -0.0053154 -0.0568014 0.0922767 -0.0593764 -0.0246015 -0.0218683 0.00728245 -0.0314193 0.104098 -0.0965133 -0.0408079 0.0249757 -0.115477 0.0103373 0.025653 -0.010156 -0.11064 -0.00618591 0.115542 -0.011726 -0.0507611 -0.0135958 0.0703172 -0.0455712 0.0582635 -0.00420019 -0.119891 0.0568834 0.157839 -0.0295924 0.138627 -0.151094 0.00581312 0.0626186 0.00505717 -0.056534 0.0479034 0.0836789 0.160944 0.101313 -0.019353 -0.0826934 -0.0347631 -0.0300239 0.0611938 0.00818725 -0.0394661 -0.138194 0.0241599 -0.0263672 0.0180931 -0.0426699 -0.109885 0.0715518 0.187382 -0.0705042 0.139622 -0.131129 0.0725927 0.0236837 -0.0337931 0.0140277 0.0573469 0.0248058 -0.0549177 0.0172197 0.0272378 0.0373089 -0.0549456 -0.0138223 0.0684694 0.0533632 0.0788071 -0.0270908 0.0602536 -0.0280489 0.085557 -0.0263247 -0.0619804 -0.0811629 0.0375173 0.0295499 0.0229175 0.0142355 -0.0138752 0.000775083 -0.124667 0.0749496 -0.0435116 -0.0963428 0.109912 0.0623345 0.0891923 0.0577349 0.070639 0.11351 -0.102418 -0.0517241 0.0060779 -0.00849518 0.0671711 0.0388337 -0.0242657 -0.103996 0.0537359 0.0467349 0.0380619 -0.130831 0.059028 -0.0261741 0.0379506 0.0715743 0.000137375 -0.035519 -0.0557379 0.140262 -0.0216018 -0.037245 -0.0981739 0.150328 -0.0364107 0.121238 0.0186188 -0.0960648 -0.1251 -0.0772643 -0.08152 0.0227563 -0.0842461 -0.0617598 0.123426 -0.058203 -0.00177443 0.0178292 -0.0320723 0.0169207 -0.0676481 0.0454255 0.0304866 -0.0784058 -0.145022 -0.0294688 0.137978 -0.123123 0.0255359 0.00812147 -0.0493987 -0.0724736 -0.145855 -0.0273362 0.00708563 0.0685682 0.0464043 0.0183208 0.0916766 0.0419364 -0.0108416 -0.0981639 -0.00432607 0.0334061 -0.0607928 -0.0587838 -0.0287443 0.0633329 -0.0493954 -0.0315339 0.00532841 -0.0108133 -0.12218 -0.112373 0.0116298 0.0205834 -0.0522405 -0.0455536 -0.0207811 -0.0110326 0.0306888 0.047393
狗 0.0778423 0.0375382 -0.0101195 -0.12737 0.184083 -0.112536 0.0437332 0.0952723 0.104675 0.0250942 0.191289 -0.0368582 0.103771 0.107717 -0.0212888 -0.00344211 0.0488932 -0.159066 -0.0234588 -0.0948701 -0.0173648 -0.021828 -0.0195824 0.0538117 -0.0572648 -0.0494926 -0.108336 -0.0175046 0.0623746 -0.0582784 0.0344972 0.00376443 -0.0155783 0.0354817 -0.095471 0.107058 -0.0954185 -0.0459659 -0.0271532 -0.0398602 0.0404675 0.115207 0.0449189 0.113999 -0.0238859 -0.00458203 -0.0235402 0.0485522 0.113674 0.0949172 0.0101265 0.0169629 0.0769037 -0.0697789 -0.0102597 0.147901 0.00576838 0.0220508 0.0665664 0.0461102 -0.0291642 0.0491582 -0.026054 -0.0518199 -0.0438219 -0.120988 -0.0371566 0.0578871 -0.0183388 -0.0619044 0.0429134 -0.00611293 0.144511 -0.01656 -0.0836785 0.00024155 0.056863 -0.0138198 0.0746269 -0.0820822 -0.0428131 0.101576 -0.0476458 0.0726838 0.103899 -0.00211377 0.0746093 -0.0947825 -0.0358371 -0.0750196 0.0345595 0.0889283 -0.0789581 0.0233002 -0.0148249 -0.0635506 -0.06963 0.101846 0.136315 -0.0879746 0.0165927 -0.13599 -0.0112705 0.0642131 -0.100965 -0.0763455 -0.122601 -0.0416015 0.00461402 -0.0231703 0.0059249 -0.0383047 -0.0519859 0.03602 -0.0506499 0.0743534 0.0825408 -0.00107474 -0.000148432 0.057001 0.0227368 0.0205074 0.00595525 0.0914799 0.0301444 -0.0165143 -0.0319736 0.0452023 -0.0634701 -0.104057 0.0993932 0.0079063 -0.0404659 0.0613192 0.0676037 -0.155768 -0.0804202 0.025208 0.0842167 -0.0322166 0.0854933 0.0873613 -0.00417112 0.0799004 0.011532 -0.0135302 -0.20302 0.0223141 0.0628312 -0.0605614 -0.0516702 -0.0893017 0.0202385 0.0646642 0.0368724 -0.0364415 0.0402833 0.00729813 -0.0883061 0.0850574 0.0195725 -0.0996672 0.0153896 -0.042253 -0.00104866 0.0107138 -0.0517827 -0.0744153 -0.0379216 -0.00577379 -0.0300132 -0.117709 0.119717 -0.101533 0.101215 -0.00736915 0.0448278 -0.0268847 0.00970347 -0.0788314 0.0497474 -0.0175417 -0.00848255 -0.200188 -0.0568871 0.0158438 -0.0280097 0.0113866 0.0769313 -0.0571711 0.0349826 -0.0522526 0.0197741 -0.110427 -0.0650505 -0.000702083 -0.103156 -0.00293256 -0.0794805 0.0859205
咖啡 0.11925 0.0975019 0.0227543 -0.0343064 0.0557835 -0.0433452 0.005593 -0.0174726 0.0872905 -0.0519668 -0.0486567 0.00535646 -0.121798 -0.0684074 0.0993913 0.0766357 0.000333344 0.0252585 0.0487585 -0.0808279 -0.0274907 0.00536865 -0.170773 0.00926179 -0.00043472 -0.00165479 -0.00471976 -0.0531654 -0.181562 -0.0988841 0.0319357 0.00381641 -0.0827513 0.0452213 -0.0652269 0.0716446 0.0623255 -0.0421414 0.0783252 0.0189153 -0.0265808 0.0373681 -0.0212985 0.100008 -0.0383471 -0.0455753 0.0528249 -0.0214751 -0.0453612 0.0319235 0.0209897 0.0693125 0.0138542 -0.0753084 0.0507229 0.0386829 0.0765286 -9.86157e-05 0.16821 0.00697671 -0.0337056 -0.0945335 -0.0487703 -0.0653244 -0.0432478 0.0178267 -0.0773185 0.0160466 -0.0123957 -0.044009 -0.0943906 0.0412644 0.0148307 0.0930253 -0.019245 0.0116512 0.0242703 -0.112458 0.0619518 -0.12087 0.0291546 0.00575495 0.0433825 0.0129002 -0.0209367 -0.0514711 0.107193 0.0144532 -0.038993 -0.0133747 -0.0118901 -0.0144992 -0.177431 0.00531098 -0.0473852 -0.0018247 0.0667048 0.0246201 0.0596137 0.0225517 -0.0829549 -0.000260395 0.083232 -0.0391399 0.148193 -0.108968 -0.0961343 0.0140048 -0.00316088 -0.145384 -0.0598896 -0.0506107 -0.0419227 -0.0637537 0.0644748 -0.0442059 0.0406836 0.0221029 -0.0349291 0.0179247 -0.00916155 -0.11148 -0.0324259 0.038092 0.106913 0.00200564 0.104775 0.0624541 0.0325531 -0.154044 -0.0484945 0.0850605 -0.0399823 0.0134042 -0.0425586 -0.111939 -0.0522834 -0.0430723 0.112518 0.126913 0.0355379 0.0500507 0.0642359 -0.0387849 0.044538 -0.0367393 -0.0876246 -0.213552 0.0652132 0.037546 0.0534498 -0.0113623 0.0216611 0.0512083 0.0238335 0.0621747 -0.0202879 -0.0928795 -0.0536717 -0.060664 0.0817488 -0.0225541 -0.0269653 0.0143672 0.0719514 -0.00835255 0.0359117 -0.0311887 -0.0531145 0.0239946 0.152164 0.0202508 0.0419317 0.115863 -0.00532839 -0.0390793 0.0371615 -0.125447 0.144998 0.0174803 -0.0472093 0.0733001 0.0557123 0.121505 0.0659634 -0.00763131 -0.0927038 -0.0206686 -0.0836588 0.120477 -0.0349952 -0.0815377 0.220236 -0.160795 -0.085164 -0.0828833 -0.0502076 -0.0211617 -0.0227124 0.0934424
車 0.0105775 -0.0120577 -0.0357629 -0.0826089 0.115483 0.057106 0.077612 -0.02302 0.0232203 -0.0454889 0.074982 0.0437986 -0.134334 -0.0309981 0.00950528 -0.0513518 -0.0488631 -0.279857 0.0740368 -0.00451752 -0.0100659 -0.076073 -0.0588264 0.00165468 0.0805562 0.0195802 0.0696245 -0.0124542 -0.0505069 0.021354 0.0819634 -0.0688794 0.107395 0.0333432 -0.0584606 0.0918183 -0.0868417 -0.0550747 0.0523481 0.0323288 0.000885105 -0.0350241 -0.0107875 0.0805943 -0.077536 0.0545144 0.00822401 -0.0183199 -0.040425 -0.0107925 -0.052433 0.0295507 0.1177 0.0624528 0.0855873 -0.0270454 -0.0532443 -0.000756651 0.00382173 0.0345189 0.142064 0.0184432 0.0186942 -0.0519575 -0.038871 -0.0285705 0.0135981 -0.000252234 -0.088269 -0.101928 0.0231173 0.0337227 -0.0993671 0.0529142 -0.0800743 -0.0923543 0.115432 -0.0350758 0.0891153 -0.0681359 -0.0560259 0.00881359 0.0521297 0.064261 0.0726297 -0.00848148 0.140039 -0.041464 -0.0363222 0.0197782 -0.0717893 0.0177135 -0.040812 0.0121047 -0.0182671 -0.0152163 0.0919399 0.0883707 0.095374 -0.0965572 0.0512766 -0.0929487 0.0346359 0.0629468 -0.0086939 -0.119274 -0.0600977 0.0887784 -0.0596179 -0.0364136 -0.0847661 -0.0222492 -0.0964 -0.0246826 -0.0987673 -0.00563733 -0.00921838 0.0118679 -0.145902 0.0952172 0.016829 -0.0698735 0.0153871 0.0924831 0.0741263 -0.0412753 0.0518591 -0.073225 -0.0886328 -0.0817114 -0.0773373 0.0867629 -0.0489095 0.120052 0.0659783 -0.0346818 -0.00805617 -0.0366768 -0.0332569 0.0956774 0.0184282 0.146429 -0.0373847 0.0559203 -0.13821 -0.0796123 0.0625544 -0.0639098 0.0888194 0.00948823 -0.0456591 0.0278743 0.0797895 0.00761674 0.0127481 -0.0348057 0.0532459 -0.00325736 -0.0798523 0.0606579 -0.11708 -0.129507 -0.195736 -0.00716164 -0.127564 -0.0419263 -0.0647148 -0.13465 -0.0781728 -0.0909178 0.0509811 -0.0133303 -0.04838 -0.0169162 0.0053763 -0.00909667 -0.0223107 -0.0161926 -0.0167773 -0.128536 0.121749 -0.0291063 -0.145539 -0.0720918 0.133307 -0.046388 -0.0679265 -0.0167163 -0.0602118 -0.0105331 -0.0544912 0.0428402 0.00592058 0.0602912 0.0939633 -0.0158356 -0.0609668 -0.124419 -0.00633931 -0.0083616
學生 -0.0608002 0.0400658 -0.0924813 -0.0832737 0.0605215 -0.00504229 0.0959856 -0.00629921 0.0505966 -0.00935492 0.103832 0.0406321 -0.0312834 0.135196 -0.0857081 -0.0699263 0.0395287 0.00914548 -0.125968 0.0321872 0.040737 0.0212845 -0.120336 0.053045 0.00202198 -0.006387 -0.0203007 -0.127488 -0.039411 -0.0981185 0.0212812 -0.0816472 -0.0327047 0.0257606 -0.0504233 -0.0370874 0.0291487 0.0851041 0.0512863 -0.0548965 -0.0298956 -0.0110896 -0.06613 -0.0569163 -0.0597198 0.0571064 -0.0190284 0.0764029 -0.0468475 0.0180377 -0.0214569 -0.0582932 -0.0544509 -0.0779306 0.0140675 0.049152 0.0548385 0.0741477 -0.0487161 -0.0976012 0.0801819 -0.0264118 -0.0522054 -0.122844 -0.11499 -0.0609929 0.161387 -0.0576498 0.00650526 -0.0644323 0.0530112 -0.00774112 0.0352714 -0.156772 0.00821733 0.0130584 -0.0392006 0.00306979 0.16238 -0.0779344 0.1025 0.0738342 0.0243933 -0.0825435 -0.00280394 -0.0468708 0.0446352 0.0318663 -0.0563035 0.0902682 -0.0052095 0.0901878 -0.0135353 0.0335972 0.0800926 0.0113558 -0.0312404 0.110528 0.0934585 -0.188544 0.0184357 -0.0874551 -0.0651846 -0.0111831 0.0527797 0.000149571 -0.102275 0.0260655 -0.0638536 -0.0582945 -0.00393978 -0.0494198 -0.0835992 0.0882653 -0.00950845 -0.0692609 0.0170964 -0.120215 0.00369193 0.0382506 0.116522 -0.0390504 -0.00387615 0.0745544 0.129323 -0.074209 0.0274177 0.0451001 -0.042879 -0.0335533 0.0214312 -0.0364972 0.0837454 0.0133678 -0.0158033 -0.0928762 -0.056169 0.0878168 -0.0460774 -0.00347495 -0.0372526 0.206905 -0.140568 0.0424316 0.00908682 -0.0764305 0.0158685 -0.0514666 0.02244 -0.0290336 -0.0635151 -0.151839 0.0608115 0.0177954 0.0620639 0.0358744 -0.107462 0.135407 -0.048207 -0.0189758 0.129109 -0.0611679 0.0017779 0.00971678 0.0239606 0.0227461 -0.00856095 -0.137709 0.068012 0.119666 0.00432942 0.034685 0.0446734 -0.0147567 -0.0981335 -0.0792387 0.0437602 -0.0936273 -0.00360692 -0.182366 0.062371 0.0783878 -0.109349 -0.00788093 0.0233623 0.038246 -0.0873815 -0.0956099 -0.0695172 0.0689395 -0.0905991 0.000658378 0.024954 0.0184719 0.0398728 -0.0638537 -0.105251 -0.0187044 -0.0256043 0.137497
高雄 0.116539 0.0107077 -0.028875 -0.0633768 -0.0705001 0.0726186 0.0913983 0.0133984 -0.00193745 -0.0117637 0.158432 0.143962 -0.081031 0.100071 -0.100284 -0.0075663 -0.0416982 -0.013965 -0.0447296 0.00755042 0.0734903 -0.0815619 0.0862215 -0.0715928 0.0674341 -0.101209 0.0256034 -0.0876433 -0.00163331 0.0400155 0.150436 0.00675777 0.147276 -0.0540883 -0.156113 0.0424726 0.0498637 -0.0902151 0.0591272 -0.116661 -0.0751473 -0.0289802 -0.0484198 -0.0203306 0.0309749 0.0451321 0.0118793 0.0378355 -0.0970761 -0.0308731 0.121927 0.0237756 0.0802645 -0.0325132 -0.0462094 0.0550982 0.0267126 0.079996 -0.0163604 -0.105359 0.0243475 -0.030497 0.0415697 -0.116305 -0.0551796 -0.117918 -0.0720723 0.0850341 -0.0563338 -0.0136296 0.0271006 0.0121451 0.046547 -0.0064873 0.0464424 0.0570881 0.00364902 0.0803676 0.117522 -0.0526122 -0.0276196 0.0572521 0.0499292 0.097824 0.0224682 -0.0269925 -0.00244948 0.113192 -0.101917 -0.0377294 -0.0288965 -0.0121281 -0.0760555 0.170575 -0.00984795 0.0532069 0.114864 -0.110027 -0.0440983 -0.0612801 0.0357894 -0.0301387 0.00257669 0.00641231 0.0911933 0.00648296 0.0305151 0.12569 0.118775 -0.0396051 -0.0651249 -0.0180769 0.0812058 0.0726302 -0.0328042 -0.0224757 -0.0111105 0.0410458 -0.0581675 0.00525482 -0.0905812 0.0329443 -0.0204606 -0.0569506 0.0648521 -0.0978134 -0.0321637 -0.0450577 0.0136372 -0.160834 0.00945108 0.0195197 -0.0102709 0.0368499 0.00768156 0.0293042 0.0996024 -0.0154757 0.0156761 -0.0911498 0.0156329 0.174724 -0.0025567 -0.0341443 0.0198672 0.0164184 0.015932 -0.0624911 0.0424025 -0.0589066 0.0372995 -0.00545497 0.0856486 0.073979 0.167404 -0.0553618 -0.102045 0.116141 -0.0450286 0.119639 0.0191157 -0.113593 -0.0413596 -0.00870221 -0.033218 -0.00673429 -0.0137894 0.0660694 -0.110385 -0.0434281 0.0239446 0.0146098 0.0634668 -0.0217054 -0.0237976 -0.022831 0.0602626 -0.0513073 0.0967795 0.104508 0.0908933 0.0443993 -0.0595413 -0.075799 0.0776218 -0.0947399 -0.0952496 -0.0578472 -0.062707 0.093139 -0.107592 -0.0877746 0.0736824 -0.0171023 -0.0136637 -0.0797947 -0.155094 -0.110211 0.0510336 0.0544801
